digraph Tree {
node [shape=box] ;
0 [label="X[409] <= 0.5\ngini = 0.9\nsamples = 21000\nvalue = [2044, 2372, 2108, 2177, 2075, 1898, 2075, 2167, 2005\n2079]"] ;
1 [label="X[434] <= 0.5\ngini = 0.815\nsamples = 6968\nvalue = [1707, 2091, 594, 442, 109, 820, 382, 228, 511, 84]"] ;
0 -> 1 [labeldistance=2.5, labelangle=45, headlabel="True"] ;
3 [label="X[455] <= 5.5\ngini = 0.552\nsamples = 2579\nvalue = [1684, 9, 123, 153, 25, 260, 143, 136, 22, 24]"] ;
1 -> 3 ;
25 [label="X[323] <= 8.5\ngini = 0.822\nsamples = 901\nvalue = [226, 8, 84, 136, 8, 217, 99, 101, 15, 7]"] ;
3 -> 25 ;
69 [label="X[489] <= 1.0\ngini = 0.702\nsamples = 428\nvalue = [207, 1, 34, 5, 3, 72, 58, 44, 1, 3]"] ;
25 -> 69 ;
71 [label="X[183] <= 1.5\ngini = 0.494\nsamples = 296\nvalue = [205, 1, 8, 4, 2, 14, 17, 42, 0, 3]"] ;
69 -> 71 ;
129 [label="gini = 0.631\nsamples = 70\nvalue = [15, 0, 2, 1, 2, 6, 4, 39, 0, 1]"] ;
71 -> 129 ;
130 [label="gini = 0.287\nsamples = 226\nvalue = [190, 1, 6, 3, 0, 8, 13, 3, 0, 2]"] ;
71 -> 130 ;
72 [label="X[543] <= 87.5\ngini = 0.671\nsamples = 132\nvalue = [2, 0, 26, 1, 1, 58, 41, 2, 1, 0]"] ;
69 -> 72 ;
179 [label="gini = 0.441\nsamples = 78\nvalue = [0, 0, 9, 1, 0, 57, 8, 2, 1, 0]"] ;
72 -> 179 ;
180 [label="gini = 0.525\nsamples = 54\nvalue = [2, 0, 17, 0, 1, 1, 33, 0, 0, 0]"] ;
72 -> 180 ;
70 [label="X[285] <= 143.0\ngini = 0.793\nsamples = 473\nvalue = [19, 7, 50, 131, 5, 145, 41, 57, 14, 4]"] ;
25 -> 70 ;
127 [label="X[486] <= 112.5\ngini = 0.77\nsamples = 429\nvalue = [19, 7, 50, 127, 5, 145, 41, 17, 14, 4]"] ;
70 -> 127 ;
133 [label="gini = 0.646\nsamples = 291\nvalue = [6, 4, 6, 124, 4, 119, 3, 16, 5, 4]"] ;
127 -> 133 ;
134 [label="gini = 0.773\nsamples = 138\nvalue = [13, 3, 44, 3, 1, 26, 38, 1, 9, 0]"] ;
127 -> 134 ;
128 [label="gini = 0.165\nsamples = 44\nvalue = [0, 0, 0, 4, 0, 0, 0, 40, 0, 0]"] ;
70 -> 128 ;
26 [label="X[597] <= 1.0\ngini = 0.242\nsamples = 1678\nvalue = [1458, 1, 39, 17, 17, 43, 44, 35, 7, 17]"] ;
3 -> 26 ;
79 [label="gini = 0.767\nsamples = 210\nvalue = [87, 0, 16, 3, 16, 18, 19, 35, 0, 16]"] ;
26 -> 79 ;
80 [label="X[489] <= 169.5\ngini = 0.127\nsamples = 1468\nvalue = [1371, 1, 23, 14, 1, 25, 25, 0, 7, 1]"] ;
26 -> 80 ;
167 [label="X[352] <= 208.0\ngini = 0.095\nsamples = 1434\nvalue = [1364, 1, 5, 13, 0, 21, 23, 0, 6, 1]"] ;
80 -> 167 ;
185 [label="gini = 0.055\nsamples = 1390\nvalue = [1351, 1, 4, 5, 0, 12, 12, 0, 4, 1]"] ;
167 -> 185 ;
186 [label="gini = 0.773\nsamples = 44\nvalue = [13, 0, 1, 8, 0, 9, 11, 0, 2, 0]"] ;
167 -> 186 ;
168 [label="gini = 0.657\nsamples = 34\nvalue = [7, 0, 18, 1, 1, 4, 2, 0, 1, 0]"] ;
80 -> 168 ;
4 [label="X[375] <= 0.5\ngini = 0.726\nsamples = 4389\nvalue = [23, 2082, 471, 289, 84, 560, 239, 92, 489, 60]"] ;
1 -> 4 ;
13 [label="X[550] <= 0.5\ngini = 0.501\nsamples = 2833\nvalue = [5, 1953, 384, 95, 37, 74, 80, 87, 101, 17]"] ;
4 -> 13 ;
19 [label="X[206] <= 0.5\ngini = 0.306\nsamples = 2315\nvalue = [1, 1921, 129, 35, 17, 43, 10, 75, 76, 8]"] ;
13 -> 19 ;
43 [label="X[378] <= 139.5\ngini = 0.198\nsamples = 2126\nvalue = [0, 1901, 60, 17, 14, 37, 4, 31, 59, 3]"] ;
19 -> 43 ;
63 [label="gini = 0.825\nsamples = 126\nvalue = [0, 30, 30, 5, 9, 22, 3, 18, 7, 2]"] ;
43 -> 63 ;
64 [label="X[485] <= 102.5\ngini = 0.124\nsamples = 2000\nvalue = [0, 1871, 30, 12, 5, 15, 1, 13, 52, 1]"] ;
43 -> 64 ;
123 [label="X[149] <= 11.5\ngini = 0.084\nsamples = 1935\nvalue = [0, 1852, 18, 11, 2, 11, 1, 12, 27, 1]"] ;
64 -> 123 ;
187 [label="gini = 0.069\nsamples = 1920\nvalue = [0, 1852, 5, 10, 2, 11, 1, 11, 27, 1]"] ;
123 -> 187 ;
188 [label="gini = 0.24\nsamples = 15\nvalue = [0, 0, 13, 1, 0, 0, 0, 1, 0, 0]"] ;
123 -> 188 ;
124 [label="gini = 0.726\nsamples = 65\nvalue = [0, 19, 12, 1, 3, 4, 0, 1, 25, 0]"] ;
64 -> 124 ;
44 [label="gini = 0.781\nsamples = 189\nvalue = [1, 20, 69, 18, 3, 6, 6, 44, 17, 5]"] ;
19 -> 44 ;
20 [label="X[372] <= 2.0\ngini = 0.714\nsamples = 518\nvalue = [4, 32, 255, 60, 20, 31, 70, 12, 25, 9]"] ;
13 -> 20 ;
81 [label="X[487] <= 6.0\ngini = 0.57\nsamples = 400\nvalue = [0, 32, 252, 59, 3, 5, 16, 12, 18, 3]"] ;
20 -> 81 ;
111 [label="X[518] <= 2.0\ngini = 0.71\nsamples = 114\nvalue = [0, 28, 25, 48, 0, 5, 5, 2, 0, 1]"] ;
81 -> 111 ;
193 [label="gini = 0.324\nsamples = 54\nvalue = [0, 0, 5, 44, 0, 3, 1, 0, 0, 1]"] ;
111 -> 193 ;
194 [label="gini = 0.66\nsamples = 60\nvalue = [0, 28, 20, 4, 0, 2, 4, 2, 0, 0]"] ;
111 -> 194 ;
112 [label="gini = 0.362\nsamples = 286\nvalue = [0, 4, 227, 11, 3, 0, 11, 10, 18, 2]"] ;
81 -> 112 ;
82 [label="X[571] <= 11.0\ngini = 0.713\nsamples = 118\nvalue = [4, 0, 3, 1, 17, 26, 54, 0, 7, 6]"] ;
20 -> 82 ;
181 [label="gini = 0.668\nsamples = 52\nvalue = [1, 0, 1, 1, 17, 24, 2, 0, 1, 5]"] ;
82 -> 181 ;
182 [label="gini = 0.367\nsamples = 66\nvalue = [3, 0, 2, 0, 0, 2, 52, 0, 6, 1]"] ;
82 -> 182 ;
14 [label="X[351] <= 23.5\ngini = 0.802\nsamples = 1556\nvalue = [18, 129, 87, 194, 47, 486, 159, 5, 388, 43]"] ;
4 -> 14 ;
33 [label="X[515] <= 93.5\ngini = 0.546\nsamples = 648\nvalue = [10, 12, 21, 44, 9, 423, 88, 0, 37, 4]"] ;
14 -> 33 ;
61 [label="X[176] <= 13.0\ngini = 0.388\nsamples = 521\nvalue = [8, 11, 15, 44, 9, 404, 12, 0, 14, 4]"] ;
33 -> 61 ;
141 [label="gini = 0.298\nsamples = 474\nvalue = [8, 11, 7, 16, 8, 396, 12, 0, 12, 4]"] ;
61 -> 141 ;
142 [label="gini = 0.585\nsamples = 47\nvalue = [0, 0, 8, 28, 1, 8, 0, 0, 2, 0]"] ;
61 -> 142 ;
62 [label="gini = 0.584\nsamples = 127\nvalue = [2, 1, 6, 0, 0, 19, 76, 0, 23, 0]"] ;
33 -> 62 ;
34 [label="X[657] <= 1.0\ngini = 0.787\nsamples = 908\nvalue = [8, 117, 66, 150, 38, 63, 71, 5, 351, 39]"] ;
14 -> 34 ;
73 [label="X[384] <= 7.5\ngini = 0.852\nsamples = 310\nvalue = [4, 52, 55, 15, 23, 45, 67, 1, 31, 17]"] ;
34 -> 73 ;
107 [label="X[526] <= 41.0\ngini = 0.84\nsamples = 243\nvalue = [1, 51, 53, 15, 22, 45, 8, 1, 31, 16]"] ;
73 -> 107 ;
165 [label="X[275] <= 58.5\ngini = 0.832\nsamples = 198\nvalue = [1, 50, 14, 14, 22, 45, 6, 0, 30, 16]"] ;
107 -> 165 ;
173 [label="gini = 0.819\nsamples = 157\nvalue = [0, 50, 14, 13, 22, 9, 6, 0, 27, 16]"] ;
165 -> 173 ;
174 [label="gini = 0.222\nsamples = 41\nvalue = [1, 0, 0, 1, 0, 36, 0, 0, 3, 0]"] ;
165 -> 174 ;
166 [label="gini = 0.245\nsamples = 45\nvalue = [0, 1, 39, 1, 0, 0, 2, 1, 1, 0]"] ;
107 -> 166 ;
108 [label="gini = 0.221\nsamples = 67\nvalue = [3, 1, 2, 0, 1, 0, 59, 0, 0, 1]"] ;
73 -> 108 ;
74 [label="X[515] <= 3.5\ngini = 0.648\nsamples = 598\nvalue = [4, 65, 11, 135, 15, 18, 4, 4, 320, 22]"] ;
34 -> 74 ;
75 [label="X[292] <= 35.0\ngini = 0.704\nsamples = 269\nvalue = [3, 27, 2, 129, 12, 16, 0, 3, 57, 20]"] ;
74 -> 75 ;
139 [label="X[318] <= 68.0\ngini = 0.443\nsamples = 170\nvalue = [0, 4, 2, 123, 5, 0, 0, 2, 30, 4]"] ;
75 -> 139 ;
175 [label="gini = 0.248\nsamples = 140\nvalue = [0, 4, 2, 121, 2, 0, 0, 1, 9, 1]"] ;
139 -> 175 ;
176 [label="gini = 0.484\nsamples = 30\nvalue = [0, 0, 0, 2, 3, 0, 0, 1, 21, 3]"] ;
139 -> 176 ;
140 [label="gini = 0.81\nsamples = 99\nvalue = [3, 23, 0, 6, 7, 16, 0, 1, 27, 16]"] ;
75 -> 140 ;
76 [label="X[294] <= 246.0\ngini = 0.346\nsamples = 329\nvalue = [1, 38, 9, 6, 3, 2, 4, 1, 263, 2]"] ;
74 -> 76 ;
91 [label="gini = 0.145\nsamples = 276\nvalue = [0, 0, 8, 3, 3, 1, 3, 1, 255, 2]"] ;
76 -> 91 ;
92 [label="gini = 0.459\nsamples = 53\nvalue = [1, 38, 1, 3, 0, 1, 1, 0, 8, 0]"] ;
76 -> 92 ;
2 [label="X[155] <= 0.5\ngini = 0.881\nsamples = 14032\nvalue = [337, 281, 1514, 1735, 1966, 1078, 1693, 1939, 1494\n1995]"] ;
0 -> 2 [labeldistance=2.5, labelangle=-45, headlabel="False"] ;
5 [label="X[239] <= 3.5\ngini = 0.815\nsamples = 7665\nvalue = [81, 169, 260, 313, 1719, 438, 558, 1906, 365, 1856]"] ;
2 -> 5 ;
7 [label="X[96] <= 1.5\ngini = 0.599\nsamples = 2354\nvalue = [6, 94, 47, 33, 1420, 44, 383, 157, 38, 132]"] ;
5 -> 7 ;
21 [label="X[295] <= 100.5\ngini = 0.51\nsamples = 2051\nvalue = [6, 94, 39, 32, 1413, 42, 99, 157, 37, 132]"] ;
7 -> 21 ;
39 [label="X[183] <= 70.0\ngini = 0.404\nsamples = 1804\nvalue = [4, 59, 29, 27, 1381, 22, 96, 34, 30, 122]"] ;
21 -> 39 ;
41 [label="X[569] <= 154.0\ngini = 0.302\nsamples = 1655\nvalue = [4, 59, 23, 22, 1377, 11, 96, 19, 20, 24]"] ;
39 -> 41 ;
59 [label="X[93] <= 10.5\ngini = 0.213\nsamples = 1533\nvalue = [3, 5, 11, 19, 1357, 7, 78, 19, 10, 24]"] ;
41 -> 59 ;
85 [label="X[98] <= 13.5\ngini = 0.179\nsamples = 1498\nvalue = [3, 5, 11, 19, 1356, 7, 44, 19, 10, 24]"] ;
59 -> 85 ;
87 [label="X[322] <= 48.5\ngini = 0.144\nsamples = 1466\nvalue = [3, 5, 8, 19, 1356, 7, 15, 19, 10, 24]"] ;
85 -> 87 ;
183 [label="gini = 0.095\nsamples = 1396\nvalue = [1, 4, 4, 10, 1328, 4, 14, 3, 7, 21]"] ;
87 -> 183 ;
184 [label="gini = 0.761\nsamples = 70\nvalue = [2, 1, 4, 9, 28, 3, 1, 16, 3, 3]"] ;
87 -> 184 ;
88 [label="gini = 0.17\nsamples = 32\nvalue = [0, 0, 3, 0, 0, 0, 29, 0, 0, 0]"] ;
85 -> 88 ;
86 [label="gini = 0.056\nsamples = 35\nvalue = [0, 0, 0, 0, 1, 0, 34, 0, 0, 0]"] ;
59 -> 86 ;
60 [label="gini = 0.737\nsamples = 122\nvalue = [1, 54, 12, 3, 20, 4, 18, 0, 10, 0]"] ;
41 -> 60 ;
42 [label="gini = 0.544\nsamples = 149\nvalue = [0, 0, 6, 5, 4, 11, 0, 15, 10, 98]"] ;
39 -> 42 ;
40 [label="X[405] <= 13.5\ngini = 0.704\nsamples = 247\nvalue = [2, 35, 10, 5, 32, 20, 3, 123, 7, 10]"] ;
21 -> 40 ;
97 [label="gini = 0.26\nsamples = 134\nvalue = [1, 0, 4, 0, 3, 6, 1, 115, 2, 2]"] ;
40 -> 97 ;
98 [label="gini = 0.806\nsamples = 113\nvalue = [1, 35, 6, 5, 29, 14, 2, 8, 5, 8]"] ;
40 -> 98 ;
22 [label="gini = 0.12\nsamples = 303\nvalue = [0, 0, 8, 1, 7, 2, 284, 0, 1, 0]"] ;
7 -> 22 ;
8 [label="X[432] <= 0.5\ngini = 0.768\nsamples = 5311\nvalue = [75, 75, 213, 280, 299, 394, 175, 1749, 327, 1724]"] ;
5 -> 8 ;
11 [label="X[377] <= 0.5\ngini = 0.567\nsamples = 2485\nvalue = [56, 11, 86, 98, 50, 201, 33, 1576, 19, 355]"] ;
8 -> 11 ;
23 [label="X[486] <= 8.5\ngini = 0.35\nsamples = 1921\nvalue = [33, 3, 80, 11, 29, 17, 14, 1534, 6, 194]"] ;
11 -> 23 ;
31 [label="X[567] <= 59.5\ngini = 0.148\nsamples = 1600\nvalue = [18, 3, 50, 9, 1, 14, 8, 1476, 2, 19]"] ;
23 -> 31 ;
103 [label="X[151] <= 94.5\ngini = 0.102\nsamples = 1557\nvalue = [1, 3, 43, 8, 1, 5, 2, 1475, 2, 17]"] ;
31 -> 103 ;
135 [label="gini = 0.072\nsamples = 1528\nvalue = [1, 1, 22, 6, 1, 4, 2, 1472, 2, 17]"] ;
103 -> 135 ;
136 [label="gini = 0.454\nsamples = 29\nvalue = [0, 2, 21, 2, 0, 1, 0, 3, 0, 0]"] ;
103 -> 136 ;
104 [label="gini = 0.751\nsamples = 43\nvalue = [17, 0, 7, 1, 0, 9, 6, 1, 0, 2]"] ;
31 -> 104 ;
32 [label="X[428] <= 4.0\ngini = 0.651\nsamples = 321\nvalue = [15, 0, 30, 2, 28, 3, 6, 58, 4, 175]"] ;
23 -> 32 ;
125 [label="gini = 0.678\nsamples = 106\nvalue = [1, 0, 28, 1, 5, 0, 0, 49, 2, 20]"] ;
32 -> 125 ;
126 [label="gini = 0.462\nsamples = 215\nvalue = [14, 0, 2, 1, 23, 3, 6, 9, 2, 155]"] ;
32 -> 126 ;
24 [label="X[491] <= 75.5\ngini = 0.778\nsamples = 564\nvalue = [23, 8, 6, 87, 21, 184, 19, 42, 13, 161]"] ;
11 -> 24 ;
77 [label="X[216] <= 1.5\ngini = 0.606\nsamples = 278\nvalue = [2, 1, 1, 82, 3, 152, 6, 5, 3, 23]"] ;
24 -> 77 ;
113 [label="gini = 0.668\nsamples = 141\nvalue = [0, 1, 1, 71, 3, 32, 6, 3, 2, 22]"] ;
77 -> 113 ;
114 [label="gini = 0.226\nsamples = 137\nvalue = [2, 0, 0, 11, 0, 120, 0, 2, 1, 1]"] ;
77 -> 114 ;
78 [label="X[294] <= 164.0\ngini = 0.724\nsamples = 286\nvalue = [21, 7, 5, 5, 18, 32, 13, 37, 10, 138]"] ;
24 -> 78 ;
147 [label="gini = 0.448\nsamples = 166\nvalue = [1, 1, 4, 4, 9, 11, 0, 7, 7, 122]"] ;
78 -> 147 ;
148 [label="gini = 0.841\nsamples = 120\nvalue = [20, 6, 1, 1, 9, 21, 13, 30, 3, 16]"] ;
78 -> 148 ;
12 [label="X[569] <= 0.5\ngini = 0.728\nsamples = 2826\nvalue = [19, 64, 127, 182, 249, 193, 142, 173, 308, 1369]"] ;
8 -> 12 ;
29 [label="X[317] <= 0.5\ngini = 0.555\nsamples = 2074\nvalue = [3, 16, 32, 130, 221, 83, 7, 134, 102, 1346]"] ;
12 -> 29 ;
49 [label="X[206] <= 6.5\ngini = 0.808\nsamples = 529\nvalue = [2, 16, 23, 104, 64, 24, 6, 97, 28, 165]"] ;
29 -> 49 ;
149 [label="X[291] <= 36.0\ngini = 0.772\nsamples = 260\nvalue = [1, 14, 12, 8, 60, 18, 6, 17, 23, 101]"] ;
49 -> 149 ;
169 [label="gini = 0.798\nsamples = 129\nvalue = [0, 13, 11, 4, 50, 11, 6, 8, 12, 14]"] ;
149 -> 169 ;
170 [label="gini = 0.537\nsamples = 131\nvalue = [1, 1, 1, 4, 10, 7, 0, 9, 11, 87]"] ;
149 -> 170 ;
150 [label="X[342] <= 6.5\ngini = 0.725\nsamples = 269\nvalue = [1, 2, 11, 96, 4, 6, 0, 80, 5, 64]"] ;
49 -> 150 ;
151 [label="X[518] <= 17.5\ngini = 0.612\nsamples = 198\nvalue = [1, 2, 11, 93, 3, 3, 0, 80, 1, 4]"] ;
150 -> 151 ;
153 [label="gini = 0.389\nsamples = 98\nvalue = [1, 0, 4, 76, 2, 3, 0, 7, 1, 4]"] ;
151 -> 153 ;
154 [label="gini = 0.433\nsamples = 100\nvalue = [0, 2, 7, 17, 1, 0, 0, 73, 0, 0]"] ;
151 -> 154 ;
152 [label="gini = 0.279\nsamples = 71\nvalue = [0, 0, 0, 3, 1, 3, 0, 0, 4, 60]"] ;
150 -> 152 ;
50 [label="X[237] <= 1.0\ngini = 0.401\nsamples = 1545\nvalue = [1, 0, 9, 26, 157, 59, 1, 37, 74, 1181]"] ;
29 -> 50 ;
67 [label="gini = 0.491\nsamples = 97\nvalue = [0, 0, 1, 1, 66, 1, 0, 3, 5, 20]"] ;
50 -> 67 ;
68 [label="X[191] <= 1.5\ngini = 0.348\nsamples = 1448\nvalue = [1, 0, 8, 25, 91, 58, 1, 34, 69, 1161]"] ;
50 -> 68 ;
93 [label="X[468] <= 63.5\ngini = 0.294\nsamples = 1377\nvalue = [1, 0, 8, 23, 67, 30, 1, 34, 61, 1152]"] ;
68 -> 93 ;
105 [label="X[543] <= 148.5\ngini = 0.201\nsamples = 1234\nvalue = [0, 0, 4, 10, 40, 12, 0, 13, 54, 1101]"] ;
93 -> 105 ;
155 [label="gini = 0.167\nsamples = 1200\nvalue = [0, 0, 3, 10, 39, 12, 0, 11, 31, 1094]"] ;
105 -> 155 ;
156 [label="gini = 0.495\nsamples = 34\nvalue = [0, 0, 1, 0, 1, 0, 0, 2, 23, 7]"] ;
105 -> 156 ;
106 [label="gini = 0.788\nsamples = 143\nvalue = [1, 0, 4, 13, 27, 18, 1, 21, 7, 51]"] ;
93 -> 106 ;
94 [label="X[354] <= 21.5\ngini = 0.701\nsamples = 71\nvalue = [0, 0, 0, 2, 24, 28, 0, 0, 8, 9]"] ;
68 -> 94 ;
195 [label="gini = 0.067\nsamples = 29\nvalue = [0, 0, 0, 0, 0, 28, 0, 0, 1, 0]"] ;
94 -> 195 ;
196 [label="gini = 0.598\nsamples = 42\nvalue = [0, 0, 0, 2, 24, 0, 0, 0, 7, 9]"] ;
94 -> 196 ;
30 [label="X[104] <= 2.5\ngini = 0.841\nsamples = 752\nvalue = [16, 48, 95, 52, 28, 110, 135, 39, 206, 23]"] ;
12 -> 30 ;
57 [label="X[487] <= 0.5\ngini = 0.826\nsamples = 642\nvalue = [16, 48, 94, 51, 27, 107, 31, 39, 206, 23]"] ;
30 -> 57 ;
83 [label="X[354] <= 23.0\ngini = 0.663\nsamples = 169\nvalue = [5, 0, 15, 43, 2, 86, 6, 0, 4, 8]"] ;
57 -> 83 ;
163 [label="gini = 0.352\nsamples = 103\nvalue = [1, 0, 3, 11, 0, 82, 4, 0, 1, 1]"] ;
83 -> 163 ;
164 [label="gini = 0.709\nsamples = 66\nvalue = [4, 0, 12, 32, 2, 4, 2, 0, 3, 7]"] ;
83 -> 164 ;
84 [label="X[657] <= 4.0\ngini = 0.763\nsamples = 473\nvalue = [11, 48, 79, 8, 25, 21, 25, 39, 202, 15]"] ;
57 -> 84 ;
89 [label="X[525] <= 27.0\ngini = 0.841\nsamples = 266\nvalue = [5, 39, 73, 5, 25, 11, 16, 33, 46, 13]"] ;
84 -> 89 ;
171 [label="X[238] <= 28.0\ngini = 0.859\nsamples = 218\nvalue = [5, 39, 30, 3, 25, 10, 15, 33, 45, 13]"] ;
89 -> 171 ;
197 [label="gini = 0.499\nsamples = 51\nvalue = [1, 35, 0, 0, 7, 1, 5, 0, 1, 1]"] ;
171 -> 197 ;
198 [label="gini = 0.835\nsamples = 167\nvalue = [4, 4, 30, 3, 18, 9, 10, 33, 44, 12]"] ;
171 -> 198 ;
172 [label="gini = 0.194\nsamples = 48\nvalue = [0, 0, 43, 2, 0, 1, 1, 0, 1, 0]"] ;
89 -> 172 ;
90 [label="gini = 0.423\nsamples = 207\nvalue = [6, 9, 6, 3, 0, 10, 9, 6, 156, 2]"] ;
84 -> 90 ;
58 [label="gini = 0.105\nsamples = 110\nvalue = [0, 0, 1, 1, 1, 3, 104, 0, 0, 0]"] ;
30 -> 58 ;
6 [label="X[657] <= 0.5\ngini = 0.834\nsamples = 6367\nvalue = [256, 112, 1254, 1422, 247, 640, 1135, 33, 1129, 139]"] ;
2 -> 6 ;
9 [label="X[319] <= 3.5\ngini = 0.704\nsamples = 2813\nvalue = [44, 29, 1022, 193, 172, 88, 1101, 15, 82, 67]"] ;
6 -> 9 ;
15 [label="X[344] <= 43.5\ngini = 0.495\nsamples = 1326\nvalue = [0, 23, 925, 94, 65, 15, 131, 14, 27, 32]"] ;
9 -> 15 ;
45 [label="X[349] <= 55.0\ngini = 0.346\nsamples = 1128\nvalue = [0, 23, 905, 89, 10, 8, 59, 13, 15, 6]"] ;
15 -> 45 ;
53 [label="gini = 0.154\nsamples = 929\nvalue = [0, 8, 854, 21, 6, 4, 14, 13, 4, 5]"] ;
45 -> 53 ;
54 [label="X[293] <= 153.0\ngini = 0.757\nsamples = 199\nvalue = [0, 15, 51, 68, 4, 4, 45, 0, 11, 1]"] ;
45 -> 54 ;
145 [label="X[489] <= 13.5\ngini = 0.599\nsamples = 128\nvalue = [0, 8, 49, 64, 2, 1, 1, 0, 3, 0]"] ;
54 -> 145 ;
177 [label="gini = 0.312\nsamples = 71\nvalue = [0, 0, 10, 58, 1, 1, 0, 0, 1, 0]"] ;
145 -> 177 ;
178 [label="gini = 0.499\nsamples = 57\nvalue = [0, 8, 39, 6, 1, 0, 1, 0, 2, 0]"] ;
145 -> 178 ;
146 [label="gini = 0.587\nsamples = 71\nvalue = [0, 7, 2, 4, 2, 3, 44, 0, 8, 1]"] ;
54 -> 146 ;
46 [label="X[180] <= 1.5\ngini = 0.758\nsamples = 198\nvalue = [0, 0, 20, 5, 55, 7, 72, 1, 12, 26]"] ;
15 -> 46 ;
109 [label="gini = 0.234\nsamples = 62\nvalue = [0, 0, 5, 1, 54, 1, 1, 0, 0, 0]"] ;
46 -> 109 ;
110 [label="X[126] <= 54.0\ngini = 0.668\nsamples = 136\nvalue = [0, 0, 15, 4, 1, 6, 71, 1, 12, 26]"] ;
46 -> 110 ;
143 [label="gini = 0.713\nsamples = 56\nvalue = [0, 0, 9, 4, 1, 5, 1, 0, 10, 26]"] ;
110 -> 143 ;
144 [label="gini = 0.228\nsamples = 80\nvalue = [0, 0, 6, 0, 0, 1, 70, 1, 2, 0]"] ;
110 -> 144 ;
16 [label="X[270] <= 0.5\ngini = 0.555\nsamples = 1487\nvalue = [44, 6, 97, 99, 107, 73, 970, 1, 55, 35]"] ;
9 -> 16 ;
35 [label="X[543] <= 0.5\ngini = 0.351\nsamples = 1192\nvalue = [10, 6, 15, 38, 60, 64, 955, 0, 33, 11]"] ;
16 -> 35 ;
55 [label="X[597] <= 1.0\ngini = 0.808\nsamples = 168\nvalue = [3, 4, 6, 23, 52, 31, 31, 0, 13, 5]"] ;
35 -> 55 ;
157 [label="gini = 0.434\nsamples = 70\nvalue = [0, 3, 0, 2, 52, 4, 0, 0, 4, 5]"] ;
55 -> 157 ;
158 [label="gini = 0.765\nsamples = 98\nvalue = [3, 1, 6, 21, 0, 27, 31, 0, 9, 0]"] ;
55 -> 158 ;
56 [label="X[217] <= 1.5\ngini = 0.184\nsamples = 1024\nvalue = [7, 2, 9, 15, 8, 33, 924, 0, 20, 6]"] ;
35 -> 56 ;
115 [label="gini = 0.114\nsamples = 978\nvalue = [1, 2, 0, 15, 6, 19, 920, 0, 10, 5]"] ;
56 -> 115 ;
116 [label="gini = 0.795\nsamples = 46\nvalue = [6, 0, 9, 0, 2, 14, 4, 0, 10, 1]"] ;
56 -> 116 ;
36 [label="X[596] <= 4.0\ngini = 0.826\nsamples = 295\nvalue = [34, 0, 82, 61, 47, 9, 15, 1, 22, 24]"] ;
16 -> 36 ;
159 [label="gini = 0.668\nsamples = 89\nvalue = [0, 0, 7, 2, 46, 1, 7, 0, 7, 19]"] ;
36 -> 159 ;
160 [label="X[489] <= 112.5\ngini = 0.749\nsamples = 206\nvalue = [34, 0, 75, 59, 1, 8, 8, 1, 15, 5]"] ;
36 -> 160 ;
161 [label="X[428] <= 12.0\ngini = 0.661\nsamples = 111\nvalue = [29, 0, 11, 56, 0, 7, 3, 0, 4, 1]"] ;
160 -> 161 ;
191 [label="gini = 0.41\nsamples = 70\nvalue = [1, 0, 5, 53, 0, 7, 1, 0, 2, 1]"] ;
161 -> 191 ;
192 [label="gini = 0.502\nsamples = 41\nvalue = [28, 0, 6, 3, 0, 0, 2, 0, 2, 0]"] ;
161 -> 192 ;
162 [label="gini = 0.524\nsamples = 95\nvalue = [5, 0, 64, 3, 1, 1, 5, 1, 11, 4]"] ;
160 -> 162 ;
10 [label="X[488] <= 1.5\ngini = 0.76\nsamples = 3554\nvalue = [212, 83, 232, 1229, 75, 552, 34, 18, 1047, 72]"] ;
6 -> 10 ;
17 [label="X[296] <= 2.5\ngini = 0.638\nsamples = 2102\nvalue = [159, 15, 46, 1132, 19, 514, 11, 8, 157, 41]"] ;
10 -> 17 ;
27 [label="X[327] <= 14.0\ngini = 0.664\nsamples = 822\nvalue = [93, 1, 29, 156, 12, 433, 11, 2, 74, 11]"] ;
17 -> 27 ;
37 [label="X[266] <= 213.0\ngini = 0.313\nsamples = 519\nvalue = [1, 1, 3, 71, 1, 424, 9, 0, 9, 0]"] ;
27 -> 37 ;
99 [label="gini = 0.151\nsamples = 426\nvalue = [0, 0, 3, 17, 0, 392, 8, 0, 6, 0]"] ;
37 -> 99 ;
100 [label="X[188] <= 57.0\ngini = 0.543\nsamples = 93\nvalue = [1, 1, 0, 54, 1, 32, 1, 0, 3, 0]"] ;
37 -> 100 ;
137 [label="gini = 0.188\nsamples = 60\nvalue = [1, 1, 0, 54, 1, 1, 0, 0, 2, 0]"] ;
100 -> 137 ;
138 [label="gini = 0.116\nsamples = 33\nvalue = [0, 0, 0, 0, 0, 31, 1, 0, 1, 0]"] ;
100 -> 138 ;
38 [label="X[407] <= 1.0\ngini = 0.772\nsamples = 303\nvalue = [92, 0, 26, 85, 11, 9, 2, 2, 65, 11]"] ;
27 -> 38 ;
65 [label="gini = 0.326\nsamples = 113\nvalue = [92, 0, 11, 1, 2, 2, 0, 2, 2, 1]"] ;
38 -> 65 ;
66 [label="X[485] <= 2.0\ngini = 0.682\nsamples = 190\nvalue = [0, 0, 15, 84, 9, 7, 2, 0, 63, 10]"] ;
38 -> 66 ;
117 [label="gini = 0.488\nsamples = 114\nvalue = [0, 0, 8, 80, 5, 4, 0, 0, 8, 9]"] ;
66 -> 117 ;
118 [label="gini = 0.46\nsamples = 76\nvalue = [0, 0, 7, 4, 4, 3, 2, 0, 55, 1]"] ;
66 -> 118 ;
28 [label="X[290] <= 149.5\ngini = 0.407\nsamples = 1280\nvalue = [66, 14, 17, 976, 7, 81, 0, 6, 83, 30]"] ;
17 -> 28 ;
51 [label="X[485] <= 131.0\ngini = 0.231\nsamples = 1065\nvalue = [19, 11, 15, 932, 5, 24, 0, 5, 39, 15]"] ;
28 -> 51 ;
119 [label="gini = 0.16\nsamples = 998\nvalue = [3, 11, 10, 914, 4, 23, 0, 5, 13, 15]"] ;
51 -> 119 ;
120 [label="gini = 0.714\nsamples = 67\nvalue = [16, 0, 5, 18, 1, 1, 0, 0, 26, 0]"] ;
51 -> 120 ;
52 [label="X[379] <= 3.0\ngini = 0.793\nsamples = 215\nvalue = [47, 3, 2, 44, 2, 57, 0, 1, 44, 15]"] ;
28 -> 52 ;
189 [label="gini = 0.473\nsamples = 63\nvalue = [42, 0, 0, 1, 0, 18, 0, 0, 0, 2]"] ;
52 -> 189 ;
190 [label="gini = 0.761\nsamples = 152\nvalue = [5, 3, 2, 43, 2, 39, 0, 1, 44, 13]"] ;
52 -> 190 ;
18 [label="X[376] <= 1.5\ngini = 0.597\nsamples = 1452\nvalue = [53, 68, 186, 97, 56, 38, 23, 10, 890, 31]"] ;
10 -> 18 ;
47 [label="X[151] <= 138.5\ngini = 0.728\nsamples = 389\nvalue = [8, 17, 167, 23, 24, 8, 5, 8, 105, 24]"] ;
18 -> 47 ;
101 [label="gini = 0.791\nsamples = 243\nvalue = [6, 17, 46, 19, 24, 7, 3, 6, 91, 24]"] ;
47 -> 101 ;
102 [label="gini = 0.303\nsamples = 146\nvalue = [2, 0, 121, 4, 0, 1, 2, 2, 14, 0]"] ;
47 -> 102 ;
48 [label="X[294] <= 236.5\ngini = 0.443\nsamples = 1063\nvalue = [45, 51, 19, 74, 32, 30, 18, 2, 785, 7]"] ;
18 -> 48 ;
95 [label="X[434] <= 8.0\ngini = 0.346\nsamples = 932\nvalue = [30, 2, 13, 63, 25, 27, 17, 1, 749, 5]"] ;
48 -> 95 ;
121 [label="gini = 0.732\nsamples = 62\nvalue = [27, 0, 0, 3, 3, 9, 9, 0, 11, 0]"] ;
95 -> 121 ;
122 [label="X[515] <= 56.5\ngini = 0.274\nsamples = 870\nvalue = [3, 2, 13, 60, 22, 18, 8, 1, 738, 5]"] ;
95 -> 122 ;
131 [label="gini = 0.651\nsamples = 194\nvalue = [0, 1, 8, 49, 16, 14, 0, 1, 101, 4]"] ;
122 -> 131 ;
132 [label="gini = 0.111\nsamples = 676\nvalue = [3, 1, 5, 11, 6, 4, 8, 0, 637, 1]"] ;
122 -> 132 ;
96 [label="gini = 0.759\nsamples = 131\nvalue = [15, 49, 6, 11, 7, 3, 1, 1, 36, 2]"] ;
48 -> 96 ;
}
