digraph Tree {
node [shape=box] ;
0 [label="X[409] <= 0.5\ngini = 0.9\nsamples = 21000\nvalue = [2044, 2372, 2108, 2177, 2075, 1898, 2075, 2167, 2005\n2079]"] ;
1 [label="X[434] <= 0.5\ngini = 0.815\nsamples = 6968\nvalue = [1707, 2091, 594, 442, 109, 820, 382, 228, 511, 84]"] ;
0 -> 1 [labeldistance=2.5, labelangle=45, headlabel="True"] ;
2 [label="X[455] <= 5.5\ngini = 0.552\nsamples = 2579\nvalue = [1684, 9, 123, 153, 25, 260, 143, 136, 22, 24]"] ;
1 -> 2 ;
3 [label="X[323] <= 8.5\ngini = 0.822\nsamples = 901\nvalue = [226, 8, 84, 136, 8, 217, 99, 101, 15, 7]"] ;
2 -> 3 ;
4 [label="X[489] <= 1.0\ngini = 0.702\nsamples = 428\nvalue = [207, 1, 34, 5, 3, 72, 58, 44, 1, 3]"] ;
3 -> 4 ;
5 [label="X[183] <= 1.5\ngini = 0.494\nsamples = 296\nvalue = [205, 1, 8, 4, 2, 14, 17, 42, 0, 3]"] ;
4 -> 5 ;
6 [label="X[570] <= 24.0\ngini = 0.631\nsamples = 70\nvalue = [15, 0, 2, 1, 2, 6, 4, 39, 0, 1]"] ;
5 -> 6 ;
7 [label="X[180] <= 24.0\ngini = 0.305\nsamples = 47\nvalue = [0, 0, 1, 0, 2, 2, 2, 39, 0, 1]"] ;
6 -> 7 ;
8 [label="X[692] <= 121.5\ngini = 0.094\nsamples = 41\nvalue = [0, 0, 0, 0, 1, 0, 0, 39, 0, 1]"] ;
7 -> 8 ;
9 [label="X[353] <= 236.0\ngini = 0.049\nsamples = 40\nvalue = [0, 0, 0, 0, 0, 0, 0, 39, 0, 1]"] ;
8 -> 9 ;
10 [label="gini = 0.0\nsamples = 39\nvalue = [0, 0, 0, 0, 0, 0, 0, 39, 0, 0]"] ;
9 -> 10 ;
11 [label="gini = 0.0\nsamples = 1\nvalue = [0, 0, 0, 0, 0, 0, 0, 0, 0, 1]"] ;
9 -> 11 ;
12 [label="gini = 0.0\nsamples = 1\nvalue = [0, 0, 0, 0, 1, 0, 0, 0, 0, 0]"] ;
8 -> 12 ;
13 [label="X[458] <= 11.5\ngini = 0.722\nsamples = 6\nvalue = [0, 0, 1, 0, 1, 2, 2, 0, 0, 0]"] ;
7 -> 13 ;
14 [label="X[153] <= 217.0\ngini = 0.625\nsamples = 4\nvalue = [0, 0, 1, 0, 1, 2, 0, 0, 0, 0]"] ;
13 -> 14 ;
15 [label="X[494] <= 212.5\ngini = 0.5\nsamples = 2\nvalue = [0, 0, 1, 0, 1, 0, 0, 0, 0, 0]"] ;
14 -> 15 ;
16 [label="gini = 0.0\nsamples = 1\nvalue = [0, 0, 0, 0, 1, 0, 0, 0, 0, 0]"] ;
15 -> 16 ;
17 [label="gini = 0.0\nsamples = 1\nvalue = [0, 0, 1, 0, 0, 0, 0, 0, 0, 0]"] ;
15 -> 17 ;
18 [label="gini = 0.0\nsamples = 2\nvalue = [0, 0, 0, 0, 0, 2, 0, 0, 0, 0]"] ;
14 -> 18 ;
19 [label="gini = 0.0\nsamples = 2\nvalue = [0, 0, 0, 0, 0, 0, 2, 0, 0, 0]"] ;
13 -> 19 ;
20 [label="X[376] <= 10.5\ngini = 0.533\nsamples = 23\nvalue = [15, 0, 1, 1, 0, 4, 2, 0, 0, 0]"] ;
6 -> 20 ;
21 [label="X[516] <= 188.0\ngini = 0.117\nsamples = 16\nvalue = [15, 0, 0, 0, 0, 1, 0, 0, 0, 0]"] ;
20 -> 21 ;
22 [label="gini = 0.0\nsamples = 15\nvalue = [15, 0, 0, 0, 0, 0, 0, 0, 0, 0]"] ;
21 -> 22 ;
23 [label="gini = 0.0\nsamples = 1\nvalue = [0, 0, 0, 0, 0, 1, 0, 0, 0, 0]"] ;
21 -> 23 ;
24 [label="X[596] <= 5.5\ngini = 0.694\nsamples = 7\nvalue = [0, 0, 1, 1, 0, 3, 2, 0, 0, 0]"] ;
20 -> 24 ;
25 [label="X[348] <= 151.0\ngini = 0.625\nsamples = 4\nvalue = [0, 0, 1, 1, 0, 0, 2, 0, 0, 0]"] ;
24 -> 25 ;
26 [label="gini = 0.0\nsamples = 2\nvalue = [0, 0, 0, 0, 0, 0, 2, 0, 0, 0]"] ;
25 -> 26 ;
27 [label="X[441] <= 1.0\ngini = 0.5\nsamples = 2\nvalue = [0, 0, 1, 1, 0, 0, 0, 0, 0, 0]"] ;
25 -> 27 ;
28 [label="gini = 0.0\nsamples = 1\nvalue = [0, 0, 1, 0, 0, 0, 0, 0, 0, 0]"] ;
27 -> 28 ;
29 [label="gini = 0.0\nsamples = 1\nvalue = [0, 0, 0, 1, 0, 0, 0, 0, 0, 0]"] ;
27 -> 29 ;
30 [label="gini = 0.0\nsamples = 3\nvalue = [0, 0, 0, 0, 0, 3, 0, 0, 0, 0]"] ;
24 -> 30 ;
31 [label="X[491] <= 10.5\ngini = 0.287\nsamples = 226\nvalue = [190, 1, 6, 3, 0, 8, 13, 3, 0, 2]"] ;
5 -> 31 ;
32 [label="X[380] <= 41.5\ngini = 0.189\nsamples = 208\nvalue = [187, 1, 4, 3, 0, 8, 5, 0, 0, 0]"] ;
31 -> 32 ;
33 [label="X[203] <= 49.5\ngini = 0.133\nsamples = 201\nvalue = [187, 1, 4, 2, 0, 4, 3, 0, 0, 0]"] ;
32 -> 33 ;
34 [label="X[103] <= 206.0\ngini = 0.072\nsamples = 191\nvalue = [184, 1, 0, 1, 0, 2, 3, 0, 0, 0]"] ;
33 -> 34 ;
35 [label="X[664] <= 59.5\ngini = 0.042\nsamples = 188\nvalue = [184, 1, 0, 1, 0, 2, 0, 0, 0, 0]"] ;
34 -> 35 ;
36 [label="X[715] <= 201.5\ngini = 0.021\nsamples = 186\nvalue = [184, 0, 0, 1, 0, 1, 0, 0, 0, 0]"] ;
35 -> 36 ;
37 [label="X[150] <= 250.5\ngini = 0.011\nsamples = 185\nvalue = [184, 0, 0, 1, 0, 0, 0, 0, 0, 0]"] ;
36 -> 37 ;
38 [label="gini = 0.0\nsamples = 183\nvalue = [183, 0, 0, 0, 0, 0, 0, 0, 0, 0]"] ;
37 -> 38 ;
39 [label="X[295] <= 101.5\ngini = 0.5\nsamples = 2\nvalue = [1, 0, 0, 1, 0, 0, 0, 0, 0, 0]"] ;
37 -> 39 ;
40 [label="gini = 0.0\nsamples = 1\nvalue = [1, 0, 0, 0, 0, 0, 0, 0, 0, 0]"] ;
39 -> 40 ;
41 [label="gini = 0.0\nsamples = 1\nvalue = [0, 0, 0, 1, 0, 0, 0, 0, 0, 0]"] ;
39 -> 41 ;
42 [label="gini = 0.0\nsamples = 1\nvalue = [0, 0, 0, 0, 0, 1, 0, 0, 0, 0]"] ;
36 -> 42 ;
43 [label="X[183] <= 246.0\ngini = 0.5\nsamples = 2\nvalue = [0, 1, 0, 0, 0, 1, 0, 0, 0, 0]"] ;
35 -> 43 ;
44 [label="gini = 0.0\nsamples = 1\nvalue = [0, 1, 0, 0, 0, 0, 0, 0, 0, 0]"] ;
43 -> 44 ;
45 [label="gini = 0.0\nsamples = 1\nvalue = [0, 0, 0, 0, 0, 1, 0, 0, 0, 0]"] ;
43 -> 45 ;
46 [label="gini = 0.0\nsamples = 3\nvalue = [0, 0, 0, 0, 0, 0, 3, 0, 0, 0]"] ;
34 -> 46 ;
47 [label="X[442] <= 19.5\ngini = 0.7\nsamples = 10\nvalue = [3, 0, 4, 1, 0, 2, 0, 0, 0, 0]"] ;
33 -> 47 ;
48 [label="gini = 0.0\nsamples = 4\nvalue = [0, 0, 4, 0, 0, 0, 0, 0, 0, 0]"] ;
47 -> 48 ;
49 [label="X[577] <= 170.5\ngini = 0.611\nsamples = 6\nvalue = [3, 0, 0, 1, 0, 2, 0, 0, 0, 0]"] ;
47 -> 49 ;
50 [label="X[293] <= 245.5\ngini = 0.444\nsamples = 3\nvalue = [0, 0, 0, 1, 0, 2, 0, 0, 0, 0]"] ;
49 -> 50 ;
51 [label="gini = 0.0\nsamples = 2\nvalue = [0, 0, 0, 0, 0, 2, 0, 0, 0, 0]"] ;
50 -> 51 ;
52 [label="gini = 0.0\nsamples = 1\nvalue = [0, 0, 0, 1, 0, 0, 0, 0, 0, 0]"] ;
50 -> 52 ;
53 [label="gini = 0.0\nsamples = 3\nvalue = [3, 0, 0, 0, 0, 0, 0, 0, 0, 0]"] ;
49 -> 53 ;
54 [label="X[187] <= 71.0\ngini = 0.571\nsamples = 7\nvalue = [0, 0, 0, 1, 0, 4, 2, 0, 0, 0]"] ;
32 -> 54 ;
55 [label="X[384] <= 10.5\ngini = 0.444\nsamples = 3\nvalue = [0, 0, 0, 1, 0, 0, 2, 0, 0, 0]"] ;
54 -> 55 ;
56 [label="gini = 0.0\nsamples = 1\nvalue = [0, 0, 0, 1, 0, 0, 0, 0, 0, 0]"] ;
55 -> 56 ;
57 [label="gini = 0.0\nsamples = 2\nvalue = [0, 0, 0, 0, 0, 0, 2, 0, 0, 0]"] ;
55 -> 57 ;
58 [label="gini = 0.0\nsamples = 4\nvalue = [0, 0, 0, 0, 0, 4, 0, 0, 0, 0]"] ;
54 -> 58 ;
59 [label="X[127] <= 119.0\ngini = 0.722\nsamples = 18\nvalue = [3, 0, 2, 0, 0, 0, 8, 3, 0, 2]"] ;
31 -> 59 ;
60 [label="X[214] <= 250.5\ngini = 0.74\nsamples = 10\nvalue = [3, 0, 2, 0, 0, 0, 0, 3, 0, 2]"] ;
59 -> 60 ;
61 [label="X[542] <= 47.0\ngini = 0.653\nsamples = 7\nvalue = [0, 0, 2, 0, 0, 0, 0, 3, 0, 2]"] ;
60 -> 61 ;
62 [label="gini = 0.0\nsamples = 3\nvalue = [0, 0, 0, 0, 0, 0, 0, 3, 0, 0]"] ;
61 -> 62 ;
63 [label="X[692] <= 126.5\ngini = 0.5\nsamples = 4\nvalue = [0, 0, 2, 0, 0, 0, 0, 0, 0, 2]"] ;
61 -> 63 ;
64 [label="gini = 0.0\nsamples = 2\nvalue = [0, 0, 2, 0, 0, 0, 0, 0, 0, 0]"] ;
63 -> 64 ;
65 [label="gini = 0.0\nsamples = 2\nvalue = [0, 0, 0, 0, 0, 0, 0, 0, 0, 2]"] ;
63 -> 65 ;
66 [label="gini = 0.0\nsamples = 3\nvalue = [3, 0, 0, 0, 0, 0, 0, 0, 0, 0]"] ;
60 -> 66 ;
67 [label="gini = 0.0\nsamples = 8\nvalue = [0, 0, 0, 0, 0, 0, 8, 0, 0, 0]"] ;
59 -> 67 ;
68 [label="X[543] <= 87.5\ngini = 0.671\nsamples = 132\nvalue = [2, 0, 26, 1, 1, 58, 41, 2, 1, 0]"] ;
4 -> 68 ;
69 [label="X[439] <= 52.5\ngini = 0.441\nsamples = 78\nvalue = [0, 0, 9, 1, 0, 57, 8, 2, 1, 0]"] ;
68 -> 69 ;
70 [label="X[100] <= 28.0\ngini = 0.178\nsamples = 63\nvalue = [0, 0, 1, 1, 0, 57, 3, 0, 1, 0]"] ;
69 -> 70 ;
71 [label="X[380] <= 85.0\ngini = 0.126\nsamples = 61\nvalue = [0, 0, 1, 1, 0, 57, 1, 0, 1, 0]"] ;
70 -> 71 ;
72 [label="X[526] <= 91.0\ngini = 0.066\nsamples = 59\nvalue = [0, 0, 1, 0, 0, 57, 1, 0, 0, 0]"] ;
71 -> 72 ;
73 [label="X[105] <= 115.5\ngini = 0.034\nsamples = 58\nvalue = [0, 0, 0, 0, 0, 57, 1, 0, 0, 0]"] ;
72 -> 73 ;
74 [label="gini = 0.0\nsamples = 57\nvalue = [0, 0, 0, 0, 0, 57, 0, 0, 0, 0]"] ;
73 -> 74 ;
75 [label="gini = 0.0\nsamples = 1\nvalue = [0, 0, 0, 0, 0, 0, 1, 0, 0, 0]"] ;
73 -> 75 ;
76 [label="gini = 0.0\nsamples = 1\nvalue = [0, 0, 1, 0, 0, 0, 0, 0, 0, 0]"] ;
72 -> 76 ;
77 [label="X[155] <= 99.0\ngini = 0.5\nsamples = 2\nvalue = [0, 0, 0, 1, 0, 0, 0, 0, 1, 0]"] ;
71 -> 77 ;
78 [label="gini = 0.0\nsamples = 1\nvalue = [0, 0, 0, 0, 0, 0, 0, 0, 1, 0]"] ;
77 -> 78 ;
79 [label="gini = 0.0\nsamples = 1\nvalue = [0, 0, 0, 1, 0, 0, 0, 0, 0, 0]"] ;
77 -> 79 ;
80 [label="gini = 0.0\nsamples = 2\nvalue = [0, 0, 0, 0, 0, 0, 2, 0, 0, 0]"] ;
70 -> 80 ;
81 [label="X[626] <= 100.5\ngini = 0.587\nsamples = 15\nvalue = [0, 0, 8, 0, 0, 0, 5, 2, 0, 0]"] ;
69 -> 81 ;
82 [label="X[299] <= 89.0\ngini = 0.408\nsamples = 7\nvalue = [0, 0, 0, 0, 0, 0, 5, 2, 0, 0]"] ;
81 -> 82 ;
83 [label="gini = 0.0\nsamples = 5\nvalue = [0, 0, 0, 0, 0, 0, 5, 0, 0, 0]"] ;
82 -> 83 ;
84 [label="gini = 0.0\nsamples = 2\nvalue = [0, 0, 0, 0, 0, 0, 0, 2, 0, 0]"] ;
82 -> 84 ;
85 [label="gini = 0.0\nsamples = 8\nvalue = [0, 0, 8, 0, 0, 0, 0, 0, 0, 0]"] ;
81 -> 85 ;
86 [label="X[403] <= 4.5\ngini = 0.525\nsamples = 54\nvalue = [2, 0, 17, 0, 1, 1, 33, 0, 0, 0]"] ;
68 -> 86 ;
87 [label="X[400] <= 126.5\ngini = 0.24\nsamples = 15\nvalue = [1, 0, 13, 0, 0, 1, 0, 0, 0, 0]"] ;
86 -> 87 ;
88 [label="gini = 0.0\nsamples = 13\nvalue = [0, 0, 13, 0, 0, 0, 0, 0, 0, 0]"] ;
87 -> 88 ;
89 [label="X[383] <= 101.5\ngini = 0.5\nsamples = 2\nvalue = [1, 0, 0, 0, 0, 1, 0, 0, 0, 0]"] ;
87 -> 89 ;
90 [label="gini = 0.0\nsamples = 1\nvalue = [0, 0, 0, 0, 0, 1, 0, 0, 0, 0]"] ;
89 -> 90 ;
91 [label="gini = 0.0\nsamples = 1\nvalue = [1, 0, 0, 0, 0, 0, 0, 0, 0, 0]"] ;
89 -> 91 ;
92 [label="X[472] <= 55.0\ngini = 0.272\nsamples = 39\nvalue = [1, 0, 4, 0, 1, 0, 33, 0, 0, 0]"] ;
86 -> 92 ;
93 [label="X[661] <= 142.5\ngini = 0.109\nsamples = 35\nvalue = [1, 0, 0, 0, 1, 0, 33, 0, 0, 0]"] ;
92 -> 93 ;
94 [label="gini = 0.0\nsamples = 33\nvalue = [0, 0, 0, 0, 0, 0, 33, 0, 0, 0]"] ;
93 -> 94 ;
95 [label="X[151] <= 86.0\ngini = 0.5\nsamples = 2\nvalue = [1, 0, 0, 0, 1, 0, 0, 0, 0, 0]"] ;
93 -> 95 ;
96 [label="gini = 0.0\nsamples = 1\nvalue = [0, 0, 0, 0, 1, 0, 0, 0, 0, 0]"] ;
95 -> 96 ;
97 [label="gini = 0.0\nsamples = 1\nvalue = [1, 0, 0, 0, 0, 0, 0, 0, 0, 0]"] ;
95 -> 97 ;
98 [label="gini = 0.0\nsamples = 4\nvalue = [0, 0, 4, 0, 0, 0, 0, 0, 0, 0]"] ;
92 -> 98 ;
99 [label="X[285] <= 143.0\ngini = 0.793\nsamples = 473\nvalue = [19, 7, 50, 131, 5, 145, 41, 57, 14, 4]"] ;
3 -> 99 ;
100 [label="X[486] <= 112.5\ngini = 0.77\nsamples = 429\nvalue = [19, 7, 50, 127, 5, 145, 41, 17, 14, 4]"] ;
99 -> 100 ;
101 [label="X[289] <= 3.5\ngini = 0.646\nsamples = 291\nvalue = [6, 4, 6, 124, 4, 119, 3, 16, 5, 4]"] ;
100 -> 101 ;
102 [label="X[152] <= 14.5\ngini = 0.568\nsamples = 187\nvalue = [3, 4, 4, 110, 4, 54, 3, 2, 2, 1]"] ;
101 -> 102 ;
103 [label="X[548] <= 43.5\ngini = 0.633\nsamples = 80\nvalue = [3, 3, 1, 19, 4, 44, 3, 2, 1, 0]"] ;
102 -> 103 ;
104 [label="X[203] <= 218.5\ngini = 0.292\nsamples = 43\nvalue = [0, 2, 1, 2, 2, 36, 0, 0, 0, 0]"] ;
103 -> 104 ;
105 [label="X[407] <= 2.5\ngini = 0.186\nsamples = 40\nvalue = [0, 2, 1, 0, 1, 36, 0, 0, 0, 0]"] ;
104 -> 105 ;
106 [label="X[150] <= 7.5\ngini = 0.101\nsamples = 38\nvalue = [0, 1, 1, 0, 0, 36, 0, 0, 0, 0]"] ;
105 -> 106 ;
107 [label="X[129] <= 233.0\ngini = 0.053\nsamples = 37\nvalue = [0, 1, 0, 0, 0, 36, 0, 0, 0, 0]"] ;
106 -> 107 ;
108 [label="gini = 0.0\nsamples = 36\nvalue = [0, 0, 0, 0, 0, 36, 0, 0, 0, 0]"] ;
107 -> 108 ;
109 [label="gini = 0.0\nsamples = 1\nvalue = [0, 1, 0, 0, 0, 0, 0, 0, 0, 0]"] ;
107 -> 109 ;
110 [label="gini = 0.0\nsamples = 1\nvalue = [0, 0, 1, 0, 0, 0, 0, 0, 0, 0]"] ;
106 -> 110 ;
111 [label="X[573] <= 54.0\ngini = 0.5\nsamples = 2\nvalue = [0, 1, 0, 0, 1, 0, 0, 0, 0, 0]"] ;
105 -> 111 ;
112 [label="gini = 0.0\nsamples = 1\nvalue = [0, 0, 0, 0, 1, 0, 0, 0, 0, 0]"] ;
111 -> 112 ;
113 [label="gini = 0.0\nsamples = 1\nvalue = [0, 1, 0, 0, 0, 0, 0, 0, 0, 0]"] ;
111 -> 113 ;
114 [label="X[607] <= 200.5\ngini = 0.444\nsamples = 3\nvalue = [0, 0, 0, 2, 1, 0, 0, 0, 0, 0]"] ;
104 -> 114 ;
115 [label="gini = 0.0\nsamples = 1\nvalue = [0, 0, 0, 0, 1, 0, 0, 0, 0, 0]"] ;
114 -> 115 ;
116 [label="gini = 0.0\nsamples = 2\nvalue = [0, 0, 0, 2, 0, 0, 0, 0, 0, 0]"] ;
114 -> 116 ;
117 [label="X[546] <= 239.5\ngini = 0.722\nsamples = 37\nvalue = [3, 1, 0, 17, 2, 8, 3, 2, 1, 0]"] ;
103 -> 117 ;
118 [label="X[464] <= 21.5\ngini = 0.602\nsamples = 28\nvalue = [3, 1, 0, 17, 2, 2, 2, 1, 0, 0]"] ;
117 -> 118 ;
119 [label="X[320] <= 253.5\ngini = 0.384\nsamples = 22\nvalue = [2, 0, 0, 17, 0, 2, 1, 0, 0, 0]"] ;
118 -> 119 ;
120 [label="X[319] <= 253.5\ngini = 0.105\nsamples = 18\nvalue = [0, 0, 0, 17, 0, 1, 0, 0, 0, 0]"] ;
119 -> 120 ;
121 [label="gini = 0.0\nsamples = 17\nvalue = [0, 0, 0, 17, 0, 0, 0, 0, 0, 0]"] ;
120 -> 121 ;
122 [label="gini = 0.0\nsamples = 1\nvalue = [0, 0, 0, 0, 0, 1, 0, 0, 0, 0]"] ;
120 -> 122 ;
123 [label="X[459] <= 4.0\ngini = 0.625\nsamples = 4\nvalue = [2, 0, 0, 0, 0, 1, 1, 0, 0, 0]"] ;
119 -> 123 ;
124 [label="gini = 0.0\nsamples = 2\nvalue = [2, 0, 0, 0, 0, 0, 0, 0, 0, 0]"] ;
123 -> 124 ;
125 [label="X[604] <= 81.0\ngini = 0.5\nsamples = 2\nvalue = [0, 0, 0, 0, 0, 1, 1, 0, 0, 0]"] ;
123 -> 125 ;
126 [label="gini = 0.0\nsamples = 1\nvalue = [0, 0, 0, 0, 0, 1, 0, 0, 0, 0]"] ;
125 -> 126 ;
127 [label="gini = 0.0\nsamples = 1\nvalue = [0, 0, 0, 0, 0, 0, 1, 0, 0, 0]"] ;
125 -> 127 ;
128 [label="X[265] <= 12.5\ngini = 0.778\nsamples = 6\nvalue = [1, 1, 0, 0, 2, 0, 1, 1, 0, 0]"] ;
118 -> 128 ;
129 [label="gini = 0.0\nsamples = 2\nvalue = [0, 0, 0, 0, 2, 0, 0, 0, 0, 0]"] ;
128 -> 129 ;
130 [label="X[296] <= 64.0\ngini = 0.75\nsamples = 4\nvalue = [1, 1, 0, 0, 0, 0, 1, 1, 0, 0]"] ;
128 -> 130 ;
131 [label="gini = 0.0\nsamples = 1\nvalue = [0, 0, 0, 0, 0, 0, 1, 0, 0, 0]"] ;
130 -> 131 ;
132 [label="X[483] <= 4.5\ngini = 0.667\nsamples = 3\nvalue = [1, 1, 0, 0, 0, 0, 0, 1, 0, 0]"] ;
130 -> 132 ;
133 [label="X[265] <= 145.0\ngini = 0.5\nsamples = 2\nvalue = [0, 1, 0, 0, 0, 0, 0, 1, 0, 0]"] ;
132 -> 133 ;
134 [label="gini = 0.0\nsamples = 1\nvalue = [0, 0, 0, 0, 0, 0, 0, 1, 0, 0]"] ;
133 -> 134 ;
135 [label="gini = 0.0\nsamples = 1\nvalue = [0, 1, 0, 0, 0, 0, 0, 0, 0, 0]"] ;
133 -> 135 ;
136 [label="gini = 0.0\nsamples = 1\nvalue = [1, 0, 0, 0, 0, 0, 0, 0, 0, 0]"] ;
132 -> 136 ;
137 [label="X[159] <= 1.0\ngini = 0.519\nsamples = 9\nvalue = [0, 0, 0, 0, 0, 6, 1, 1, 1, 0]"] ;
117 -> 137 ;
138 [label="X[371] <= 127.5\ngini = 0.245\nsamples = 7\nvalue = [0, 0, 0, 0, 0, 6, 0, 1, 0, 0]"] ;
137 -> 138 ;
139 [label="gini = 0.0\nsamples = 6\nvalue = [0, 0, 0, 0, 0, 6, 0, 0, 0, 0]"] ;
138 -> 139 ;
140 [label="gini = 0.0\nsamples = 1\nvalue = [0, 0, 0, 0, 0, 0, 0, 1, 0, 0]"] ;
138 -> 140 ;
141 [label="X[661] <= 90.0\ngini = 0.5\nsamples = 2\nvalue = [0, 0, 0, 0, 0, 0, 1, 0, 1, 0]"] ;
137 -> 141 ;
142 [label="gini = 0.0\nsamples = 1\nvalue = [0, 0, 0, 0, 0, 0, 1, 0, 0, 0]"] ;
141 -> 142 ;
143 [label="gini = 0.0\nsamples = 1\nvalue = [0, 0, 0, 0, 0, 0, 0, 0, 1, 0]"] ;
141 -> 143 ;
144 [label="X[263] <= 157.0\ngini = 0.267\nsamples = 107\nvalue = [0, 1, 3, 91, 0, 10, 0, 0, 1, 1]"] ;
102 -> 144 ;
145 [label="X[341] <= 5.0\ngini = 0.173\nsamples = 98\nvalue = [0, 1, 3, 89, 0, 3, 0, 0, 1, 1]"] ;
144 -> 145 ;
146 [label="X[515] <= 192.5\ngini = 0.102\nsamples = 94\nvalue = [0, 1, 3, 89, 0, 0, 0, 0, 1, 0]"] ;
145 -> 146 ;
147 [label="X[379] <= 254.0\ngini = 0.022\nsamples = 89\nvalue = [0, 1, 0, 88, 0, 0, 0, 0, 0, 0]"] ;
146 -> 147 ;
148 [label="gini = 0.0\nsamples = 88\nvalue = [0, 0, 0, 88, 0, 0, 0, 0, 0, 0]"] ;
147 -> 148 ;
149 [label="gini = 0.0\nsamples = 1\nvalue = [0, 1, 0, 0, 0, 0, 0, 0, 0, 0]"] ;
147 -> 149 ;
150 [label="X[486] <= 87.0\ngini = 0.56\nsamples = 5\nvalue = [0, 0, 3, 1, 0, 0, 0, 0, 1, 0]"] ;
146 -> 150 ;
151 [label="gini = 0.0\nsamples = 3\nvalue = [0, 0, 3, 0, 0, 0, 0, 0, 0, 0]"] ;
150 -> 151 ;
152 [label="X[294] <= 127.0\ngini = 0.5\nsamples = 2\nvalue = [0, 0, 0, 1, 0, 0, 0, 0, 1, 0]"] ;
150 -> 152 ;
153 [label="gini = 0.0\nsamples = 1\nvalue = [0, 0, 0, 0, 0, 0, 0, 0, 1, 0]"] ;
152 -> 153 ;
154 [label="gini = 0.0\nsamples = 1\nvalue = [0, 0, 0, 1, 0, 0, 0, 0, 0, 0]"] ;
152 -> 154 ;
155 [label="X[381] <= 106.5\ngini = 0.375\nsamples = 4\nvalue = [0, 0, 0, 0, 0, 3, 0, 0, 0, 1]"] ;
145 -> 155 ;
156 [label="gini = 0.0\nsamples = 3\nvalue = [0, 0, 0, 0, 0, 3, 0, 0, 0, 0]"] ;
155 -> 156 ;
157 [label="gini = 0.0\nsamples = 1\nvalue = [0, 0, 0, 0, 0, 0, 0, 0, 0, 1]"] ;
155 -> 157 ;
158 [label="X[597] <= 242.0\ngini = 0.346\nsamples = 9\nvalue = [0, 0, 0, 2, 0, 7, 0, 0, 0, 0]"] ;
144 -> 158 ;
159 [label="gini = 0.0\nsamples = 6\nvalue = [0, 0, 0, 0, 0, 6, 0, 0, 0, 0]"] ;
158 -> 159 ;
160 [label="X[552] <= 32.0\ngini = 0.444\nsamples = 3\nvalue = [0, 0, 0, 2, 0, 1, 0, 0, 0, 0]"] ;
158 -> 160 ;
161 [label="gini = 0.0\nsamples = 1\nvalue = [0, 0, 0, 0, 0, 1, 0, 0, 0, 0]"] ;
160 -> 161 ;
162 [label="gini = 0.0\nsamples = 2\nvalue = [0, 0, 0, 2, 0, 0, 0, 0, 0, 0]"] ;
160 -> 162 ;
163 [label="X[180] <= 1.0\ngini = 0.57\nsamples = 104\nvalue = [3, 0, 2, 14, 0, 65, 0, 14, 3, 3]"] ;
101 -> 163 ;
164 [label="X[242] <= 53.5\ngini = 0.601\nsamples = 24\nvalue = [2, 0, 0, 2, 0, 5, 0, 14, 0, 1]"] ;
163 -> 164 ;
165 [label="X[566] <= 76.5\ngini = 0.124\nsamples = 15\nvalue = [0, 0, 0, 0, 0, 1, 0, 14, 0, 0]"] ;
164 -> 165 ;
166 [label="gini = 0.0\nsamples = 14\nvalue = [0, 0, 0, 0, 0, 0, 0, 14, 0, 0]"] ;
165 -> 166 ;
167 [label="gini = 0.0\nsamples = 1\nvalue = [0, 0, 0, 0, 0, 1, 0, 0, 0, 0]"] ;
165 -> 167 ;
168 [label="X[246] <= 174.0\ngini = 0.691\nsamples = 9\nvalue = [2, 0, 0, 2, 0, 4, 0, 0, 0, 1]"] ;
164 -> 168 ;
169 [label="X[315] <= 50.0\ngini = 0.64\nsamples = 5\nvalue = [2, 0, 0, 2, 0, 0, 0, 0, 0, 1]"] ;
168 -> 169 ;
170 [label="X[549] <= 13.5\ngini = 0.444\nsamples = 3\nvalue = [0, 0, 0, 2, 0, 0, 0, 0, 0, 1]"] ;
169 -> 170 ;
171 [label="gini = 0.0\nsamples = 1\nvalue = [0, 0, 0, 0, 0, 0, 0, 0, 0, 1]"] ;
170 -> 171 ;
172 [label="gini = 0.0\nsamples = 2\nvalue = [0, 0, 0, 2, 0, 0, 0, 0, 0, 0]"] ;
170 -> 172 ;
173 [label="gini = 0.0\nsamples = 2\nvalue = [2, 0, 0, 0, 0, 0, 0, 0, 0, 0]"] ;
169 -> 173 ;
174 [label="gini = 0.0\nsamples = 4\nvalue = [0, 0, 0, 0, 0, 4, 0, 0, 0, 0]"] ;
168 -> 174 ;
175 [label="X[266] <= 237.5\ngini = 0.412\nsamples = 80\nvalue = [1, 0, 2, 12, 0, 60, 0, 0, 3, 2]"] ;
163 -> 175 ;
176 [label="X[270] <= 187.0\ngini = 0.305\nsamples = 70\nvalue = [0, 0, 2, 5, 0, 58, 0, 0, 3, 2]"] ;
175 -> 176 ;
177 [label="X[543] <= 178.0\ngini = 0.151\nsamples = 63\nvalue = [0, 0, 1, 2, 0, 58, 0, 0, 1, 1]"] ;
176 -> 177 ;
178 [label="X[520] <= 204.5\ngini = 0.095\nsamples = 61\nvalue = [0, 0, 0, 2, 0, 58, 0, 0, 0, 1]"] ;
177 -> 178 ;
179 [label="X[481] <= 205.5\ngini = 0.064\nsamples = 60\nvalue = [0, 0, 0, 2, 0, 58, 0, 0, 0, 0]"] ;
178 -> 179 ;
180 [label="X[265] <= 253.0\ngini = 0.033\nsamples = 59\nvalue = [0, 0, 0, 1, 0, 58, 0, 0, 0, 0]"] ;
179 -> 180 ;
181 [label="gini = 0.0\nsamples = 58\nvalue = [0, 0, 0, 0, 0, 58, 0, 0, 0, 0]"] ;
180 -> 181 ;
182 [label="gini = 0.0\nsamples = 1\nvalue = [0, 0, 0, 1, 0, 0, 0, 0, 0, 0]"] ;
180 -> 182 ;
183 [label="gini = 0.0\nsamples = 1\nvalue = [0, 0, 0, 1, 0, 0, 0, 0, 0, 0]"] ;
179 -> 183 ;
184 [label="gini = 0.0\nsamples = 1\nvalue = [0, 0, 0, 0, 0, 0, 0, 0, 0, 1]"] ;
178 -> 184 ;
185 [label="X[321] <= 152.0\ngini = 0.5\nsamples = 2\nvalue = [0, 0, 1, 0, 0, 0, 0, 0, 1, 0]"] ;
177 -> 185 ;
186 [label="gini = 0.0\nsamples = 1\nvalue = [0, 0, 1, 0, 0, 0, 0, 0, 0, 0]"] ;
185 -> 186 ;
187 [label="gini = 0.0\nsamples = 1\nvalue = [0, 0, 0, 0, 0, 0, 0, 0, 1, 0]"] ;
185 -> 187 ;
188 [label="X[659] <= 140.0\ngini = 0.694\nsamples = 7\nvalue = [0, 0, 1, 3, 0, 0, 0, 0, 2, 1]"] ;
176 -> 188 ;
189 [label="gini = 0.0\nsamples = 3\nvalue = [0, 0, 0, 3, 0, 0, 0, 0, 0, 0]"] ;
188 -> 189 ;
190 [label="X[577] <= 47.0\ngini = 0.625\nsamples = 4\nvalue = [0, 0, 1, 0, 0, 0, 0, 0, 2, 1]"] ;
188 -> 190 ;
191 [label="gini = 0.0\nsamples = 2\nvalue = [0, 0, 0, 0, 0, 0, 0, 0, 2, 0]"] ;
190 -> 191 ;
192 [label="X[411] <= 242.0\ngini = 0.5\nsamples = 2\nvalue = [0, 0, 1, 0, 0, 0, 0, 0, 0, 1]"] ;
190 -> 192 ;
193 [label="gini = 0.0\nsamples = 1\nvalue = [0, 0, 0, 0, 0, 0, 0, 0, 0, 1]"] ;
192 -> 193 ;
194 [label="gini = 0.0\nsamples = 1\nvalue = [0, 0, 1, 0, 0, 0, 0, 0, 0, 0]"] ;
192 -> 194 ;
195 [label="X[344] <= 246.0\ngini = 0.46\nsamples = 10\nvalue = [1, 0, 0, 7, 0, 2, 0, 0, 0, 0]"] ;
175 -> 195 ;
196 [label="gini = 0.0\nsamples = 7\nvalue = [0, 0, 0, 7, 0, 0, 0, 0, 0, 0]"] ;
195 -> 196 ;
197 [label="X[508] <= 62.5\ngini = 0.444\nsamples = 3\nvalue = [1, 0, 0, 0, 0, 2, 0, 0, 0, 0]"] ;
195 -> 197 ;
198 [label="gini = 0.0\nsamples = 2\nvalue = [0, 0, 0, 0, 0, 2, 0, 0, 0, 0]"] ;
197 -> 198 ;
199 [label="gini = 0.0\nsamples = 1\nvalue = [1, 0, 0, 0, 0, 0, 0, 0, 0, 0]"] ;
197 -> 199 ;
200 [label="X[346] <= 13.5\ngini = 0.773\nsamples = 138\nvalue = [13, 3, 44, 3, 1, 26, 38, 1, 9, 0]"] ;
100 -> 200 ;
201 [label="X[554] <= 1.0\ngini = 0.58\nsamples = 67\nvalue = [1, 3, 41, 3, 0, 3, 13, 0, 3, 0]"] ;
200 -> 201 ;
202 [label="X[347] <= 2.0\ngini = 0.748\nsamples = 37\nvalue = [1, 3, 12, 2, 0, 3, 13, 0, 3, 0]"] ;
201 -> 202 ;
203 [label="X[326] <= 27.0\ngini = 0.586\nsamples = 18\nvalue = [0, 1, 11, 1, 0, 3, 1, 0, 1, 0]"] ;
202 -> 203 ;
204 [label="X[464] <= 68.0\ngini = 0.272\nsamples = 13\nvalue = [0, 0, 11, 1, 0, 0, 1, 0, 0, 0]"] ;
203 -> 204 ;
205 [label="gini = 0.0\nsamples = 11\nvalue = [0, 0, 11, 0, 0, 0, 0, 0, 0, 0]"] ;
204 -> 205 ;
206 [label="X[657] <= 119.0\ngini = 0.5\nsamples = 2\nvalue = [0, 0, 0, 1, 0, 0, 1, 0, 0, 0]"] ;
204 -> 206 ;
207 [label="gini = 0.0\nsamples = 1\nvalue = [0, 0, 0, 0, 0, 0, 1, 0, 0, 0]"] ;
206 -> 207 ;
208 [label="gini = 0.0\nsamples = 1\nvalue = [0, 0, 0, 1, 0, 0, 0, 0, 0, 0]"] ;
206 -> 208 ;
209 [label="X[433] <= 141.0\ngini = 0.56\nsamples = 5\nvalue = [0, 1, 0, 0, 0, 3, 0, 0, 1, 0]"] ;
203 -> 209 ;
210 [label="gini = 0.0\nsamples = 3\nvalue = [0, 0, 0, 0, 0, 3, 0, 0, 0, 0]"] ;
209 -> 210 ;
211 [label="X[354] <= 117.5\ngini = 0.5\nsamples = 2\nvalue = [0, 1, 0, 0, 0, 0, 0, 0, 1, 0]"] ;
209 -> 211 ;
212 [label="gini = 0.0\nsamples = 1\nvalue = [0, 1, 0, 0, 0, 0, 0, 0, 0, 0]"] ;
211 -> 212 ;
213 [label="gini = 0.0\nsamples = 1\nvalue = [0, 0, 0, 0, 0, 0, 0, 0, 1, 0]"] ;
211 -> 213 ;
214 [label="X[155] <= 174.5\ngini = 0.571\nsamples = 19\nvalue = [1, 2, 1, 1, 0, 0, 12, 0, 2, 0]"] ;
202 -> 214 ;
215 [label="X[568] <= 243.0\ngini = 0.142\nsamples = 13\nvalue = [1, 0, 0, 0, 0, 0, 12, 0, 0, 0]"] ;
214 -> 215 ;
216 [label="gini = 0.0\nsamples = 12\nvalue = [0, 0, 0, 0, 0, 0, 12, 0, 0, 0]"] ;
215 -> 216 ;
217 [label="gini = 0.0\nsamples = 1\nvalue = [1, 0, 0, 0, 0, 0, 0, 0, 0, 0]"] ;
215 -> 217 ;
218 [label="X[405] <= 180.0\ngini = 0.722\nsamples = 6\nvalue = [0, 2, 1, 1, 0, 0, 0, 0, 2, 0]"] ;
214 -> 218 ;
219 [label="X[294] <= 189.0\ngini = 0.625\nsamples = 4\nvalue = [0, 0, 1, 1, 0, 0, 0, 0, 2, 0]"] ;
218 -> 219 ;
220 [label="gini = 0.0\nsamples = 2\nvalue = [0, 0, 0, 0, 0, 0, 0, 0, 2, 0]"] ;
219 -> 220 ;
221 [label="X[401] <= 17.5\ngini = 0.5\nsamples = 2\nvalue = [0, 0, 1, 1, 0, 0, 0, 0, 0, 0]"] ;
219 -> 221 ;
222 [label="gini = 0.0\nsamples = 1\nvalue = [0, 0, 0, 1, 0, 0, 0, 0, 0, 0]"] ;
221 -> 222 ;
223 [label="gini = 0.0\nsamples = 1\nvalue = [0, 0, 1, 0, 0, 0, 0, 0, 0, 0]"] ;
221 -> 223 ;
224 [label="gini = 0.0\nsamples = 2\nvalue = [0, 2, 0, 0, 0, 0, 0, 0, 0, 0]"] ;
218 -> 224 ;
225 [label="X[467] <= 212.0\ngini = 0.064\nsamples = 30\nvalue = [0, 0, 29, 1, 0, 0, 0, 0, 0, 0]"] ;
201 -> 225 ;
226 [label="gini = 0.0\nsamples = 29\nvalue = [0, 0, 29, 0, 0, 0, 0, 0, 0, 0]"] ;
225 -> 226 ;
227 [label="gini = 0.0\nsamples = 1\nvalue = [0, 0, 0, 1, 0, 0, 0, 0, 0, 0]"] ;
225 -> 227 ;
228 [label="X[522] <= 11.0\ngini = 0.733\nsamples = 71\nvalue = [12, 0, 3, 0, 1, 23, 25, 1, 6, 0]"] ;
200 -> 228 ;
229 [label="X[238] <= 90.5\ngini = 0.573\nsamples = 33\nvalue = [0, 0, 2, 0, 0, 20, 5, 0, 6, 0]"] ;
228 -> 229 ;
230 [label="X[540] <= 111.5\ngini = 0.346\nsamples = 25\nvalue = [0, 0, 1, 0, 0, 20, 2, 0, 2, 0]"] ;
229 -> 230 ;
231 [label="X[177] <= 253.5\ngini = 0.169\nsamples = 22\nvalue = [0, 0, 1, 0, 0, 20, 1, 0, 0, 0]"] ;
230 -> 231 ;
232 [label="X[557] <= 53.5\ngini = 0.091\nsamples = 21\nvalue = [0, 0, 1, 0, 0, 20, 0, 0, 0, 0]"] ;
231 -> 232 ;
233 [label="gini = 0.0\nsamples = 20\nvalue = [0, 0, 0, 0, 0, 20, 0, 0, 0, 0]"] ;
232 -> 233 ;
234 [label="gini = 0.0\nsamples = 1\nvalue = [0, 0, 1, 0, 0, 0, 0, 0, 0, 0]"] ;
232 -> 234 ;
235 [label="gini = 0.0\nsamples = 1\nvalue = [0, 0, 0, 0, 0, 0, 1, 0, 0, 0]"] ;
231 -> 235 ;
236 [label="X[662] <= 32.5\ngini = 0.444\nsamples = 3\nvalue = [0, 0, 0, 0, 0, 0, 1, 0, 2, 0]"] ;
230 -> 236 ;
237 [label="gini = 0.0\nsamples = 1\nvalue = [0, 0, 0, 0, 0, 0, 1, 0, 0, 0]"] ;
236 -> 237 ;
238 [label="gini = 0.0\nsamples = 2\nvalue = [0, 0, 0, 0, 0, 0, 0, 0, 2, 0]"] ;
236 -> 238 ;
239 [label="X[301] <= 1.0\ngini = 0.594\nsamples = 8\nvalue = [0, 0, 1, 0, 0, 0, 3, 0, 4, 0]"] ;
229 -> 239 ;
240 [label="X[490] <= 84.5\ngini = 0.375\nsamples = 4\nvalue = [0, 0, 1, 0, 0, 0, 3, 0, 0, 0]"] ;
239 -> 240 ;
241 [label="gini = 0.0\nsamples = 1\nvalue = [0, 0, 1, 0, 0, 0, 0, 0, 0, 0]"] ;
240 -> 241 ;
242 [label="gini = 0.0\nsamples = 3\nvalue = [0, 0, 0, 0, 0, 0, 3, 0, 0, 0]"] ;
240 -> 242 ;
243 [label="gini = 0.0\nsamples = 4\nvalue = [0, 0, 0, 0, 0, 0, 0, 0, 4, 0]"] ;
239 -> 243 ;
244 [label="X[270] <= 185.5\ngini = 0.615\nsamples = 38\nvalue = [12, 0, 1, 0, 1, 3, 20, 1, 0, 0]"] ;
228 -> 244 ;
245 [label="X[429] <= 61.5\ngini = 0.431\nsamples = 27\nvalue = [2, 0, 1, 0, 1, 3, 20, 0, 0, 0]"] ;
244 -> 245 ;
246 [label="X[514] <= 194.0\ngini = 0.56\nsamples = 5\nvalue = [0, 0, 1, 0, 1, 3, 0, 0, 0, 0]"] ;
245 -> 246 ;
247 [label="X[290] <= 254.0\ngini = 0.5\nsamples = 2\nvalue = [0, 0, 1, 0, 1, 0, 0, 0, 0, 0]"] ;
246 -> 247 ;
248 [label="gini = 0.0\nsamples = 1\nvalue = [0, 0, 1, 0, 0, 0, 0, 0, 0, 0]"] ;
247 -> 248 ;
249 [label="gini = 0.0\nsamples = 1\nvalue = [0, 0, 0, 0, 1, 0, 0, 0, 0, 0]"] ;
247 -> 249 ;
250 [label="gini = 0.0\nsamples = 3\nvalue = [0, 0, 0, 0, 0, 3, 0, 0, 0, 0]"] ;
246 -> 250 ;
251 [label="X[351] <= 0.5\ngini = 0.165\nsamples = 22\nvalue = [2, 0, 0, 0, 0, 0, 20, 0, 0, 0]"] ;
245 -> 251 ;
252 [label="X[496] <= 47.5\ngini = 0.444\nsamples = 3\nvalue = [2, 0, 0, 0, 0, 0, 1, 0, 0, 0]"] ;
251 -> 252 ;
253 [label="gini = 0.0\nsamples = 1\nvalue = [0, 0, 0, 0, 0, 0, 1, 0, 0, 0]"] ;
252 -> 253 ;
254 [label="gini = 0.0\nsamples = 2\nvalue = [2, 0, 0, 0, 0, 0, 0, 0, 0, 0]"] ;
252 -> 254 ;
255 [label="gini = 0.0\nsamples = 19\nvalue = [0, 0, 0, 0, 0, 0, 19, 0, 0, 0]"] ;
251 -> 255 ;
256 [label="X[466] <= 253.5\ngini = 0.165\nsamples = 11\nvalue = [10, 0, 0, 0, 0, 0, 0, 1, 0, 0]"] ;
244 -> 256 ;
257 [label="gini = 0.0\nsamples = 10\nvalue = [10, 0, 0, 0, 0, 0, 0, 0, 0, 0]"] ;
256 -> 257 ;
258 [label="gini = 0.0\nsamples = 1\nvalue = [0, 0, 0, 0, 0, 0, 0, 1, 0, 0]"] ;
256 -> 258 ;
259 [label="X[570] <= 26.0\ngini = 0.165\nsamples = 44\nvalue = [0, 0, 0, 4, 0, 0, 0, 40, 0, 0]"] ;
99 -> 259 ;
260 [label="gini = 0.0\nsamples = 40\nvalue = [0, 0, 0, 0, 0, 0, 0, 40, 0, 0]"] ;
259 -> 260 ;
261 [label="gini = 0.0\nsamples = 4\nvalue = [0, 0, 0, 4, 0, 0, 0, 0, 0, 0]"] ;
259 -> 261 ;
262 [label="X[597] <= 1.0\ngini = 0.242\nsamples = 1678\nvalue = [1458, 1, 39, 17, 17, 43, 44, 35, 7, 17]"] ;
2 -> 262 ;
263 [label="X[184] <= 0.5\ngini = 0.767\nsamples = 210\nvalue = [87, 0, 16, 3, 16, 18, 19, 35, 0, 16]"] ;
262 -> 263 ;
264 [label="X[514] <= 6.5\ngini = 0.815\nsamples = 116\nvalue = [24, 0, 9, 0, 16, 9, 17, 34, 0, 7]"] ;
263 -> 264 ;
265 [label="X[299] <= 117.0\ngini = 0.496\nsamples = 49\nvalue = [4, 0, 1, 0, 5, 2, 0, 34, 0, 3]"] ;
264 -> 265 ;
266 [label="X[187] <= 42.0\ngini = 0.803\nsamples = 17\nvalue = [4, 0, 1, 0, 4, 2, 0, 4, 0, 2]"] ;
265 -> 266 ;
267 [label="X[491] <= 10.0\ngini = 0.757\nsamples = 13\nvalue = [0, 0, 1, 0, 4, 2, 0, 4, 0, 2]"] ;
266 -> 267 ;
268 [label="X[549] <= 25.5\ngini = 0.444\nsamples = 6\nvalue = [0, 0, 0, 0, 0, 2, 0, 4, 0, 0]"] ;
267 -> 268 ;
269 [label="gini = 0.0\nsamples = 2\nvalue = [0, 0, 0, 0, 0, 2, 0, 0, 0, 0]"] ;
268 -> 269 ;
270 [label="gini = 0.0\nsamples = 4\nvalue = [0, 0, 0, 0, 0, 0, 0, 4, 0, 0]"] ;
268 -> 270 ;
271 [label="X[659] <= 85.0\ngini = 0.571\nsamples = 7\nvalue = [0, 0, 1, 0, 4, 0, 0, 0, 0, 2]"] ;
267 -> 271 ;
272 [label="X[552] <= 98.0\ngini = 0.444\nsamples = 3\nvalue = [0, 0, 1, 0, 0, 0, 0, 0, 0, 2]"] ;
271 -> 272 ;
273 [label="gini = 0.0\nsamples = 2\nvalue = [0, 0, 0, 0, 0, 0, 0, 0, 0, 2]"] ;
272 -> 273 ;
274 [label="gini = 0.0\nsamples = 1\nvalue = [0, 0, 1, 0, 0, 0, 0, 0, 0, 0]"] ;
272 -> 274 ;
275 [label="gini = 0.0\nsamples = 4\nvalue = [0, 0, 0, 0, 4, 0, 0, 0, 0, 0]"] ;
271 -> 275 ;
276 [label="gini = 0.0\nsamples = 4\nvalue = [4, 0, 0, 0, 0, 0, 0, 0, 0, 0]"] ;
266 -> 276 ;
277 [label="X[431] <= 82.0\ngini = 0.119\nsamples = 32\nvalue = [0, 0, 0, 0, 1, 0, 0, 30, 0, 1]"] ;
265 -> 277 ;
278 [label="gini = 0.0\nsamples = 30\nvalue = [0, 0, 0, 0, 0, 0, 0, 30, 0, 0]"] ;
277 -> 278 ;
279 [label="X[403] <= 130.0\ngini = 0.5\nsamples = 2\nvalue = [0, 0, 0, 0, 1, 0, 0, 0, 0, 1]"] ;
277 -> 279 ;
280 [label="gini = 0.0\nsamples = 1\nvalue = [0, 0, 0, 0, 1, 0, 0, 0, 0, 0]"] ;
279 -> 280 ;
281 [label="gini = 0.0\nsamples = 1\nvalue = [0, 0, 0, 0, 0, 0, 0, 0, 0, 1]"] ;
279 -> 281 ;
282 [label="X[239] <= 145.0\ngini = 0.791\nsamples = 67\nvalue = [20, 0, 8, 0, 11, 7, 17, 0, 0, 4]"] ;
264 -> 282 ;
283 [label="X[574] <= 55.0\ngini = 0.642\nsamples = 35\nvalue = [2, 0, 5, 0, 11, 0, 17, 0, 0, 0]"] ;
282 -> 283 ;
284 [label="X[402] <= 146.0\ngini = 0.477\nsamples = 16\nvalue = [2, 0, 3, 0, 11, 0, 0, 0, 0, 0]"] ;
283 -> 284 ;
285 [label="X[387] <= 41.5\ngini = 0.153\nsamples = 12\nvalue = [1, 0, 0, 0, 11, 0, 0, 0, 0, 0]"] ;
284 -> 285 ;
286 [label="gini = 0.0\nsamples = 11\nvalue = [0, 0, 0, 0, 11, 0, 0, 0, 0, 0]"] ;
285 -> 286 ;
287 [label="gini = 0.0\nsamples = 1\nvalue = [1, 0, 0, 0, 0, 0, 0, 0, 0, 0]"] ;
285 -> 287 ;
288 [label="X[329] <= 127.5\ngini = 0.375\nsamples = 4\nvalue = [1, 0, 3, 0, 0, 0, 0, 0, 0, 0]"] ;
284 -> 288 ;
289 [label="gini = 0.0\nsamples = 3\nvalue = [0, 0, 3, 0, 0, 0, 0, 0, 0, 0]"] ;
288 -> 289 ;
290 [label="gini = 0.0\nsamples = 1\nvalue = [1, 0, 0, 0, 0, 0, 0, 0, 0, 0]"] ;
288 -> 290 ;
291 [label="X[540] <= 252.5\ngini = 0.188\nsamples = 19\nvalue = [0, 0, 2, 0, 0, 0, 17, 0, 0, 0]"] ;
283 -> 291 ;
292 [label="gini = 0.0\nsamples = 17\nvalue = [0, 0, 0, 0, 0, 0, 17, 0, 0, 0]"] ;
291 -> 292 ;
293 [label="gini = 0.0\nsamples = 2\nvalue = [0, 0, 2, 0, 0, 0, 0, 0, 0, 0]"] ;
291 -> 293 ;
294 [label="X[386] <= 1.5\ngini = 0.611\nsamples = 32\nvalue = [18, 0, 3, 0, 0, 7, 0, 0, 0, 4]"] ;
282 -> 294 ;
295 [label="X[181] <= 70.5\ngini = 0.46\nsamples = 10\nvalue = [0, 0, 2, 0, 0, 7, 0, 0, 0, 1]"] ;
294 -> 295 ;
296 [label="X[411] <= 92.0\ngini = 0.219\nsamples = 8\nvalue = [0, 0, 0, 0, 0, 7, 0, 0, 0, 1]"] ;
295 -> 296 ;
297 [label="gini = 0.0\nsamples = 7\nvalue = [0, 0, 0, 0, 0, 7, 0, 0, 0, 0]"] ;
296 -> 297 ;
298 [label="gini = 0.0\nsamples = 1\nvalue = [0, 0, 0, 0, 0, 0, 0, 0, 0, 1]"] ;
296 -> 298 ;
299 [label="gini = 0.0\nsamples = 2\nvalue = [0, 0, 2, 0, 0, 0, 0, 0, 0, 0]"] ;
295 -> 299 ;
300 [label="X[667] <= 25.5\ngini = 0.31\nsamples = 22\nvalue = [18, 0, 1, 0, 0, 0, 0, 0, 0, 3]"] ;
294 -> 300 ;
301 [label="X[399] <= 16.5\ngini = 0.1\nsamples = 19\nvalue = [18, 0, 1, 0, 0, 0, 0, 0, 0, 0]"] ;
300 -> 301 ;
302 [label="gini = 0.0\nsamples = 1\nvalue = [0, 0, 1, 0, 0, 0, 0, 0, 0, 0]"] ;
301 -> 302 ;
303 [label="gini = 0.0\nsamples = 18\nvalue = [18, 0, 0, 0, 0, 0, 0, 0, 0, 0]"] ;
301 -> 303 ;
304 [label="gini = 0.0\nsamples = 3\nvalue = [0, 0, 0, 0, 0, 0, 0, 0, 0, 3]"] ;
300 -> 304 ;
305 [label="X[491] <= 5.5\ngini = 0.525\nsamples = 94\nvalue = [63, 0, 7, 3, 0, 9, 2, 1, 0, 9]"] ;
263 -> 305 ;
306 [label="X[352] <= 87.5\ngini = 0.234\nsamples = 70\nvalue = [61, 0, 1, 2, 0, 5, 0, 0, 0, 1]"] ;
305 -> 306 ;
307 [label="X[691] <= 159.0\ngini = 0.032\nsamples = 61\nvalue = [60, 0, 0, 0, 0, 0, 0, 0, 0, 1]"] ;
306 -> 307 ;
308 [label="gini = 0.0\nsamples = 60\nvalue = [60, 0, 0, 0, 0, 0, 0, 0, 0, 0]"] ;
307 -> 308 ;
309 [label="gini = 0.0\nsamples = 1\nvalue = [0, 0, 0, 0, 0, 0, 0, 0, 0, 1]"] ;
307 -> 309 ;
310 [label="X[549] <= 116.0\ngini = 0.617\nsamples = 9\nvalue = [1, 0, 1, 2, 0, 5, 0, 0, 0, 0]"] ;
306 -> 310 ;
311 [label="gini = 0.0\nsamples = 5\nvalue = [0, 0, 0, 0, 0, 5, 0, 0, 0, 0]"] ;
310 -> 311 ;
312 [label="X[571] <= 59.5\ngini = 0.625\nsamples = 4\nvalue = [1, 0, 1, 2, 0, 0, 0, 0, 0, 0]"] ;
310 -> 312 ;
313 [label="gini = 0.0\nsamples = 2\nvalue = [0, 0, 0, 2, 0, 0, 0, 0, 0, 0]"] ;
312 -> 313 ;
314 [label="X[510] <= 126.5\ngini = 0.5\nsamples = 2\nvalue = [1, 0, 1, 0, 0, 0, 0, 0, 0, 0]"] ;
312 -> 314 ;
315 [label="gini = 0.0\nsamples = 1\nvalue = [1, 0, 0, 0, 0, 0, 0, 0, 0, 0]"] ;
314 -> 315 ;
316 [label="gini = 0.0\nsamples = 1\nvalue = [0, 0, 1, 0, 0, 0, 0, 0, 0, 0]"] ;
314 -> 316 ;
317 [label="X[576] <= 123.5\ngini = 0.781\nsamples = 24\nvalue = [2, 0, 6, 1, 0, 4, 2, 1, 0, 8]"] ;
305 -> 317 ;
318 [label="X[461] <= 164.0\ngini = 0.34\nsamples = 10\nvalue = [0, 0, 0, 1, 0, 1, 0, 0, 0, 8]"] ;
317 -> 318 ;
319 [label="gini = 0.0\nsamples = 8\nvalue = [0, 0, 0, 0, 0, 0, 0, 0, 0, 8]"] ;
318 -> 319 ;
320 [label="X[154] <= 80.5\ngini = 0.5\nsamples = 2\nvalue = [0, 0, 0, 1, 0, 1, 0, 0, 0, 0]"] ;
318 -> 320 ;
321 [label="gini = 0.0\nsamples = 1\nvalue = [0, 0, 0, 0, 0, 1, 0, 0, 0, 0]"] ;
320 -> 321 ;
322 [label="gini = 0.0\nsamples = 1\nvalue = [0, 0, 0, 1, 0, 0, 0, 0, 0, 0]"] ;
320 -> 322 ;
323 [label="X[400] <= 150.0\ngini = 0.724\nsamples = 14\nvalue = [2, 0, 6, 0, 0, 3, 2, 1, 0, 0]"] ;
317 -> 323 ;
324 [label="X[455] <= 53.0\ngini = 0.245\nsamples = 7\nvalue = [0, 0, 6, 0, 0, 0, 1, 0, 0, 0]"] ;
323 -> 324 ;
325 [label="gini = 0.0\nsamples = 1\nvalue = [0, 0, 0, 0, 0, 0, 1, 0, 0, 0]"] ;
324 -> 325 ;
326 [label="gini = 0.0\nsamples = 6\nvalue = [0, 0, 6, 0, 0, 0, 0, 0, 0, 0]"] ;
324 -> 326 ;
327 [label="X[467] <= 63.5\ngini = 0.694\nsamples = 7\nvalue = [2, 0, 0, 0, 0, 3, 1, 1, 0, 0]"] ;
323 -> 327 ;
328 [label="gini = 0.0\nsamples = 3\nvalue = [0, 0, 0, 0, 0, 3, 0, 0, 0, 0]"] ;
327 -> 328 ;
329 [label="X[355] <= 9.5\ngini = 0.625\nsamples = 4\nvalue = [2, 0, 0, 0, 0, 0, 1, 1, 0, 0]"] ;
327 -> 329 ;
330 [label="X[374] <= 130.5\ngini = 0.5\nsamples = 2\nvalue = [0, 0, 0, 0, 0, 0, 1, 1, 0, 0]"] ;
329 -> 330 ;
331 [label="gini = 0.0\nsamples = 1\nvalue = [0, 0, 0, 0, 0, 0, 0, 1, 0, 0]"] ;
330 -> 331 ;
332 [label="gini = 0.0\nsamples = 1\nvalue = [0, 0, 0, 0, 0, 0, 1, 0, 0, 0]"] ;
330 -> 332 ;
333 [label="gini = 0.0\nsamples = 2\nvalue = [2, 0, 0, 0, 0, 0, 0, 0, 0, 0]"] ;
329 -> 333 ;
334 [label="X[489] <= 169.5\ngini = 0.127\nsamples = 1468\nvalue = [1371, 1, 23, 14, 1, 25, 25, 0, 7, 1]"] ;
262 -> 334 ;
335 [label="X[352] <= 208.0\ngini = 0.095\nsamples = 1434\nvalue = [1364, 1, 5, 13, 0, 21, 23, 0, 6, 1]"] ;
334 -> 335 ;
336 [label="X[324] <= 216.0\ngini = 0.055\nsamples = 1390\nvalue = [1351, 1, 4, 5, 0, 12, 12, 0, 4, 1]"] ;
335 -> 336 ;
337 [label="X[557] <= 83.5\ngini = 0.027\nsamples = 1329\nvalue = [1311, 1, 3, 2, 0, 4, 7, 0, 0, 1]"] ;
336 -> 337 ;
338 [label="X[463] <= 163.0\ngini = 0.022\nsamples = 1326\nvalue = [1311, 0, 1, 2, 0, 4, 7, 0, 0, 1]"] ;
337 -> 338 ;
339 [label="X[507] <= 59.5\ngini = 0.02\nsamples = 1324\nvalue = [1311, 0, 1, 2, 0, 4, 5, 0, 0, 1]"] ;
338 -> 339 ;
340 [label="X[277] <= 177.5\ngini = 0.017\nsamples = 1322\nvalue = [1311, 0, 1, 1, 0, 3, 5, 0, 0, 1]"] ;
339 -> 340 ;
341 [label="X[96] <= 254.5\ngini = 0.015\nsamples = 1321\nvalue = [1311, 0, 1, 1, 0, 2, 5, 0, 0, 1]"] ;
340 -> 341 ;
342 [label="X[102] <= 178.5\ngini = 0.014\nsamples = 1320\nvalue = [1311, 0, 1, 1, 0, 2, 4, 0, 0, 1]"] ;
341 -> 342 ;
343 [label="X[95] <= 172.0\ngini = 0.009\nsamples = 1308\nvalue = [1302, 0, 0, 1, 0, 2, 2, 0, 0, 1]"] ;
342 -> 343 ;
344 [label="X[492] <= 253.5\ngini = 0.008\nsamples = 1305\nvalue = [1300, 0, 0, 1, 0, 2, 1, 0, 0, 1]"] ;
343 -> 344 ;
345 [label="X[353] <= 195.5\ngini = 0.006\nsamples = 1299\nvalue = [1295, 0, 0, 1, 0, 2, 1, 0, 0, 0]"] ;
344 -> 345 ;
346 [label="X[205] <= 253.5\ngini = 0.005\nsamples = 1291\nvalue = [1288, 0, 0, 0, 0, 2, 1, 0, 0, 0]"] ;
345 -> 346 ;
347 [label="X[491] <= 225.5\ngini = 0.002\nsamples = 1251\nvalue = [1250, 0, 0, 0, 0, 0, 1, 0, 0, 0]"] ;
346 -> 347 ;
348 [label="gini = 0.0\nsamples = 1240\nvalue = [1240, 0, 0, 0, 0, 0, 0, 0, 0, 0]"] ;
347 -> 348 ;
349 [label="X[578] <= 126.5\ngini = 0.165\nsamples = 11\nvalue = [10, 0, 0, 0, 0, 0, 1, 0, 0, 0]"] ;
347 -> 349 ;
350 [label="gini = 0.0\nsamples = 10\nvalue = [10, 0, 0, 0, 0, 0, 0, 0, 0, 0]"] ;
349 -> 350 ;
351 [label="gini = 0.0\nsamples = 1\nvalue = [0, 0, 0, 0, 0, 0, 1, 0, 0, 0]"] ;
349 -> 351 ;
352 [label="X[399] <= 14.5\ngini = 0.095\nsamples = 40\nvalue = [38, 0, 0, 0, 0, 2, 0, 0, 0, 0]"] ;
346 -> 352 ;
353 [label="gini = 0.0\nsamples = 2\nvalue = [0, 0, 0, 0, 0, 2, 0, 0, 0, 0]"] ;
352 -> 353 ;
354 [label="gini = 0.0\nsamples = 38\nvalue = [38, 0, 0, 0, 0, 0, 0, 0, 0, 0]"] ;
352 -> 354 ;
355 [label="X[602] <= 253.5\ngini = 0.219\nsamples = 8\nvalue = [7, 0, 0, 1, 0, 0, 0, 0, 0, 0]"] ;
345 -> 355 ;
356 [label="gini = 0.0\nsamples = 7\nvalue = [7, 0, 0, 0, 0, 0, 0, 0, 0, 0]"] ;
355 -> 356 ;
357 [label="gini = 0.0\nsamples = 1\nvalue = [0, 0, 0, 1, 0, 0, 0, 0, 0, 0]"] ;
355 -> 357 ;
358 [label="X[343] <= 107.5\ngini = 0.278\nsamples = 6\nvalue = [5, 0, 0, 0, 0, 0, 0, 0, 0, 1]"] ;
344 -> 358 ;
359 [label="gini = 0.0\nsamples = 5\nvalue = [5, 0, 0, 0, 0, 0, 0, 0, 0, 0]"] ;
358 -> 359 ;
360 [label="gini = 0.0\nsamples = 1\nvalue = [0, 0, 0, 0, 0, 0, 0, 0, 0, 1]"] ;
358 -> 360 ;
361 [label="X[264] <= 168.0\ngini = 0.444\nsamples = 3\nvalue = [2, 0, 0, 0, 0, 0, 1, 0, 0, 0]"] ;
343 -> 361 ;
362 [label="gini = 0.0\nsamples = 2\nvalue = [2, 0, 0, 0, 0, 0, 0, 0, 0, 0]"] ;
361 -> 362 ;
363 [label="gini = 0.0\nsamples = 1\nvalue = [0, 0, 0, 0, 0, 0, 1, 0, 0, 0]"] ;
361 -> 363 ;
364 [label="X[301] <= 2.5\ngini = 0.403\nsamples = 12\nvalue = [9, 0, 1, 0, 0, 0, 2, 0, 0, 0]"] ;
342 -> 364 ;
365 [label="X[271] <= 12.0\ngini = 0.444\nsamples = 3\nvalue = [0, 0, 1, 0, 0, 0, 2, 0, 0, 0]"] ;
364 -> 365 ;
366 [label="gini = 0.0\nsamples = 2\nvalue = [0, 0, 0, 0, 0, 0, 2, 0, 0, 0]"] ;
365 -> 366 ;
367 [label="gini = 0.0\nsamples = 1\nvalue = [0, 0, 1, 0, 0, 0, 0, 0, 0, 0]"] ;
365 -> 367 ;
368 [label="gini = 0.0\nsamples = 9\nvalue = [9, 0, 0, 0, 0, 0, 0, 0, 0, 0]"] ;
364 -> 368 ;
369 [label="gini = 0.0\nsamples = 1\nvalue = [0, 0, 0, 0, 0, 0, 1, 0, 0, 0]"] ;
341 -> 369 ;
370 [label="gini = 0.0\nsamples = 1\nvalue = [0, 0, 0, 0, 0, 1, 0, 0, 0, 0]"] ;
340 -> 370 ;
371 [label="X[213] <= 145.5\ngini = 0.5\nsamples = 2\nvalue = [0, 0, 0, 1, 0, 1, 0, 0, 0, 0]"] ;
339 -> 371 ;
372 [label="gini = 0.0\nsamples = 1\nvalue = [0, 0, 0, 0, 0, 1, 0, 0, 0, 0]"] ;
371 -> 372 ;
373 [label="gini = 0.0\nsamples = 1\nvalue = [0, 0, 0, 1, 0, 0, 0, 0, 0, 0]"] ;
371 -> 373 ;
374 [label="gini = 0.0\nsamples = 2\nvalue = [0, 0, 0, 0, 0, 0, 2, 0, 0, 0]"] ;
338 -> 374 ;
375 [label="X[346] <= 7.5\ngini = 0.444\nsamples = 3\nvalue = [0, 1, 2, 0, 0, 0, 0, 0, 0, 0]"] ;
337 -> 375 ;
376 [label="gini = 0.0\nsamples = 2\nvalue = [0, 0, 2, 0, 0, 0, 0, 0, 0, 0]"] ;
375 -> 376 ;
377 [label="gini = 0.0\nsamples = 1\nvalue = [0, 1, 0, 0, 0, 0, 0, 0, 0, 0]"] ;
375 -> 377 ;
378 [label="X[242] <= 18.0\ngini = 0.539\nsamples = 61\nvalue = [40, 0, 1, 3, 0, 8, 5, 0, 4, 0]"] ;
336 -> 378 ;
379 [label="X[573] <= 192.0\ngini = 0.631\nsamples = 15\nvalue = [0, 0, 0, 3, 0, 7, 5, 0, 0, 0]"] ;
378 -> 379 ;
380 [label="X[294] <= 232.0\ngini = 0.346\nsamples = 9\nvalue = [0, 0, 0, 2, 0, 7, 0, 0, 0, 0]"] ;
379 -> 380 ;
381 [label="gini = 0.0\nsamples = 7\nvalue = [0, 0, 0, 0, 0, 7, 0, 0, 0, 0]"] ;
380 -> 381 ;
382 [label="gini = 0.0\nsamples = 2\nvalue = [0, 0, 0, 2, 0, 0, 0, 0, 0, 0]"] ;
380 -> 382 ;
383 [label="X[105] <= 15.0\ngini = 0.278\nsamples = 6\nvalue = [0, 0, 0, 1, 0, 0, 5, 0, 0, 0]"] ;
379 -> 383 ;
384 [label="gini = 0.0\nsamples = 5\nvalue = [0, 0, 0, 0, 0, 0, 5, 0, 0, 0]"] ;
383 -> 384 ;
385 [label="gini = 0.0\nsamples = 1\nvalue = [0, 0, 0, 1, 0, 0, 0, 0, 0, 0]"] ;
383 -> 385 ;
386 [label="X[264] <= 19.0\ngini = 0.235\nsamples = 46\nvalue = [40, 0, 1, 0, 0, 1, 0, 0, 4, 0]"] ;
378 -> 386 ;
387 [label="X[243] <= 83.5\ngini = 0.656\nsamples = 8\nvalue = [2, 0, 1, 0, 0, 1, 0, 0, 4, 0]"] ;
386 -> 387 ;
388 [label="X[609] <= 221.5\ngini = 0.625\nsamples = 4\nvalue = [2, 0, 1, 0, 0, 1, 0, 0, 0, 0]"] ;
387 -> 388 ;
389 [label="gini = 0.0\nsamples = 2\nvalue = [2, 0, 0, 0, 0, 0, 0, 0, 0, 0]"] ;
388 -> 389 ;
390 [label="X[444] <= 51.5\ngini = 0.5\nsamples = 2\nvalue = [0, 0, 1, 0, 0, 1, 0, 0, 0, 0]"] ;
388 -> 390 ;
391 [label="gini = 0.0\nsamples = 1\nvalue = [0, 0, 1, 0, 0, 0, 0, 0, 0, 0]"] ;
390 -> 391 ;
392 [label="gini = 0.0\nsamples = 1\nvalue = [0, 0, 0, 0, 0, 1, 0, 0, 0, 0]"] ;
390 -> 392 ;
393 [label="gini = 0.0\nsamples = 4\nvalue = [0, 0, 0, 0, 0, 0, 0, 0, 4, 0]"] ;
387 -> 393 ;
394 [label="gini = 0.0\nsamples = 38\nvalue = [38, 0, 0, 0, 0, 0, 0, 0, 0, 0]"] ;
386 -> 394 ;
395 [label="X[301] <= 134.0\ngini = 0.773\nsamples = 44\nvalue = [13, 0, 1, 8, 0, 9, 11, 0, 2, 0]"] ;
335 -> 395 ;
396 [label="X[458] <= 119.5\ngini = 0.746\nsamples = 32\nvalue = [2, 0, 1, 7, 0, 9, 11, 0, 2, 0]"] ;
395 -> 396 ;
397 [label="X[496] <= 225.5\ngini = 0.722\nsamples = 23\nvalue = [2, 0, 0, 7, 0, 9, 3, 0, 2, 0]"] ;
396 -> 397 ;
398 [label="X[405] <= 17.0\ngini = 0.625\nsamples = 16\nvalue = [1, 0, 0, 1, 0, 9, 3, 0, 2, 0]"] ;
397 -> 398 ;
399 [label="X[415] <= 117.5\ngini = 0.417\nsamples = 12\nvalue = [1, 0, 0, 1, 0, 9, 1, 0, 0, 0]"] ;
398 -> 399 ;
400 [label="X[100] <= 197.0\ngini = 0.18\nsamples = 10\nvalue = [0, 0, 0, 0, 0, 9, 1, 0, 0, 0]"] ;
399 -> 400 ;
401 [label="gini = 0.0\nsamples = 9\nvalue = [0, 0, 0, 0, 0, 9, 0, 0, 0, 0]"] ;
400 -> 401 ;
402 [label="gini = 0.0\nsamples = 1\nvalue = [0, 0, 0, 0, 0, 0, 1, 0, 0, 0]"] ;
400 -> 402 ;
403 [label="X[234] <= 126.0\ngini = 0.5\nsamples = 2\nvalue = [1, 0, 0, 1, 0, 0, 0, 0, 0, 0]"] ;
399 -> 403 ;
404 [label="gini = 0.0\nsamples = 1\nvalue = [0, 0, 0, 1, 0, 0, 0, 0, 0, 0]"] ;
403 -> 404 ;
405 [label="gini = 0.0\nsamples = 1\nvalue = [1, 0, 0, 0, 0, 0, 0, 0, 0, 0]"] ;
403 -> 405 ;
406 [label="X[413] <= 75.5\ngini = 0.5\nsamples = 4\nvalue = [0, 0, 0, 0, 0, 0, 2, 0, 2, 0]"] ;
398 -> 406 ;
407 [label="gini = 0.0\nsamples = 2\nvalue = [0, 0, 0, 0, 0, 0, 2, 0, 0, 0]"] ;
406 -> 407 ;
408 [label="gini = 0.0\nsamples = 2\nvalue = [0, 0, 0, 0, 0, 0, 0, 0, 2, 0]"] ;
406 -> 408 ;
409 [label="X[454] <= 241.5\ngini = 0.245\nsamples = 7\nvalue = [1, 0, 0, 6, 0, 0, 0, 0, 0, 0]"] ;
397 -> 409 ;
410 [label="gini = 0.0\nsamples = 6\nvalue = [0, 0, 0, 6, 0, 0, 0, 0, 0, 0]"] ;
409 -> 410 ;
411 [label="gini = 0.0\nsamples = 1\nvalue = [1, 0, 0, 0, 0, 0, 0, 0, 0, 0]"] ;
409 -> 411 ;
412 [label="X[545] <= 203.0\ngini = 0.198\nsamples = 9\nvalue = [0, 0, 1, 0, 0, 0, 8, 0, 0, 0]"] ;
396 -> 412 ;
413 [label="gini = 0.0\nsamples = 8\nvalue = [0, 0, 0, 0, 0, 0, 8, 0, 0, 0]"] ;
412 -> 413 ;
414 [label="gini = 0.0\nsamples = 1\nvalue = [0, 0, 1, 0, 0, 0, 0, 0, 0, 0]"] ;
412 -> 414 ;
415 [label="X[119] <= 101.5\ngini = 0.153\nsamples = 12\nvalue = [11, 0, 0, 1, 0, 0, 0, 0, 0, 0]"] ;
395 -> 415 ;
416 [label="gini = 0.0\nsamples = 11\nvalue = [11, 0, 0, 0, 0, 0, 0, 0, 0, 0]"] ;
415 -> 416 ;
417 [label="gini = 0.0\nsamples = 1\nvalue = [0, 0, 0, 1, 0, 0, 0, 0, 0, 0]"] ;
415 -> 417 ;
418 [label="X[370] <= 8.5\ngini = 0.657\nsamples = 34\nvalue = [7, 0, 18, 1, 1, 4, 2, 0, 1, 0]"] ;
334 -> 418 ;
419 [label="X[467] <= 6.0\ngini = 0.524\nsamples = 27\nvalue = [0, 0, 18, 1, 1, 4, 2, 0, 1, 0]"] ;
418 -> 419 ;
420 [label="X[153] <= 11.5\ngini = 0.612\nsamples = 7\nvalue = [0, 0, 0, 1, 0, 4, 1, 0, 1, 0]"] ;
419 -> 420 ;
421 [label="gini = 0.0\nsamples = 4\nvalue = [0, 0, 0, 0, 0, 4, 0, 0, 0, 0]"] ;
420 -> 421 ;
422 [label="X[653] <= 95.5\ngini = 0.667\nsamples = 3\nvalue = [0, 0, 0, 1, 0, 0, 1, 0, 1, 0]"] ;
420 -> 422 ;
423 [label="X[272] <= 126.5\ngini = 0.5\nsamples = 2\nvalue = [0, 0, 0, 0, 0, 0, 1, 0, 1, 0]"] ;
422 -> 423 ;
424 [label="gini = 0.0\nsamples = 1\nvalue = [0, 0, 0, 0, 0, 0, 1, 0, 0, 0]"] ;
423 -> 424 ;
425 [label="gini = 0.0\nsamples = 1\nvalue = [0, 0, 0, 0, 0, 0, 0, 0, 1, 0]"] ;
423 -> 425 ;
426 [label="gini = 0.0\nsamples = 1\nvalue = [0, 0, 0, 1, 0, 0, 0, 0, 0, 0]"] ;
422 -> 426 ;
427 [label="X[345] <= 105.5\ngini = 0.185\nsamples = 20\nvalue = [0, 0, 18, 0, 1, 0, 1, 0, 0, 0]"] ;
419 -> 427 ;
428 [label="gini = 0.0\nsamples = 18\nvalue = [0, 0, 18, 0, 0, 0, 0, 0, 0, 0]"] ;
427 -> 428 ;
429 [label="X[101] <= 64.0\ngini = 0.5\nsamples = 2\nvalue = [0, 0, 0, 0, 1, 0, 1, 0, 0, 0]"] ;
427 -> 429 ;
430 [label="gini = 0.0\nsamples = 1\nvalue = [0, 0, 0, 0, 1, 0, 0, 0, 0, 0]"] ;
429 -> 430 ;
431 [label="gini = 0.0\nsamples = 1\nvalue = [0, 0, 0, 0, 0, 0, 1, 0, 0, 0]"] ;
429 -> 431 ;
432 [label="gini = 0.0\nsamples = 7\nvalue = [7, 0, 0, 0, 0, 0, 0, 0, 0, 0]"] ;
418 -> 432 ;
433 [label="X[375] <= 0.5\ngini = 0.726\nsamples = 4389\nvalue = [23, 2082, 471, 289, 84, 560, 239, 92, 489, 60]"] ;
1 -> 433 ;
434 [label="X[550] <= 0.5\ngini = 0.501\nsamples = 2833\nvalue = [5, 1953, 384, 95, 37, 74, 80, 87, 101, 17]"] ;
433 -> 434 ;
435 [label="X[206] <= 0.5\ngini = 0.306\nsamples = 2315\nvalue = [1, 1921, 129, 35, 17, 43, 10, 75, 76, 8]"] ;
434 -> 435 ;
436 [label="X[378] <= 139.5\ngini = 0.198\nsamples = 2126\nvalue = [0, 1901, 60, 17, 14, 37, 4, 31, 59, 3]"] ;
435 -> 436 ;
437 [label="X[248] <= 1.5\ngini = 0.825\nsamples = 126\nvalue = [0, 30, 30, 5, 9, 22, 3, 18, 7, 2]"] ;
436 -> 437 ;
438 [label="X[485] <= 5.5\ngini = 0.81\nsamples = 111\nvalue = [0, 30, 30, 5, 9, 8, 3, 18, 6, 2]"] ;
437 -> 438 ;
439 [label="X[710] <= 11.5\ngini = 0.787\nsamples = 80\nvalue = [0, 30, 8, 5, 4, 8, 2, 16, 6, 1]"] ;
438 -> 439 ;
440 [label="X[177] <= 1.5\ngini = 0.766\nsamples = 70\nvalue = [0, 30, 8, 5, 4, 8, 2, 6, 6, 1]"] ;
439 -> 440 ;
441 [label="X[432] <= 122.0\ngini = 0.735\nsamples = 64\nvalue = [0, 30, 2, 5, 4, 8, 2, 6, 6, 1]"] ;
440 -> 441 ;
442 [label="X[245] <= 1.0\ngini = 0.521\nsamples = 43\nvalue = [0, 29, 1, 2, 0, 2, 0, 5, 3, 1]"] ;
441 -> 442 ;
443 [label="X[684] <= 175.5\ngini = 0.341\nsamples = 36\nvalue = [0, 29, 1, 1, 0, 1, 0, 3, 0, 1]"] ;
442 -> 443 ;
444 [label="X[521] <= 28.5\ngini = 0.222\nsamples = 33\nvalue = [0, 29, 1, 1, 0, 0, 0, 2, 0, 0]"] ;
443 -> 444 ;
445 [label="X[714] <= 123.5\ngini = 0.121\nsamples = 31\nvalue = [0, 29, 0, 0, 0, 0, 0, 2, 0, 0]"] ;
444 -> 445 ;
446 [label="X[152] <= 208.5\ngini = 0.064\nsamples = 30\nvalue = [0, 29, 0, 0, 0, 0, 0, 1, 0, 0]"] ;
445 -> 446 ;
447 [label="gini = 0.0\nsamples = 29\nvalue = [0, 29, 0, 0, 0, 0, 0, 0, 0, 0]"] ;
446 -> 447 ;
448 [label="gini = 0.0\nsamples = 1\nvalue = [0, 0, 0, 0, 0, 0, 0, 1, 0, 0]"] ;
446 -> 448 ;
449 [label="gini = 0.0\nsamples = 1\nvalue = [0, 0, 0, 0, 0, 0, 0, 1, 0, 0]"] ;
445 -> 449 ;
450 [label="X[127] <= 126.0\ngini = 0.5\nsamples = 2\nvalue = [0, 0, 1, 1, 0, 0, 0, 0, 0, 0]"] ;
444 -> 450 ;
451 [label="gini = 0.0\nsamples = 1\nvalue = [0, 0, 1, 0, 0, 0, 0, 0, 0, 0]"] ;
450 -> 451 ;
452 [label="gini = 0.0\nsamples = 1\nvalue = [0, 0, 0, 1, 0, 0, 0, 0, 0, 0]"] ;
450 -> 452 ;
453 [label="X[187] <= 125.0\ngini = 0.667\nsamples = 3\nvalue = [0, 0, 0, 0, 0, 1, 0, 1, 0, 1]"] ;
443 -> 453 ;
454 [label="X[599] <= 75.5\ngini = 0.5\nsamples = 2\nvalue = [0, 0, 0, 0, 0, 0, 0, 1, 0, 1]"] ;
453 -> 454 ;
455 [label="gini = 0.0\nsamples = 1\nvalue = [0, 0, 0, 0, 0, 0, 0, 0, 0, 1]"] ;
454 -> 455 ;
456 [label="gini = 0.0\nsamples = 1\nvalue = [0, 0, 0, 0, 0, 0, 0, 1, 0, 0]"] ;
454 -> 456 ;
457 [label="gini = 0.0\nsamples = 1\nvalue = [0, 0, 0, 0, 0, 1, 0, 0, 0, 0]"] ;
453 -> 457 ;
458 [label="X[405] <= 116.0\ngini = 0.694\nsamples = 7\nvalue = [0, 0, 0, 1, 0, 1, 0, 2, 3, 0]"] ;
442 -> 458 ;
459 [label="X[272] <= 150.0\ngini = 0.625\nsamples = 4\nvalue = [0, 0, 0, 1, 0, 1, 0, 2, 0, 0]"] ;
458 -> 459 ;
460 [label="X[565] <= 127.5\ngini = 0.5\nsamples = 2\nvalue = [0, 0, 0, 1, 0, 1, 0, 0, 0, 0]"] ;
459 -> 460 ;
461 [label="gini = 0.0\nsamples = 1\nvalue = [0, 0, 0, 1, 0, 0, 0, 0, 0, 0]"] ;
460 -> 461 ;
462 [label="gini = 0.0\nsamples = 1\nvalue = [0, 0, 0, 0, 0, 1, 0, 0, 0, 0]"] ;
460 -> 462 ;
463 [label="gini = 0.0\nsamples = 2\nvalue = [0, 0, 0, 0, 0, 0, 0, 2, 0, 0]"] ;
459 -> 463 ;
464 [label="gini = 0.0\nsamples = 3\nvalue = [0, 0, 0, 0, 0, 0, 0, 0, 3, 0]"] ;
458 -> 464 ;
465 [label="X[321] <= 175.5\ngini = 0.825\nsamples = 21\nvalue = [0, 1, 1, 3, 4, 6, 2, 1, 3, 0]"] ;
441 -> 465 ;
466 [label="X[458] <= 93.5\ngini = 0.769\nsamples = 13\nvalue = [0, 0, 1, 3, 4, 0, 2, 0, 3, 0]"] ;
465 -> 466 ;
467 [label="X[237] <= 75.0\ngini = 0.716\nsamples = 9\nvalue = [0, 0, 1, 3, 0, 0, 2, 0, 3, 0]"] ;
466 -> 467 ;
468 [label="X[571] <= 137.0\ngini = 0.611\nsamples = 6\nvalue = [0, 0, 1, 3, 0, 0, 2, 0, 0, 0]"] ;
467 -> 468 ;
469 [label="gini = 0.0\nsamples = 3\nvalue = [0, 0, 0, 3, 0, 0, 0, 0, 0, 0]"] ;
468 -> 469 ;
470 [label="X[517] <= 32.0\ngini = 0.444\nsamples = 3\nvalue = [0, 0, 1, 0, 0, 0, 2, 0, 0, 0]"] ;
468 -> 470 ;
471 [label="gini = 0.0\nsamples = 2\nvalue = [0, 0, 0, 0, 0, 0, 2, 0, 0, 0]"] ;
470 -> 471 ;
472 [label="gini = 0.0\nsamples = 1\nvalue = [0, 0, 1, 0, 0, 0, 0, 0, 0, 0]"] ;
470 -> 472 ;
473 [label="gini = 0.0\nsamples = 3\nvalue = [0, 0, 0, 0, 0, 0, 0, 0, 3, 0]"] ;
467 -> 473 ;
474 [label="gini = 0.0\nsamples = 4\nvalue = [0, 0, 0, 0, 4, 0, 0, 0, 0, 0]"] ;
466 -> 474 ;
475 [label="X[98] <= 103.0\ngini = 0.406\nsamples = 8\nvalue = [0, 1, 0, 0, 0, 6, 0, 1, 0, 0]"] ;
465 -> 475 ;
476 [label="X[215] <= 229.0\ngini = 0.245\nsamples = 7\nvalue = [0, 0, 0, 0, 0, 6, 0, 1, 0, 0]"] ;
475 -> 476 ;
477 [label="gini = 0.0\nsamples = 6\nvalue = [0, 0, 0, 0, 0, 6, 0, 0, 0, 0]"] ;
476 -> 477 ;
478 [label="gini = 0.0\nsamples = 1\nvalue = [0, 0, 0, 0, 0, 0, 0, 1, 0, 0]"] ;
476 -> 478 ;
479 [label="gini = 0.0\nsamples = 1\nvalue = [0, 1, 0, 0, 0, 0, 0, 0, 0, 0]"] ;
475 -> 479 ;
480 [label="gini = 0.0\nsamples = 6\nvalue = [0, 0, 6, 0, 0, 0, 0, 0, 0, 0]"] ;
440 -> 480 ;
481 [label="gini = 0.0\nsamples = 10\nvalue = [0, 0, 0, 0, 0, 0, 0, 10, 0, 0]"] ;
439 -> 481 ;
482 [label="X[372] <= 59.5\ngini = 0.464\nsamples = 31\nvalue = [0, 0, 22, 0, 5, 0, 1, 2, 0, 1]"] ;
438 -> 482 ;
483 [label="X[715] <= 126.5\ngini = 0.159\nsamples = 23\nvalue = [0, 0, 21, 0, 0, 0, 0, 2, 0, 0]"] ;
482 -> 483 ;
484 [label="X[516] <= 253.5\ngini = 0.087\nsamples = 22\nvalue = [0, 0, 21, 0, 0, 0, 0, 1, 0, 0]"] ;
483 -> 484 ;
485 [label="gini = 0.0\nsamples = 21\nvalue = [0, 0, 21, 0, 0, 0, 0, 0, 0, 0]"] ;
484 -> 485 ;
486 [label="gini = 0.0\nsamples = 1\nvalue = [0, 0, 0, 0, 0, 0, 0, 1, 0, 0]"] ;
484 -> 486 ;
487 [label="gini = 0.0\nsamples = 1\nvalue = [0, 0, 0, 0, 0, 0, 0, 1, 0, 0]"] ;
483 -> 487 ;
488 [label="X[359] <= 31.0\ngini = 0.562\nsamples = 8\nvalue = [0, 0, 1, 0, 5, 0, 1, 0, 0, 1]"] ;
482 -> 488 ;
489 [label="gini = 0.0\nsamples = 5\nvalue = [0, 0, 0, 0, 5, 0, 0, 0, 0, 0]"] ;
488 -> 489 ;
490 [label="X[122] <= 31.0\ngini = 0.667\nsamples = 3\nvalue = [0, 0, 1, 0, 0, 0, 1, 0, 0, 1]"] ;
488 -> 490 ;
491 [label="X[438] <= 157.0\ngini = 0.5\nsamples = 2\nvalue = [0, 0, 1, 0, 0, 0, 0, 0, 0, 1]"] ;
490 -> 491 ;
492 [label="gini = 0.0\nsamples = 1\nvalue = [0, 0, 1, 0, 0, 0, 0, 0, 0, 0]"] ;
491 -> 492 ;
493 [label="gini = 0.0\nsamples = 1\nvalue = [0, 0, 0, 0, 0, 0, 0, 0, 0, 1]"] ;
491 -> 493 ;
494 [label="gini = 0.0\nsamples = 1\nvalue = [0, 0, 0, 0, 0, 0, 1, 0, 0, 0]"] ;
490 -> 494 ;
495 [label="X[381] <= 5.0\ngini = 0.124\nsamples = 15\nvalue = [0, 0, 0, 0, 0, 14, 0, 0, 1, 0]"] ;
437 -> 495 ;
496 [label="gini = 0.0\nsamples = 14\nvalue = [0, 0, 0, 0, 0, 14, 0, 0, 0, 0]"] ;
495 -> 496 ;
497 [label="gini = 0.0\nsamples = 1\nvalue = [0, 0, 0, 0, 0, 0, 0, 0, 1, 0]"] ;
495 -> 497 ;
498 [label="X[485] <= 102.5\ngini = 0.124\nsamples = 2000\nvalue = [0, 1871, 30, 12, 5, 15, 1, 13, 52, 1]"] ;
436 -> 498 ;
499 [label="X[149] <= 11.5\ngini = 0.084\nsamples = 1935\nvalue = [0, 1852, 18, 11, 2, 11, 1, 12, 27, 1]"] ;
498 -> 499 ;
500 [label="X[261] <= 0.5\ngini = 0.069\nsamples = 1920\nvalue = [0, 1852, 5, 10, 2, 11, 1, 11, 27, 1]"] ;
499 -> 500 ;
501 [label="X[538] <= 56.5\ngini = 0.058\nsamples = 1907\nvalue = [0, 1851, 4, 9, 1, 11, 1, 3, 27, 0]"] ;
500 -> 501 ;
502 [label="X[273] <= 126.0\ngini = 0.05\nsamples = 1899\nvalue = [0, 1851, 4, 8, 1, 4, 1, 3, 27, 0]"] ;
501 -> 502 ;
503 [label="X[493] <= 2.0\ngini = 0.044\nsamples = 1893\nvalue = [0, 1851, 4, 7, 1, 4, 1, 3, 22, 0]"] ;
502 -> 503 ;
504 [label="X[319] <= 75.0\ngini = 0.028\nsamples = 1848\nvalue = [0, 1822, 4, 1, 0, 1, 1, 3, 16, 0]"] ;
503 -> 504 ;
505 [label="X[578] <= 70.5\ngini = 0.023\nsamples = 1833\nvalue = [0, 1812, 4, 1, 0, 1, 1, 3, 11, 0]"] ;
504 -> 505 ;
506 [label="X[521] <= 43.5\ngini = 0.02\nsamples = 1828\nvalue = [0, 1810, 1, 1, 0, 1, 1, 3, 11, 0]"] ;
505 -> 506 ;
507 [label="X[104] <= 154.5\ngini = 0.017\nsamples = 1825\nvalue = [0, 1809, 1, 1, 0, 1, 1, 3, 9, 0]"] ;
506 -> 507 ;
508 [label="X[565] <= 136.5\ngini = 0.016\nsamples = 1824\nvalue = [0, 1809, 1, 1, 0, 1, 0, 3, 9, 0]"] ;
507 -> 508 ;
509 [label="X[710] <= 170.0\ngini = 0.015\nsamples = 1823\nvalue = [0, 1809, 1, 1, 0, 0, 0, 3, 9, 0]"] ;
508 -> 509 ;
510 [label="X[178] <= 151.0\ngini = 0.014\nsamples = 1822\nvalue = [0, 1809, 1, 1, 0, 0, 0, 2, 9, 0]"] ;
509 -> 510 ;
511 [label="X[417] <= 2.0\ngini = 0.013\nsamples = 1821\nvalue = [0, 1809, 1, 1, 0, 0, 0, 1, 9, 0]"] ;
510 -> 511 ;
512 [label="X[300] <= 183.0\ngini = 0.012\nsamples = 1820\nvalue = [0, 1809, 1, 1, 0, 0, 0, 1, 8, 0]"] ;
511 -> 512 ;
513 [label="X[437] <= 3.0\ngini = 0.011\nsamples = 1819\nvalue = [0, 1809, 1, 1, 0, 0, 0, 1, 7, 0]"] ;
512 -> 513 ;
514 [label="X[684] <= 253.5\ngini = 0.01\nsamples = 1817\nvalue = [0, 1808, 1, 0, 0, 0, 0, 1, 7, 0]"] ;
513 -> 514 ;
515 [label="X[150] <= 89.0\ngini = 0.008\nsamples = 1806\nvalue = [0, 1799, 1, 0, 0, 0, 0, 1, 5, 0]"] ;
514 -> 515 ;
516 [label="X[568] <= 253.5\ngini = 0.007\nsamples = 1803\nvalue = [0, 1797, 1, 0, 0, 0, 0, 0, 5, 0]"] ;
515 -> 516 ;
517 [label="X[486] <= 253.5\ngini = 0.006\nsamples = 1799\nvalue = [0, 1794, 1, 0, 0, 0, 0, 0, 4, 0]"] ;
516 -> 517 ;
518 [label="X[122] <= 33.5\ngini = 0.004\nsamples = 1794\nvalue = [0, 1790, 1, 0, 0, 0, 0, 0, 3, 0]"] ;
517 -> 518 ;
519 [label="X[348] <= 225.5\ngini = 0.003\nsamples = 1788\nvalue = [0, 1785, 0, 0, 0, 0, 0, 0, 3, 0]"] ;
518 -> 519 ;
520 [label="X[492] <= 140.5\ngini = 0.002\nsamples = 1778\nvalue = [0, 1776, 0, 0, 0, 0, 0, 0, 2, 0]"] ;
519 -> 520 ;
521 [label="gini = 0.0\nsamples = 1705\nvalue = [0, 1705, 0, 0, 0, 0, 0, 0, 0, 0]"] ;
520 -> 521 ;
522 [label="X[157] <= 161.5\ngini = 0.053\nsamples = 73\nvalue = [0, 71, 0, 0, 0, 0, 0, 0, 2, 0]"] ;
520 -> 522 ;
523 [label="gini = 0.0\nsamples = 71\nvalue = [0, 71, 0, 0, 0, 0, 0, 0, 0, 0]"] ;
522 -> 523 ;
524 [label="gini = 0.0\nsamples = 2\nvalue = [0, 0, 0, 0, 0, 0, 0, 0, 2, 0]"] ;
522 -> 524 ;
525 [label="X[157] <= 145.0\ngini = 0.18\nsamples = 10\nvalue = [0, 9, 0, 0, 0, 0, 0, 0, 1, 0]"] ;
519 -> 525 ;
526 [label="gini = 0.0\nsamples = 9\nvalue = [0, 9, 0, 0, 0, 0, 0, 0, 0, 0]"] ;
525 -> 526 ;
527 [label="gini = 0.0\nsamples = 1\nvalue = [0, 0, 0, 0, 0, 0, 0, 0, 1, 0]"] ;
525 -> 527 ;
528 [label="X[265] <= 103.0\ngini = 0.278\nsamples = 6\nvalue = [0, 5, 1, 0, 0, 0, 0, 0, 0, 0]"] ;
518 -> 528 ;
529 [label="gini = 0.0\nsamples = 1\nvalue = [0, 0, 1, 0, 0, 0, 0, 0, 0, 0]"] ;
528 -> 529 ;
530 [label="gini = 0.0\nsamples = 5\nvalue = [0, 5, 0, 0, 0, 0, 0, 0, 0, 0]"] ;
528 -> 530 ;
531 [label="X[264] <= 76.0\ngini = 0.32\nsamples = 5\nvalue = [0, 4, 0, 0, 0, 0, 0, 0, 1, 0]"] ;
517 -> 531 ;
532 [label="gini = 0.0\nsamples = 4\nvalue = [0, 4, 0, 0, 0, 0, 0, 0, 0, 0]"] ;
531 -> 532 ;
533 [label="gini = 0.0\nsamples = 1\nvalue = [0, 0, 0, 0, 0, 0, 0, 0, 1, 0]"] ;
531 -> 533 ;
534 [label="X[629] <= 127.0\ngini = 0.375\nsamples = 4\nvalue = [0, 3, 0, 0, 0, 0, 0, 0, 1, 0]"] ;
516 -> 534 ;
535 [label="gini = 0.0\nsamples = 3\nvalue = [0, 3, 0, 0, 0, 0, 0, 0, 0, 0]"] ;
534 -> 535 ;
536 [label="gini = 0.0\nsamples = 1\nvalue = [0, 0, 0, 0, 0, 0, 0, 0, 1, 0]"] ;
534 -> 536 ;
537 [label="X[237] <= 126.0\ngini = 0.444\nsamples = 3\nvalue = [0, 2, 0, 0, 0, 0, 0, 1, 0, 0]"] ;
515 -> 537 ;
538 [label="gini = 0.0\nsamples = 1\nvalue = [0, 0, 0, 0, 0, 0, 0, 1, 0, 0]"] ;
537 -> 538 ;
539 [label="gini = 0.0\nsamples = 2\nvalue = [0, 2, 0, 0, 0, 0, 0, 0, 0, 0]"] ;
537 -> 539 ;
540 [label="X[300] <= 2.0\ngini = 0.298\nsamples = 11\nvalue = [0, 9, 0, 0, 0, 0, 0, 0, 2, 0]"] ;
514 -> 540 ;
541 [label="gini = 0.0\nsamples = 9\nvalue = [0, 9, 0, 0, 0, 0, 0, 0, 0, 0]"] ;
540 -> 541 ;
542 [label="gini = 0.0\nsamples = 2\nvalue = [0, 0, 0, 0, 0, 0, 0, 0, 2, 0]"] ;
540 -> 542 ;
543 [label="X[600] <= 126.5\ngini = 0.5\nsamples = 2\nvalue = [0, 1, 0, 1, 0, 0, 0, 0, 0, 0]"] ;
513 -> 543 ;
544 [label="gini = 0.0\nsamples = 1\nvalue = [0, 1, 0, 0, 0, 0, 0, 0, 0, 0]"] ;
543 -> 544 ;
545 [label="gini = 0.0\nsamples = 1\nvalue = [0, 0, 0, 1, 0, 0, 0, 0, 0, 0]"] ;
543 -> 545 ;
546 [label="gini = 0.0\nsamples = 1\nvalue = [0, 0, 0, 0, 0, 0, 0, 0, 1, 0]"] ;
512 -> 546 ;
547 [label="gini = 0.0\nsamples = 1\nvalue = [0, 0, 0, 0, 0, 0, 0, 0, 1, 0]"] ;
511 -> 547 ;
548 [label="gini = 0.0\nsamples = 1\nvalue = [0, 0, 0, 0, 0, 0, 0, 1, 0, 0]"] ;
510 -> 548 ;
549 [label="gini = 0.0\nsamples = 1\nvalue = [0, 0, 0, 0, 0, 0, 0, 1, 0, 0]"] ;
509 -> 549 ;
550 [label="gini = 0.0\nsamples = 1\nvalue = [0, 0, 0, 0, 0, 1, 0, 0, 0, 0]"] ;
508 -> 550 ;
551 [label="gini = 0.0\nsamples = 1\nvalue = [0, 0, 0, 0, 0, 0, 1, 0, 0, 0]"] ;
507 -> 551 ;
552 [label="X[405] <= 241.5\ngini = 0.444\nsamples = 3\nvalue = [0, 1, 0, 0, 0, 0, 0, 0, 2, 0]"] ;
506 -> 552 ;
553 [label="gini = 0.0\nsamples = 2\nvalue = [0, 0, 0, 0, 0, 0, 0, 0, 2, 0]"] ;
552 -> 553 ;
554 [label="gini = 0.0\nsamples = 1\nvalue = [0, 1, 0, 0, 0, 0, 0, 0, 0, 0]"] ;
552 -> 554 ;
555 [label="X[632] <= 181.0\ngini = 0.48\nsamples = 5\nvalue = [0, 2, 3, 0, 0, 0, 0, 0, 0, 0]"] ;
505 -> 555 ;
556 [label="gini = 0.0\nsamples = 3\nvalue = [0, 0, 3, 0, 0, 0, 0, 0, 0, 0]"] ;
555 -> 556 ;
557 [label="gini = 0.0\nsamples = 2\nvalue = [0, 2, 0, 0, 0, 0, 0, 0, 0, 0]"] ;
555 -> 557 ;
558 [label="X[684] <= 58.0\ngini = 0.444\nsamples = 15\nvalue = [0, 10, 0, 0, 0, 0, 0, 0, 5, 0]"] ;
504 -> 558 ;
559 [label="gini = 0.0\nsamples = 10\nvalue = [0, 10, 0, 0, 0, 0, 0, 0, 0, 0]"] ;
558 -> 559 ;
560 [label="gini = 0.0\nsamples = 5\nvalue = [0, 0, 0, 0, 0, 0, 0, 0, 5, 0]"] ;
558 -> 560 ;
561 [label="X[490] <= 138.5\ngini = 0.544\nsamples = 45\nvalue = [0, 29, 0, 6, 1, 3, 0, 0, 6, 0]"] ;
503 -> 561 ;
562 [label="X[488] <= 111.0\ngini = 0.658\nsamples = 15\nvalue = [0, 1, 0, 6, 0, 2, 0, 0, 6, 0]"] ;
561 -> 562 ;
563 [label="X[297] <= 0.5\ngini = 0.494\nsamples = 9\nvalue = [0, 1, 0, 6, 0, 2, 0, 0, 0, 0]"] ;
562 -> 563 ;
564 [label="X[656] <= 80.5\ngini = 0.444\nsamples = 3\nvalue = [0, 1, 0, 0, 0, 2, 0, 0, 0, 0]"] ;
563 -> 564 ;
565 [label="gini = 0.0\nsamples = 1\nvalue = [0, 1, 0, 0, 0, 0, 0, 0, 0, 0]"] ;
564 -> 565 ;
566 [label="gini = 0.0\nsamples = 2\nvalue = [0, 0, 0, 0, 0, 2, 0, 0, 0, 0]"] ;
564 -> 566 ;
567 [label="gini = 0.0\nsamples = 6\nvalue = [0, 0, 0, 6, 0, 0, 0, 0, 0, 0]"] ;
563 -> 567 ;
568 [label="gini = 0.0\nsamples = 6\nvalue = [0, 0, 0, 0, 0, 0, 0, 0, 6, 0]"] ;
562 -> 568 ;
569 [label="X[188] <= 126.5\ngini = 0.127\nsamples = 30\nvalue = [0, 28, 0, 0, 1, 1, 0, 0, 0, 0]"] ;
561 -> 569 ;
570 [label="gini = 0.0\nsamples = 28\nvalue = [0, 28, 0, 0, 0, 0, 0, 0, 0, 0]"] ;
569 -> 570 ;
571 [label="X[461] <= 254.0\ngini = 0.5\nsamples = 2\nvalue = [0, 0, 0, 0, 1, 1, 0, 0, 0, 0]"] ;
569 -> 571 ;
572 [label="gini = 0.0\nsamples = 1\nvalue = [0, 0, 0, 0, 0, 1, 0, 0, 0, 0]"] ;
571 -> 572 ;
573 [label="gini = 0.0\nsamples = 1\nvalue = [0, 0, 0, 0, 1, 0, 0, 0, 0, 0]"] ;
571 -> 573 ;
574 [label="X[710] <= 65.5\ngini = 0.278\nsamples = 6\nvalue = [0, 0, 0, 1, 0, 0, 0, 0, 5, 0]"] ;
502 -> 574 ;
575 [label="gini = 0.0\nsamples = 5\nvalue = [0, 0, 0, 0, 0, 0, 0, 0, 5, 0]"] ;
574 -> 575 ;
576 [label="gini = 0.0\nsamples = 1\nvalue = [0, 0, 0, 1, 0, 0, 0, 0, 0, 0]"] ;
574 -> 576 ;
577 [label="X[537] <= 207.5\ngini = 0.219\nsamples = 8\nvalue = [0, 0, 0, 1, 0, 7, 0, 0, 0, 0]"] ;
501 -> 577 ;
578 [label="gini = 0.0\nsamples = 7\nvalue = [0, 0, 0, 0, 0, 7, 0, 0, 0, 0]"] ;
577 -> 578 ;
579 [label="gini = 0.0\nsamples = 1\nvalue = [0, 0, 0, 1, 0, 0, 0, 0, 0, 0]"] ;
577 -> 579 ;
580 [label="X[267] <= 158.0\ngini = 0.592\nsamples = 13\nvalue = [0, 1, 1, 1, 1, 0, 0, 8, 0, 1]"] ;
500 -> 580 ;
581 [label="X[712] <= 65.5\ngini = 0.75\nsamples = 4\nvalue = [0, 1, 1, 1, 1, 0, 0, 0, 0, 0]"] ;
580 -> 581 ;
582 [label="X[516] <= 126.0\ngini = 0.667\nsamples = 3\nvalue = [0, 1, 1, 0, 1, 0, 0, 0, 0, 0]"] ;
581 -> 582 ;
583 [label="gini = 0.0\nsamples = 1\nvalue = [0, 0, 0, 0, 1, 0, 0, 0, 0, 0]"] ;
582 -> 583 ;
584 [label="X[489] <= 238.5\ngini = 0.5\nsamples = 2\nvalue = [0, 1, 1, 0, 0, 0, 0, 0, 0, 0]"] ;
582 -> 584 ;
585 [label="gini = 0.0\nsamples = 1\nvalue = [0, 0, 1, 0, 0, 0, 0, 0, 0, 0]"] ;
584 -> 585 ;
586 [label="gini = 0.0\nsamples = 1\nvalue = [0, 1, 0, 0, 0, 0, 0, 0, 0, 0]"] ;
584 -> 586 ;
587 [label="gini = 0.0\nsamples = 1\nvalue = [0, 0, 0, 1, 0, 0, 0, 0, 0, 0]"] ;
581 -> 587 ;
588 [label="X[490] <= 179.5\ngini = 0.198\nsamples = 9\nvalue = [0, 0, 0, 0, 0, 0, 0, 8, 0, 1]"] ;
580 -> 588 ;
589 [label="gini = 0.0\nsamples = 1\nvalue = [0, 0, 0, 0, 0, 0, 0, 0, 0, 1]"] ;
588 -> 589 ;
590 [label="gini = 0.0\nsamples = 8\nvalue = [0, 0, 0, 0, 0, 0, 0, 8, 0, 0]"] ;
588 -> 590 ;
591 [label="X[491] <= 124.5\ngini = 0.24\nsamples = 15\nvalue = [0, 0, 13, 1, 0, 0, 0, 1, 0, 0]"] ;
499 -> 591 ;
592 [label="gini = 0.0\nsamples = 13\nvalue = [0, 0, 13, 0, 0, 0, 0, 0, 0, 0]"] ;
591 -> 592 ;
593 [label="X[492] <= 150.5\ngini = 0.5\nsamples = 2\nvalue = [0, 0, 0, 1, 0, 0, 0, 1, 0, 0]"] ;
591 -> 593 ;
594 [label="gini = 0.0\nsamples = 1\nvalue = [0, 0, 0, 0, 0, 0, 0, 1, 0, 0]"] ;
593 -> 594 ;
595 [label="gini = 0.0\nsamples = 1\nvalue = [0, 0, 0, 1, 0, 0, 0, 0, 0, 0]"] ;
593 -> 595 ;
596 [label="X[320] <= 19.0\ngini = 0.726\nsamples = 65\nvalue = [0, 19, 12, 1, 3, 4, 0, 1, 25, 0]"] ;
498 -> 596 ;
597 [label="X[126] <= 60.5\ngini = 0.715\nsamples = 43\nvalue = [0, 19, 11, 1, 3, 3, 0, 1, 5, 0]"] ;
596 -> 597 ;
598 [label="X[460] <= 224.0\ngini = 0.626\nsamples = 33\nvalue = [0, 19, 1, 1, 3, 3, 0, 1, 5, 0]"] ;
597 -> 598 ;
599 [label="X[455] <= 5.0\ngini = 0.694\nsamples = 11\nvalue = [0, 0, 1, 0, 1, 3, 0, 1, 5, 0]"] ;
598 -> 599 ;
600 [label="gini = 0.0\nsamples = 5\nvalue = [0, 0, 0, 0, 0, 0, 0, 0, 5, 0]"] ;
599 -> 600 ;
601 [label="X[511] <= 73.5\ngini = 0.667\nsamples = 6\nvalue = [0, 0, 1, 0, 1, 3, 0, 1, 0, 0]"] ;
599 -> 601 ;
602 [label="X[461] <= 146.0\ngini = 0.667\nsamples = 3\nvalue = [0, 0, 1, 0, 1, 0, 0, 1, 0, 0]"] ;
601 -> 602 ;
603 [label="gini = 0.0\nsamples = 1\nvalue = [0, 0, 1, 0, 0, 0, 0, 0, 0, 0]"] ;
602 -> 603 ;
604 [label="X[491] <= 238.0\ngini = 0.5\nsamples = 2\nvalue = [0, 0, 0, 0, 1, 0, 0, 1, 0, 0]"] ;
602 -> 604 ;
605 [label="gini = 0.0\nsamples = 1\nvalue = [0, 0, 0, 0, 1, 0, 0, 0, 0, 0]"] ;
604 -> 605 ;
606 [label="gini = 0.0\nsamples = 1\nvalue = [0, 0, 0, 0, 0, 0, 0, 1, 0, 0]"] ;
604 -> 606 ;
607 [label="gini = 0.0\nsamples = 3\nvalue = [0, 0, 0, 0, 0, 3, 0, 0, 0, 0]"] ;
601 -> 607 ;
608 [label="X[235] <= 0.5\ngini = 0.244\nsamples = 22\nvalue = [0, 19, 0, 1, 2, 0, 0, 0, 0, 0]"] ;
598 -> 608 ;
609 [label="gini = 0.0\nsamples = 19\nvalue = [0, 19, 0, 0, 0, 0, 0, 0, 0, 0]"] ;
608 -> 609 ;
610 [label="X[376] <= 15.5\ngini = 0.444\nsamples = 3\nvalue = [0, 0, 0, 1, 2, 0, 0, 0, 0, 0]"] ;
608 -> 610 ;
611 [label="gini = 0.0\nsamples = 2\nvalue = [0, 0, 0, 0, 2, 0, 0, 0, 0, 0]"] ;
610 -> 611 ;
612 [label="gini = 0.0\nsamples = 1\nvalue = [0, 0, 0, 1, 0, 0, 0, 0, 0, 0]"] ;
610 -> 612 ;
613 [label="gini = 0.0\nsamples = 10\nvalue = [0, 0, 10, 0, 0, 0, 0, 0, 0, 0]"] ;
597 -> 613 ;
614 [label="X[404] <= 78.5\ngini = 0.169\nsamples = 22\nvalue = [0, 0, 1, 0, 0, 1, 0, 0, 20, 0]"] ;
596 -> 614 ;
615 [label="X[271] <= 64.0\ngini = 0.5\nsamples = 2\nvalue = [0, 0, 1, 0, 0, 1, 0, 0, 0, 0]"] ;
614 -> 615 ;
616 [label="gini = 0.0\nsamples = 1\nvalue = [0, 0, 1, 0, 0, 0, 0, 0, 0, 0]"] ;
615 -> 616 ;
617 [label="gini = 0.0\nsamples = 1\nvalue = [0, 0, 0, 0, 0, 1, 0, 0, 0, 0]"] ;
615 -> 617 ;
618 [label="gini = 0.0\nsamples = 20\nvalue = [0, 0, 0, 0, 0, 0, 0, 0, 20, 0]"] ;
614 -> 618 ;
619 [label="X[515] <= 1.0\ngini = 0.781\nsamples = 189\nvalue = [1, 20, 69, 18, 3, 6, 6, 44, 17, 5]"] ;
435 -> 619 ;
620 [label="X[377] <= 3.5\ngini = 0.788\nsamples = 87\nvalue = [1, 20, 6, 18, 3, 6, 0, 28, 2, 3]"] ;
619 -> 620 ;
621 [label="X[432] <= 145.0\ngini = 0.64\nsamples = 49\nvalue = [0, 3, 4, 1, 3, 6, 0, 28, 1, 3]"] ;
620 -> 621 ;
622 [label="X[152] <= 48.0\ngini = 0.408\nsamples = 37\nvalue = [0, 3, 4, 0, 1, 0, 0, 28, 0, 1]"] ;
621 -> 622 ;
623 [label="X[322] <= 146.5\ngini = 0.184\nsamples = 30\nvalue = [0, 2, 0, 0, 0, 0, 0, 27, 0, 1]"] ;
622 -> 623 ;
624 [label="gini = 0.0\nsamples = 27\nvalue = [0, 0, 0, 0, 0, 0, 0, 27, 0, 0]"] ;
623 -> 624 ;
625 [label="X[259] <= 29.5\ngini = 0.444\nsamples = 3\nvalue = [0, 2, 0, 0, 0, 0, 0, 0, 0, 1]"] ;
623 -> 625 ;
626 [label="gini = 0.0\nsamples = 2\nvalue = [0, 2, 0, 0, 0, 0, 0, 0, 0, 0]"] ;
625 -> 626 ;
627 [label="gini = 0.0\nsamples = 1\nvalue = [0, 0, 0, 0, 0, 0, 0, 0, 0, 1]"] ;
625 -> 627 ;
628 [label="X[601] <= 254.0\ngini = 0.612\nsamples = 7\nvalue = [0, 1, 4, 0, 1, 0, 0, 1, 0, 0]"] ;
622 -> 628 ;
629 [label="X[495] <= 168.0\ngini = 0.32\nsamples = 5\nvalue = [0, 0, 4, 0, 1, 0, 0, 0, 0, 0]"] ;
628 -> 629 ;
630 [label="gini = 0.0\nsamples = 4\nvalue = [0, 0, 4, 0, 0, 0, 0, 0, 0, 0]"] ;
629 -> 630 ;
631 [label="gini = 0.0\nsamples = 1\nvalue = [0, 0, 0, 0, 1, 0, 0, 0, 0, 0]"] ;
629 -> 631 ;
632 [label="X[179] <= 254.0\ngini = 0.5\nsamples = 2\nvalue = [0, 1, 0, 0, 0, 0, 0, 1, 0, 0]"] ;
628 -> 632 ;
633 [label="gini = 0.0\nsamples = 1\nvalue = [0, 0, 0, 0, 0, 0, 0, 1, 0, 0]"] ;
632 -> 633 ;
634 [label="gini = 0.0\nsamples = 1\nvalue = [0, 1, 0, 0, 0, 0, 0, 0, 0, 0]"] ;
632 -> 634 ;
635 [label="X[248] <= 2.0\ngini = 0.681\nsamples = 12\nvalue = [0, 0, 0, 1, 2, 6, 0, 0, 1, 2]"] ;
621 -> 635 ;
636 [label="X[263] <= 87.0\ngini = 0.722\nsamples = 6\nvalue = [0, 0, 0, 1, 2, 0, 0, 0, 1, 2]"] ;
635 -> 636 ;
637 [label="X[156] <= 69.5\ngini = 0.625\nsamples = 4\nvalue = [0, 0, 0, 1, 2, 0, 0, 0, 1, 0]"] ;
636 -> 637 ;
638 [label="gini = 0.0\nsamples = 2\nvalue = [0, 0, 0, 0, 2, 0, 0, 0, 0, 0]"] ;
637 -> 638 ;
639 [label="X[681] <= 77.5\ngini = 0.5\nsamples = 2\nvalue = [0, 0, 0, 1, 0, 0, 0, 0, 1, 0]"] ;
637 -> 639 ;
640 [label="gini = 0.0\nsamples = 1\nvalue = [0, 0, 0, 0, 0, 0, 0, 0, 1, 0]"] ;
639 -> 640 ;
641 [label="gini = 0.0\nsamples = 1\nvalue = [0, 0, 0, 1, 0, 0, 0, 0, 0, 0]"] ;
639 -> 641 ;
642 [label="gini = 0.0\nsamples = 2\nvalue = [0, 0, 0, 0, 0, 0, 0, 0, 0, 2]"] ;
636 -> 642 ;
643 [label="gini = 0.0\nsamples = 6\nvalue = [0, 0, 0, 0, 0, 6, 0, 0, 0, 0]"] ;
635 -> 643 ;
644 [label="X[293] <= 65.5\ngini = 0.596\nsamples = 38\nvalue = [1, 17, 2, 17, 0, 0, 0, 0, 1, 0]"] ;
620 -> 644 ;
645 [label="X[582] <= 77.0\ngini = 0.265\nsamples = 20\nvalue = [0, 0, 2, 17, 0, 0, 0, 0, 1, 0]"] ;
644 -> 645 ;
646 [label="X[354] <= 184.5\ngini = 0.105\nsamples = 18\nvalue = [0, 0, 0, 17, 0, 0, 0, 0, 1, 0]"] ;
645 -> 646 ;
647 [label="gini = 0.0\nsamples = 17\nvalue = [0, 0, 0, 17, 0, 0, 0, 0, 0, 0]"] ;
646 -> 647 ;
648 [label="gini = 0.0\nsamples = 1\nvalue = [0, 0, 0, 0, 0, 0, 0, 0, 1, 0]"] ;
646 -> 648 ;
649 [label="gini = 0.0\nsamples = 2\nvalue = [0, 0, 2, 0, 0, 0, 0, 0, 0, 0]"] ;
645 -> 649 ;
650 [label="X[553] <= 126.5\ngini = 0.105\nsamples = 18\nvalue = [1, 17, 0, 0, 0, 0, 0, 0, 0, 0]"] ;
644 -> 650 ;
651 [label="gini = 0.0\nsamples = 17\nvalue = [0, 17, 0, 0, 0, 0, 0, 0, 0, 0]"] ;
650 -> 651 ;
652 [label="gini = 0.0\nsamples = 1\nvalue = [1, 0, 0, 0, 0, 0, 0, 0, 0, 0]"] ;
650 -> 652 ;
653 [label="X[320] <= 30.5\ngini = 0.568\nsamples = 102\nvalue = [0, 0, 63, 0, 0, 0, 6, 16, 15, 2]"] ;
619 -> 653 ;
654 [label="X[372] <= 22.0\ngini = 0.448\nsamples = 84\nvalue = [0, 0, 60, 0, 0, 0, 6, 16, 1, 1]"] ;
653 -> 654 ;
655 [label="X[463] <= 214.5\ngini = 0.332\nsamples = 76\nvalue = [0, 0, 60, 0, 0, 0, 0, 16, 0, 0]"] ;
654 -> 655 ;
656 [label="X[240] <= 254.5\ngini = 0.131\nsamples = 57\nvalue = [0, 0, 53, 0, 0, 0, 0, 4, 0, 0]"] ;
655 -> 656 ;
657 [label="X[709] <= 70.5\ngini = 0.037\nsamples = 53\nvalue = [0, 0, 52, 0, 0, 0, 0, 1, 0, 0]"] ;
656 -> 657 ;
658 [label="gini = 0.0\nsamples = 52\nvalue = [0, 0, 52, 0, 0, 0, 0, 0, 0, 0]"] ;
657 -> 658 ;
659 [label="gini = 0.0\nsamples = 1\nvalue = [0, 0, 0, 0, 0, 0, 0, 1, 0, 0]"] ;
657 -> 659 ;
660 [label="X[548] <= 95.5\ngini = 0.375\nsamples = 4\nvalue = [0, 0, 1, 0, 0, 0, 0, 3, 0, 0]"] ;
656 -> 660 ;
661 [label="gini = 0.0\nsamples = 3\nvalue = [0, 0, 0, 0, 0, 0, 0, 3, 0, 0]"] ;
660 -> 661 ;
662 [label="gini = 0.0\nsamples = 1\nvalue = [0, 0, 1, 0, 0, 0, 0, 0, 0, 0]"] ;
660 -> 662 ;
663 [label="X[498] <= 19.5\ngini = 0.465\nsamples = 19\nvalue = [0, 0, 7, 0, 0, 0, 0, 12, 0, 0]"] ;
655 -> 663 ;
664 [label="X[239] <= 42.5\ngini = 0.32\nsamples = 15\nvalue = [0, 0, 3, 0, 0, 0, 0, 12, 0, 0]"] ;
663 -> 664 ;
665 [label="X[271] <= 13.0\ngini = 0.375\nsamples = 4\nvalue = [0, 0, 3, 0, 0, 0, 0, 1, 0, 0]"] ;
664 -> 665 ;
666 [label="gini = 0.0\nsamples = 3\nvalue = [0, 0, 3, 0, 0, 0, 0, 0, 0, 0]"] ;
665 -> 666 ;
667 [label="gini = 0.0\nsamples = 1\nvalue = [0, 0, 0, 0, 0, 0, 0, 1, 0, 0]"] ;
665 -> 667 ;
668 [label="gini = 0.0\nsamples = 11\nvalue = [0, 0, 0, 0, 0, 0, 0, 11, 0, 0]"] ;
664 -> 668 ;
669 [label="gini = 0.0\nsamples = 4\nvalue = [0, 0, 4, 0, 0, 0, 0, 0, 0, 0]"] ;
663 -> 669 ;
670 [label="X[572] <= 46.5\ngini = 0.406\nsamples = 8\nvalue = [0, 0, 0, 0, 0, 0, 6, 0, 1, 1]"] ;
654 -> 670 ;
671 [label="X[458] <= 28.0\ngini = 0.5\nsamples = 2\nvalue = [0, 0, 0, 0, 0, 0, 0, 0, 1, 1]"] ;
670 -> 671 ;
672 [label="gini = 0.0\nsamples = 1\nvalue = [0, 0, 0, 0, 0, 0, 0, 0, 1, 0]"] ;
671 -> 672 ;
673 [label="gini = 0.0\nsamples = 1\nvalue = [0, 0, 0, 0, 0, 0, 0, 0, 0, 1]"] ;
671 -> 673 ;
674 [label="gini = 0.0\nsamples = 6\nvalue = [0, 0, 0, 0, 0, 0, 6, 0, 0, 0]"] ;
670 -> 674 ;
675 [label="X[470] <= 104.5\ngini = 0.364\nsamples = 18\nvalue = [0, 0, 3, 0, 0, 0, 0, 0, 14, 1]"] ;
653 -> 675 ;
676 [label="gini = 0.0\nsamples = 14\nvalue = [0, 0, 0, 0, 0, 0, 0, 0, 14, 0]"] ;
675 -> 676 ;
677 [label="X[749] <= 127.0\ngini = 0.375\nsamples = 4\nvalue = [0, 0, 3, 0, 0, 0, 0, 0, 0, 1]"] ;
675 -> 677 ;
678 [label="gini = 0.0\nsamples = 3\nvalue = [0, 0, 3, 0, 0, 0, 0, 0, 0, 0]"] ;
677 -> 678 ;
679 [label="gini = 0.0\nsamples = 1\nvalue = [0, 0, 0, 0, 0, 0, 0, 0, 0, 1]"] ;
677 -> 679 ;
680 [label="X[372] <= 2.0\ngini = 0.714\nsamples = 518\nvalue = [4, 32, 255, 60, 20, 31, 70, 12, 25, 9]"] ;
434 -> 680 ;
681 [label="X[487] <= 6.0\ngini = 0.57\nsamples = 400\nvalue = [0, 32, 252, 59, 3, 5, 16, 12, 18, 3]"] ;
680 -> 681 ;
682 [label="X[518] <= 2.0\ngini = 0.71\nsamples = 114\nvalue = [0, 28, 25, 48, 0, 5, 5, 2, 0, 1]"] ;
681 -> 682 ;
683 [label="X[456] <= 124.0\ngini = 0.324\nsamples = 54\nvalue = [0, 0, 5, 44, 0, 3, 1, 0, 0, 1]"] ;
682 -> 683 ;
684 [label="X[191] <= 70.0\ngini = 0.044\nsamples = 44\nvalue = [0, 0, 0, 43, 0, 1, 0, 0, 0, 0]"] ;
683 -> 684 ;
685 [label="gini = 0.0\nsamples = 43\nvalue = [0, 0, 0, 43, 0, 0, 0, 0, 0, 0]"] ;
684 -> 685 ;
686 [label="gini = 0.0\nsamples = 1\nvalue = [0, 0, 0, 0, 0, 1, 0, 0, 0, 0]"] ;
684 -> 686 ;
687 [label="X[153] <= 146.0\ngini = 0.68\nsamples = 10\nvalue = [0, 0, 5, 1, 0, 2, 1, 0, 0, 1]"] ;
683 -> 687 ;
688 [label="X[267] <= 248.0\ngini = 0.72\nsamples = 5\nvalue = [0, 0, 0, 1, 0, 2, 1, 0, 0, 1]"] ;
687 -> 688 ;
689 [label="X[439] <= 57.0\ngini = 0.667\nsamples = 3\nvalue = [0, 0, 0, 1, 0, 0, 1, 0, 0, 1]"] ;
688 -> 689 ;
690 [label="gini = 0.0\nsamples = 1\nvalue = [0, 0, 0, 1, 0, 0, 0, 0, 0, 0]"] ;
689 -> 690 ;
691 [label="X[214] <= 0.5\ngini = 0.5\nsamples = 2\nvalue = [0, 0, 0, 0, 0, 0, 1, 0, 0, 1]"] ;
689 -> 691 ;
692 [label="gini = 0.0\nsamples = 1\nvalue = [0, 0, 0, 0, 0, 0, 1, 0, 0, 0]"] ;
691 -> 692 ;
693 [label="gini = 0.0\nsamples = 1\nvalue = [0, 0, 0, 0, 0, 0, 0, 0, 0, 1]"] ;
691 -> 693 ;
694 [label="gini = 0.0\nsamples = 2\nvalue = [0, 0, 0, 0, 0, 2, 0, 0, 0, 0]"] ;
688 -> 694 ;
695 [label="gini = 0.0\nsamples = 5\nvalue = [0, 0, 5, 0, 0, 0, 0, 0, 0, 0]"] ;
687 -> 695 ;
696 [label="X[292] <= 16.5\ngini = 0.66\nsamples = 60\nvalue = [0, 28, 20, 4, 0, 2, 4, 2, 0, 0]"] ;
682 -> 696 ;
697 [label="X[442] <= 41.0\ngini = 0.516\nsamples = 30\nvalue = [0, 2, 20, 4, 0, 0, 4, 0, 0, 0]"] ;
696 -> 697 ;
698 [label="X[378] <= 233.5\ngini = 0.379\nsamples = 26\nvalue = [0, 2, 20, 4, 0, 0, 0, 0, 0, 0]"] ;
697 -> 698 ;
699 [label="gini = 0.0\nsamples = 17\nvalue = [0, 0, 17, 0, 0, 0, 0, 0, 0, 0]"] ;
698 -> 699 ;
700 [label="X[404] <= 4.0\ngini = 0.642\nsamples = 9\nvalue = [0, 2, 3, 4, 0, 0, 0, 0, 0, 0]"] ;
698 -> 700 ;
701 [label="X[629] <= 5.5\ngini = 0.48\nsamples = 5\nvalue = [0, 2, 3, 0, 0, 0, 0, 0, 0, 0]"] ;
700 -> 701 ;
702 [label="gini = 0.0\nsamples = 2\nvalue = [0, 2, 0, 0, 0, 0, 0, 0, 0, 0]"] ;
701 -> 702 ;
703 [label="gini = 0.0\nsamples = 3\nvalue = [0, 0, 3, 0, 0, 0, 0, 0, 0, 0]"] ;
701 -> 703 ;
704 [label="gini = 0.0\nsamples = 4\nvalue = [0, 0, 0, 4, 0, 0, 0, 0, 0, 0]"] ;
700 -> 704 ;
705 [label="gini = 0.0\nsamples = 4\nvalue = [0, 0, 0, 0, 0, 0, 4, 0, 0, 0]"] ;
697 -> 705 ;
706 [label="X[215] <= 49.5\ngini = 0.24\nsamples = 30\nvalue = [0, 26, 0, 0, 0, 2, 0, 2, 0, 0]"] ;
696 -> 706 ;
707 [label="X[312] <= 86.5\ngini = 0.071\nsamples = 27\nvalue = [0, 26, 0, 0, 0, 0, 0, 1, 0, 0]"] ;
706 -> 707 ;
708 [label="gini = 0.0\nsamples = 26\nvalue = [0, 26, 0, 0, 0, 0, 0, 0, 0, 0]"] ;
707 -> 708 ;
709 [label="gini = 0.0\nsamples = 1\nvalue = [0, 0, 0, 0, 0, 0, 0, 1, 0, 0]"] ;
707 -> 709 ;
710 [label="X[522] <= 88.0\ngini = 0.444\nsamples = 3\nvalue = [0, 0, 0, 0, 0, 2, 0, 1, 0, 0]"] ;
706 -> 710 ;
711 [label="gini = 0.0\nsamples = 2\nvalue = [0, 0, 0, 0, 0, 2, 0, 0, 0, 0]"] ;
710 -> 711 ;
712 [label="gini = 0.0\nsamples = 1\nvalue = [0, 0, 0, 0, 0, 0, 0, 1, 0, 0]"] ;
710 -> 712 ;
713 [label="X[320] <= 56.0\ngini = 0.362\nsamples = 286\nvalue = [0, 4, 227, 11, 3, 0, 11, 10, 18, 2]"] ;
681 -> 713 ;
714 [label="X[687] <= 45.5\ngini = 0.25\nsamples = 257\nvalue = [0, 3, 222, 10, 3, 0, 8, 7, 2, 2]"] ;
713 -> 714 ;
715 [label="X[369] <= 24.5\ngini = 0.178\nsamples = 244\nvalue = [0, 3, 221, 6, 2, 0, 8, 1, 2, 1]"] ;
714 -> 715 ;
716 [label="X[682] <= 188.0\ngini = 0.129\nsamples = 237\nvalue = [0, 3, 221, 6, 1, 0, 3, 1, 2, 0]"] ;
715 -> 716 ;
717 [label="X[691] <= 47.0\ngini = 0.1\nsamples = 233\nvalue = [0, 2, 221, 3, 1, 0, 3, 1, 2, 0]"] ;
716 -> 717 ;
718 [label="X[373] <= 138.0\ngini = 0.076\nsamples = 230\nvalue = [0, 2, 221, 1, 0, 0, 3, 1, 2, 0]"] ;
717 -> 718 ;
719 [label="X[349] <= 241.0\ngini = 0.06\nsamples = 228\nvalue = [0, 2, 221, 1, 0, 0, 1, 1, 2, 0]"] ;
718 -> 719 ;
720 [label="X[650] <= 217.0\ngini = 0.044\nsamples = 225\nvalue = [0, 0, 220, 1, 0, 0, 1, 1, 2, 0]"] ;
719 -> 720 ;
721 [label="X[654] <= 254.5\ngini = 0.035\nsamples = 224\nvalue = [0, 0, 220, 1, 0, 0, 1, 0, 2, 0]"] ;
720 -> 721 ;
722 [label="X[321] <= 237.0\ngini = 0.027\nsamples = 223\nvalue = [0, 0, 220, 0, 0, 0, 1, 0, 2, 0]"] ;
721 -> 722 ;
723 [label="X[376] <= 229.5\ngini = 0.018\nsamples = 222\nvalue = [0, 0, 220, 0, 0, 0, 1, 0, 1, 0]"] ;
722 -> 723 ;
724 [label="X[545] <= 254.5\ngini = 0.009\nsamples = 221\nvalue = [0, 0, 220, 0, 0, 0, 1, 0, 0, 0]"] ;
723 -> 724 ;
725 [label="gini = 0.0\nsamples = 213\nvalue = [0, 0, 213, 0, 0, 0, 0, 0, 0, 0]"] ;
724 -> 725 ;
726 [label="X[131] <= 169.5\ngini = 0.219\nsamples = 8\nvalue = [0, 0, 7, 0, 0, 0, 1, 0, 0, 0]"] ;
724 -> 726 ;
727 [label="gini = 0.0\nsamples = 7\nvalue = [0, 0, 7, 0, 0, 0, 0, 0, 0, 0]"] ;
726 -> 727 ;
728 [label="gini = 0.0\nsamples = 1\nvalue = [0, 0, 0, 0, 0, 0, 1, 0, 0, 0]"] ;
726 -> 728 ;
729 [label="gini = 0.0\nsamples = 1\nvalue = [0, 0, 0, 0, 0, 0, 0, 0, 1, 0]"] ;
723 -> 729 ;
730 [label="gini = 0.0\nsamples = 1\nvalue = [0, 0, 0, 0, 0, 0, 0, 0, 1, 0]"] ;
722 -> 730 ;
731 [label="gini = 0.0\nsamples = 1\nvalue = [0, 0, 0, 1, 0, 0, 0, 0, 0, 0]"] ;
721 -> 731 ;
732 [label="gini = 0.0\nsamples = 1\nvalue = [0, 0, 0, 0, 0, 0, 0, 1, 0, 0]"] ;
720 -> 732 ;
733 [label="X[606] <= 22.0\ngini = 0.444\nsamples = 3\nvalue = [0, 2, 1, 0, 0, 0, 0, 0, 0, 0]"] ;
719 -> 733 ;
734 [label="gini = 0.0\nsamples = 1\nvalue = [0, 0, 1, 0, 0, 0, 0, 0, 0, 0]"] ;
733 -> 734 ;
735 [label="gini = 0.0\nsamples = 2\nvalue = [0, 2, 0, 0, 0, 0, 0, 0, 0, 0]"] ;
733 -> 735 ;
736 [label="gini = 0.0\nsamples = 2\nvalue = [0, 0, 0, 0, 0, 0, 2, 0, 0, 0]"] ;
718 -> 736 ;
737 [label="X[207] <= 20.0\ngini = 0.444\nsamples = 3\nvalue = [0, 0, 0, 2, 1, 0, 0, 0, 0, 0]"] ;
717 -> 737 ;
738 [label="gini = 0.0\nsamples = 1\nvalue = [0, 0, 0, 0, 1, 0, 0, 0, 0, 0]"] ;
737 -> 738 ;
739 [label="gini = 0.0\nsamples = 2\nvalue = [0, 0, 0, 2, 0, 0, 0, 0, 0, 0]"] ;
737 -> 739 ;
740 [label="X[177] <= 42.5\ngini = 0.375\nsamples = 4\nvalue = [0, 1, 0, 3, 0, 0, 0, 0, 0, 0]"] ;
716 -> 740 ;
741 [label="gini = 0.0\nsamples = 1\nvalue = [0, 1, 0, 0, 0, 0, 0, 0, 0, 0]"] ;
740 -> 741 ;
742 [label="gini = 0.0\nsamples = 3\nvalue = [0, 0, 0, 3, 0, 0, 0, 0, 0, 0]"] ;
740 -> 742 ;
743 [label="X[470] <= 101.5\ngini = 0.449\nsamples = 7\nvalue = [0, 0, 0, 0, 1, 0, 5, 0, 0, 1]"] ;
715 -> 743 ;
744 [label="X[408] <= 32.0\ngini = 0.5\nsamples = 2\nvalue = [0, 0, 0, 0, 1, 0, 0, 0, 0, 1]"] ;
743 -> 744 ;
745 [label="gini = 0.0\nsamples = 1\nvalue = [0, 0, 0, 0, 1, 0, 0, 0, 0, 0]"] ;
744 -> 745 ;
746 [label="gini = 0.0\nsamples = 1\nvalue = [0, 0, 0, 0, 0, 0, 0, 0, 0, 1]"] ;
744 -> 746 ;
747 [label="gini = 0.0\nsamples = 5\nvalue = [0, 0, 0, 0, 0, 0, 5, 0, 0, 0]"] ;
743 -> 747 ;
748 [label="X[633] <= 35.5\ngini = 0.675\nsamples = 13\nvalue = [0, 0, 1, 4, 1, 0, 0, 6, 0, 1]"] ;
714 -> 748 ;
749 [label="gini = 0.0\nsamples = 6\nvalue = [0, 0, 0, 0, 0, 0, 0, 6, 0, 0]"] ;
748 -> 749 ;
750 [label="X[245] <= 94.0\ngini = 0.612\nsamples = 7\nvalue = [0, 0, 1, 4, 1, 0, 0, 0, 0, 1]"] ;
748 -> 750 ;
751 [label="gini = 0.0\nsamples = 4\nvalue = [0, 0, 0, 4, 0, 0, 0, 0, 0, 0]"] ;
750 -> 751 ;
752 [label="X[351] <= 2.5\ngini = 0.667\nsamples = 3\nvalue = [0, 0, 1, 0, 1, 0, 0, 0, 0, 1]"] ;
750 -> 752 ;
753 [label="X[295] <= 11.0\ngini = 0.5\nsamples = 2\nvalue = [0, 0, 1, 0, 1, 0, 0, 0, 0, 0]"] ;
752 -> 753 ;
754 [label="gini = 0.0\nsamples = 1\nvalue = [0, 0, 0, 0, 1, 0, 0, 0, 0, 0]"] ;
753 -> 754 ;
755 [label="gini = 0.0\nsamples = 1\nvalue = [0, 0, 1, 0, 0, 0, 0, 0, 0, 0]"] ;
753 -> 755 ;
756 [label="gini = 0.0\nsamples = 1\nvalue = [0, 0, 0, 0, 0, 0, 0, 0, 0, 1]"] ;
752 -> 756 ;
757 [label="X[517] <= 135.0\ngini = 0.642\nsamples = 29\nvalue = [0, 1, 5, 1, 0, 0, 3, 3, 16, 0]"] ;
713 -> 757 ;
758 [label="X[467] <= 127.0\ngini = 0.204\nsamples = 18\nvalue = [0, 0, 1, 1, 0, 0, 0, 0, 16, 0]"] ;
757 -> 758 ;
759 [label="gini = 0.0\nsamples = 16\nvalue = [0, 0, 0, 0, 0, 0, 0, 0, 16, 0]"] ;
758 -> 759 ;
760 [label="X[288] <= 192.0\ngini = 0.5\nsamples = 2\nvalue = [0, 0, 1, 1, 0, 0, 0, 0, 0, 0]"] ;
758 -> 760 ;
761 [label="gini = 0.0\nsamples = 1\nvalue = [0, 0, 1, 0, 0, 0, 0, 0, 0, 0]"] ;
760 -> 761 ;
762 [label="gini = 0.0\nsamples = 1\nvalue = [0, 0, 0, 1, 0, 0, 0, 0, 0, 0]"] ;
760 -> 762 ;
763 [label="X[292] <= 252.5\ngini = 0.711\nsamples = 11\nvalue = [0, 1, 4, 0, 0, 0, 3, 3, 0, 0]"] ;
757 -> 763 ;
764 [label="X[155] <= 86.0\ngini = 0.612\nsamples = 7\nvalue = [0, 1, 0, 0, 0, 0, 3, 3, 0, 0]"] ;
763 -> 764 ;
765 [label="gini = 0.0\nsamples = 3\nvalue = [0, 0, 0, 0, 0, 0, 0, 3, 0, 0]"] ;
764 -> 765 ;
766 [label="X[210] <= 253.5\ngini = 0.375\nsamples = 4\nvalue = [0, 1, 0, 0, 0, 0, 3, 0, 0, 0]"] ;
764 -> 766 ;
767 [label="gini = 0.0\nsamples = 1\nvalue = [0, 1, 0, 0, 0, 0, 0, 0, 0, 0]"] ;
766 -> 767 ;
768 [label="gini = 0.0\nsamples = 3\nvalue = [0, 0, 0, 0, 0, 0, 3, 0, 0, 0]"] ;
766 -> 768 ;
769 [label="gini = 0.0\nsamples = 4\nvalue = [0, 0, 4, 0, 0, 0, 0, 0, 0, 0]"] ;
763 -> 769 ;
770 [label="X[571] <= 11.0\ngini = 0.713\nsamples = 118\nvalue = [4, 0, 3, 1, 17, 26, 54, 0, 7, 6]"] ;
680 -> 770 ;
771 [label="X[411] <= 20.5\ngini = 0.668\nsamples = 52\nvalue = [1, 0, 1, 1, 17, 24, 2, 0, 1, 5]"] ;
770 -> 771 ;
772 [label="X[350] <= 22.5\ngini = 0.351\nsamples = 30\nvalue = [1, 0, 1, 1, 0, 24, 2, 0, 1, 0]"] ;
771 -> 772 ;
773 [label="gini = 0.0\nsamples = 23\nvalue = [0, 0, 0, 0, 0, 23, 0, 0, 0, 0]"] ;
772 -> 773 ;
774 [label="X[516] <= 209.0\ngini = 0.816\nsamples = 7\nvalue = [1, 0, 1, 1, 0, 1, 2, 0, 1, 0]"] ;
772 -> 774 ;
775 [label="X[205] <= 19.0\ngini = 0.8\nsamples = 5\nvalue = [1, 0, 1, 1, 0, 1, 0, 0, 1, 0]"] ;
774 -> 775 ;
776 [label="X[437] <= 23.0\ngini = 0.667\nsamples = 3\nvalue = [1, 0, 1, 1, 0, 0, 0, 0, 0, 0]"] ;
775 -> 776 ;
777 [label="X[657] <= 43.0\ngini = 0.5\nsamples = 2\nvalue = [1, 0, 1, 0, 0, 0, 0, 0, 0, 0]"] ;
776 -> 777 ;
778 [label="gini = 0.0\nsamples = 1\nvalue = [0, 0, 1, 0, 0, 0, 0, 0, 0, 0]"] ;
777 -> 778 ;
779 [label="gini = 0.0\nsamples = 1\nvalue = [1, 0, 0, 0, 0, 0, 0, 0, 0, 0]"] ;
777 -> 779 ;
780 [label="gini = 0.0\nsamples = 1\nvalue = [0, 0, 0, 1, 0, 0, 0, 0, 0, 0]"] ;
776 -> 780 ;
781 [label="X[203] <= 112.5\ngini = 0.5\nsamples = 2\nvalue = [0, 0, 0, 0, 0, 1, 0, 0, 1, 0]"] ;
775 -> 781 ;
782 [label="gini = 0.0\nsamples = 1\nvalue = [0, 0, 0, 0, 0, 1, 0, 0, 0, 0]"] ;
781 -> 782 ;
783 [label="gini = 0.0\nsamples = 1\nvalue = [0, 0, 0, 0, 0, 0, 0, 0, 1, 0]"] ;
781 -> 783 ;
784 [label="gini = 0.0\nsamples = 2\nvalue = [0, 0, 0, 0, 0, 0, 2, 0, 0, 0]"] ;
774 -> 784 ;
785 [label="X[324] <= 1.5\ngini = 0.351\nsamples = 22\nvalue = [0, 0, 0, 0, 17, 0, 0, 0, 0, 5]"] ;
771 -> 785 ;
786 [label="X[292] <= 161.0\ngini = 0.105\nsamples = 18\nvalue = [0, 0, 0, 0, 17, 0, 0, 0, 0, 1]"] ;
785 -> 786 ;
787 [label="gini = 0.0\nsamples = 17\nvalue = [0, 0, 0, 0, 17, 0, 0, 0, 0, 0]"] ;
786 -> 787 ;
788 [label="gini = 0.0\nsamples = 1\nvalue = [0, 0, 0, 0, 0, 0, 0, 0, 0, 1]"] ;
786 -> 788 ;
789 [label="gini = 0.0\nsamples = 4\nvalue = [0, 0, 0, 0, 0, 0, 0, 0, 0, 4]"] ;
785 -> 789 ;
790 [label="X[212] <= 0.5\ngini = 0.367\nsamples = 66\nvalue = [3, 0, 2, 0, 0, 2, 52, 0, 6, 1]"] ;
770 -> 790 ;
791 [label="X[294] <= 243.0\ngini = 0.105\nsamples = 55\nvalue = [1, 0, 1, 0, 0, 1, 52, 0, 0, 0]"] ;
790 -> 791 ;
792 [label="X[451] <= 108.0\ngini = 0.037\nsamples = 53\nvalue = [0, 0, 1, 0, 0, 0, 52, 0, 0, 0]"] ;
791 -> 792 ;
793 [label="gini = 0.0\nsamples = 52\nvalue = [0, 0, 0, 0, 0, 0, 52, 0, 0, 0]"] ;
792 -> 793 ;
794 [label="gini = 0.0\nsamples = 1\nvalue = [0, 0, 1, 0, 0, 0, 0, 0, 0, 0]"] ;
792 -> 794 ;
795 [label="X[350] <= 126.5\ngini = 0.5\nsamples = 2\nvalue = [1, 0, 0, 0, 0, 1, 0, 0, 0, 0]"] ;
791 -> 795 ;
796 [label="gini = 0.0\nsamples = 1\nvalue = [0, 0, 0, 0, 0, 1, 0, 0, 0, 0]"] ;
795 -> 796 ;
797 [label="gini = 0.0\nsamples = 1\nvalue = [1, 0, 0, 0, 0, 0, 0, 0, 0, 0]"] ;
795 -> 797 ;
798 [label="X[468] <= 36.0\ngini = 0.645\nsamples = 11\nvalue = [2, 0, 1, 0, 0, 1, 0, 0, 6, 1]"] ;
790 -> 798 ;
799 [label="gini = 0.0\nsamples = 6\nvalue = [0, 0, 0, 0, 0, 0, 0, 0, 6, 0]"] ;
798 -> 799 ;
800 [label="X[434] <= 185.0\ngini = 0.72\nsamples = 5\nvalue = [2, 0, 1, 0, 0, 1, 0, 0, 0, 1]"] ;
798 -> 800 ;
801 [label="gini = 0.0\nsamples = 2\nvalue = [2, 0, 0, 0, 0, 0, 0, 0, 0, 0]"] ;
800 -> 801 ;
802 [label="X[413] <= 30.5\ngini = 0.667\nsamples = 3\nvalue = [0, 0, 1, 0, 0, 1, 0, 0, 0, 1]"] ;
800 -> 802 ;
803 [label="gini = 0.0\nsamples = 1\nvalue = [0, 0, 0, 0, 0, 1, 0, 0, 0, 0]"] ;
802 -> 803 ;
804 [label="X[432] <= 188.5\ngini = 0.5\nsamples = 2\nvalue = [0, 0, 1, 0, 0, 0, 0, 0, 0, 1]"] ;
802 -> 804 ;
805 [label="gini = 0.0\nsamples = 1\nvalue = [0, 0, 1, 0, 0, 0, 0, 0, 0, 0]"] ;
804 -> 805 ;
806 [label="gini = 0.0\nsamples = 1\nvalue = [0, 0, 0, 0, 0, 0, 0, 0, 0, 1]"] ;
804 -> 806 ;
807 [label="X[351] <= 23.5\ngini = 0.802\nsamples = 1556\nvalue = [18, 129, 87, 194, 47, 486, 159, 5, 388, 43]"] ;
433 -> 807 ;
808 [label="X[515] <= 93.5\ngini = 0.546\nsamples = 648\nvalue = [10, 12, 21, 44, 9, 423, 88, 0, 37, 4]"] ;
807 -> 808 ;
809 [label="X[176] <= 13.0\ngini = 0.388\nsamples = 521\nvalue = [8, 11, 15, 44, 9, 404, 12, 0, 14, 4]"] ;
808 -> 809 ;
810 [label="X[440] <= 7.5\ngini = 0.298\nsamples = 474\nvalue = [8, 11, 7, 16, 8, 396, 12, 0, 12, 4]"] ;
809 -> 810 ;
811 [label="X[513] <= 226.5\ngini = 0.226\nsamples = 450\nvalue = [1, 11, 0, 16, 2, 395, 10, 0, 12, 3]"] ;
810 -> 811 ;
812 [label="X[352] <= 92.5\ngini = 0.185\nsamples = 436\nvalue = [0, 11, 0, 16, 2, 393, 3, 0, 8, 3]"] ;
811 -> 812 ;
813 [label="X[124] <= 123.5\ngini = 0.159\nsamples = 429\nvalue = [0, 11, 0, 16, 0, 393, 3, 0, 3, 3]"] ;
812 -> 813 ;
814 [label="X[151] <= 253.5\ngini = 0.128\nsamples = 420\nvalue = [0, 8, 0, 11, 0, 392, 3, 0, 3, 3]"] ;
813 -> 814 ;
815 [label="X[382] <= 63.5\ngini = 0.115\nsamples = 417\nvalue = [0, 8, 0, 8, 0, 392, 3, 0, 3, 3]"] ;
814 -> 815 ;
816 [label="X[126] <= 236.5\ngini = 0.103\nsamples = 414\nvalue = [0, 7, 0, 8, 0, 392, 3, 0, 3, 1]"] ;
815 -> 816 ;
817 [label="X[690] <= 194.0\ngini = 0.09\nsamples = 410\nvalue = [0, 4, 0, 8, 0, 391, 3, 0, 3, 1]"] ;
816 -> 817 ;
818 [label="X[526] <= 17.5\ngini = 0.077\nsamples = 406\nvalue = [0, 3, 0, 8, 0, 390, 3, 0, 1, 1]"] ;
817 -> 818 ;
819 [label="X[322] <= 244.0\ngini = 0.068\nsamples = 404\nvalue = [0, 3, 0, 7, 0, 390, 2, 0, 1, 1]"] ;
818 -> 819 ;
820 [label="X[379] <= 208.5\ngini = 0.036\nsamples = 380\nvalue = [0, 1, 0, 3, 0, 373, 1, 0, 1, 1]"] ;
819 -> 820 ;
821 [label="X[488] <= 254.5\ngini = 0.031\nsamples = 379\nvalue = [0, 1, 0, 3, 0, 373, 1, 0, 1, 0]"] ;
820 -> 821 ;
822 [label="X[690] <= 157.5\ngini = 0.026\nsamples = 378\nvalue = [0, 1, 0, 3, 0, 373, 0, 0, 1, 0]"] ;
821 -> 822 ;
823 [label="X[323] <= 211.5\ngini = 0.021\nsamples = 375\nvalue = [0, 0, 0, 3, 0, 371, 0, 0, 1, 0]"] ;
822 -> 823 ;
824 [label="X[516] <= 206.0\ngini = 0.016\nsamples = 372\nvalue = [0, 0, 0, 2, 0, 369, 0, 0, 1, 0]"] ;
823 -> 824 ;
825 [label="X[463] <= 254.5\ngini = 0.011\nsamples = 368\nvalue = [0, 0, 0, 2, 0, 366, 0, 0, 0, 0]"] ;
824 -> 825 ;
826 [label="gini = 0.0\nsamples = 351\nvalue = [0, 0, 0, 0, 0, 351, 0, 0, 0, 0]"] ;
825 -> 826 ;
827 [label="X[242] <= 16.0\ngini = 0.208\nsamples = 17\nvalue = [0, 0, 0, 2, 0, 15, 0, 0, 0, 0]"] ;
825 -> 827 ;
828 [label="gini = 0.0\nsamples = 2\nvalue = [0, 0, 0, 2, 0, 0, 0, 0, 0, 0]"] ;
827 -> 828 ;
829 [label="gini = 0.0\nsamples = 15\nvalue = [0, 0, 0, 0, 0, 15, 0, 0, 0, 0]"] ;
827 -> 829 ;
830 [label="X[604] <= 253.5\ngini = 0.375\nsamples = 4\nvalue = [0, 0, 0, 0, 0, 3, 0, 0, 1, 0]"] ;
824 -> 830 ;
831 [label="gini = 0.0\nsamples = 3\nvalue = [0, 0, 0, 0, 0, 3, 0, 0, 0, 0]"] ;
830 -> 831 ;
832 [label="gini = 0.0\nsamples = 1\nvalue = [0, 0, 0, 0, 0, 0, 0, 0, 1, 0]"] ;
830 -> 832 ;
833 [label="X[631] <= 49.5\ngini = 0.444\nsamples = 3\nvalue = [0, 0, 0, 1, 0, 2, 0, 0, 0, 0]"] ;
823 -> 833 ;
834 [label="gini = 0.0\nsamples = 2\nvalue = [0, 0, 0, 0, 0, 2, 0, 0, 0, 0]"] ;
833 -> 834 ;
835 [label="gini = 0.0\nsamples = 1\nvalue = [0, 0, 0, 1, 0, 0, 0, 0, 0, 0]"] ;
833 -> 835 ;
836 [label="X[233] <= 121.5\ngini = 0.444\nsamples = 3\nvalue = [0, 1, 0, 0, 0, 2, 0, 0, 0, 0]"] ;
822 -> 836 ;
837 [label="gini = 0.0\nsamples = 1\nvalue = [0, 1, 0, 0, 0, 0, 0, 0, 0, 0]"] ;
836 -> 837 ;
838 [label="gini = 0.0\nsamples = 2\nvalue = [0, 0, 0, 0, 0, 2, 0, 0, 0, 0]"] ;
836 -> 838 ;
839 [label="gini = 0.0\nsamples = 1\nvalue = [0, 0, 0, 0, 0, 0, 1, 0, 0, 0]"] ;
821 -> 839 ;
840 [label="gini = 0.0\nsamples = 1\nvalue = [0, 0, 0, 0, 0, 0, 0, 0, 0, 1]"] ;
820 -> 840 ;
841 [label="X[153] <= 4.0\ngini = 0.462\nsamples = 24\nvalue = [0, 2, 0, 4, 0, 17, 1, 0, 0, 0]"] ;
819 -> 841 ;
842 [label="X[520] <= 253.5\ngini = 0.105\nsamples = 18\nvalue = [0, 0, 0, 0, 0, 17, 1, 0, 0, 0]"] ;
841 -> 842 ;
843 [label="gini = 0.0\nsamples = 17\nvalue = [0, 0, 0, 0, 0, 17, 0, 0, 0, 0]"] ;
842 -> 843 ;
844 [label="gini = 0.0\nsamples = 1\nvalue = [0, 0, 0, 0, 0, 0, 1, 0, 0, 0]"] ;
842 -> 844 ;
845 [label="X[603] <= 235.5\ngini = 0.444\nsamples = 6\nvalue = [0, 2, 0, 4, 0, 0, 0, 0, 0, 0]"] ;
841 -> 845 ;
846 [label="gini = 0.0\nsamples = 4\nvalue = [0, 0, 0, 4, 0, 0, 0, 0, 0, 0]"] ;
845 -> 846 ;
847 [label="gini = 0.0\nsamples = 2\nvalue = [0, 2, 0, 0, 0, 0, 0, 0, 0, 0]"] ;
845 -> 847 ;
848 [label="X[156] <= 120.0\ngini = 0.5\nsamples = 2\nvalue = [0, 0, 0, 1, 0, 0, 1, 0, 0, 0]"] ;
818 -> 848 ;
849 [label="gini = 0.0\nsamples = 1\nvalue = [0, 0, 0, 1, 0, 0, 0, 0, 0, 0]"] ;
848 -> 849 ;
850 [label="gini = 0.0\nsamples = 1\nvalue = [0, 0, 0, 0, 0, 0, 1, 0, 0, 0]"] ;
848 -> 850 ;
851 [label="X[628] <= 120.5\ngini = 0.625\nsamples = 4\nvalue = [0, 1, 0, 0, 0, 1, 0, 0, 2, 0]"] ;
817 -> 851 ;
852 [label="X[399] <= 111.0\ngini = 0.5\nsamples = 2\nvalue = [0, 1, 0, 0, 0, 1, 0, 0, 0, 0]"] ;
851 -> 852 ;
853 [label="gini = 0.0\nsamples = 1\nvalue = [0, 1, 0, 0, 0, 0, 0, 0, 0, 0]"] ;
852 -> 853 ;
854 [label="gini = 0.0\nsamples = 1\nvalue = [0, 0, 0, 0, 0, 1, 0, 0, 0, 0]"] ;
852 -> 854 ;
855 [label="gini = 0.0\nsamples = 2\nvalue = [0, 0, 0, 0, 0, 0, 0, 0, 2, 0]"] ;
851 -> 855 ;
856 [label="X[130] <= 71.5\ngini = 0.375\nsamples = 4\nvalue = [0, 3, 0, 0, 0, 1, 0, 0, 0, 0]"] ;
816 -> 856 ;
857 [label="gini = 0.0\nsamples = 3\nvalue = [0, 3, 0, 0, 0, 0, 0, 0, 0, 0]"] ;
856 -> 857 ;
858 [label="gini = 0.0\nsamples = 1\nvalue = [0, 0, 0, 0, 0, 1, 0, 0, 0, 0]"] ;
856 -> 858 ;
859 [label="X[293] <= 129.0\ngini = 0.444\nsamples = 3\nvalue = [0, 1, 0, 0, 0, 0, 0, 0, 0, 2]"] ;
815 -> 859 ;
860 [label="gini = 0.0\nsamples = 2\nvalue = [0, 0, 0, 0, 0, 0, 0, 0, 0, 2]"] ;
859 -> 860 ;
861 [label="gini = 0.0\nsamples = 1\nvalue = [0, 1, 0, 0, 0, 0, 0, 0, 0, 0]"] ;
859 -> 861 ;
862 [label="gini = 0.0\nsamples = 3\nvalue = [0, 0, 0, 3, 0, 0, 0, 0, 0, 0]"] ;
814 -> 862 ;
863 [label="X[630] <= 176.0\ngini = 0.568\nsamples = 9\nvalue = [0, 3, 0, 5, 0, 1, 0, 0, 0, 0]"] ;
813 -> 863 ;
864 [label="X[552] <= 126.5\ngini = 0.375\nsamples = 4\nvalue = [0, 3, 0, 0, 0, 1, 0, 0, 0, 0]"] ;
863 -> 864 ;
865 [label="gini = 0.0\nsamples = 3\nvalue = [0, 3, 0, 0, 0, 0, 0, 0, 0, 0]"] ;
864 -> 865 ;
866 [label="gini = 0.0\nsamples = 1\nvalue = [0, 0, 0, 0, 0, 1, 0, 0, 0, 0]"] ;
864 -> 866 ;
867 [label="gini = 0.0\nsamples = 5\nvalue = [0, 0, 0, 5, 0, 0, 0, 0, 0, 0]"] ;
863 -> 867 ;
868 [label="X[438] <= 93.0\ngini = 0.408\nsamples = 7\nvalue = [0, 0, 0, 0, 2, 0, 0, 0, 5, 0]"] ;
812 -> 868 ;
869 [label="gini = 0.0\nsamples = 5\nvalue = [0, 0, 0, 0, 0, 0, 0, 0, 5, 0]"] ;
868 -> 869 ;
870 [label="gini = 0.0\nsamples = 2\nvalue = [0, 0, 0, 0, 2, 0, 0, 0, 0, 0]"] ;
868 -> 870 ;
871 [label="X[132] <= 103.5\ngini = 0.643\nsamples = 14\nvalue = [1, 0, 0, 0, 0, 2, 7, 0, 4, 0]"] ;
811 -> 871 ;
872 [label="X[485] <= 195.5\ngini = 0.571\nsamples = 7\nvalue = [1, 0, 0, 0, 0, 2, 0, 0, 4, 0]"] ;
871 -> 872 ;
873 [label="X[358] <= 104.5\ngini = 0.444\nsamples = 3\nvalue = [1, 0, 0, 0, 0, 2, 0, 0, 0, 0]"] ;
872 -> 873 ;
874 [label="gini = 0.0\nsamples = 2\nvalue = [0, 0, 0, 0, 0, 2, 0, 0, 0, 0]"] ;
873 -> 874 ;
875 [label="gini = 0.0\nsamples = 1\nvalue = [1, 0, 0, 0, 0, 0, 0, 0, 0, 0]"] ;
873 -> 875 ;
876 [label="gini = 0.0\nsamples = 4\nvalue = [0, 0, 0, 0, 0, 0, 0, 0, 4, 0]"] ;
872 -> 876 ;
877 [label="gini = 0.0\nsamples = 7\nvalue = [0, 0, 0, 0, 0, 0, 7, 0, 0, 0]"] ;
871 -> 877 ;
878 [label="X[239] <= 240.0\ngini = 0.757\nsamples = 24\nvalue = [7, 0, 7, 0, 6, 1, 2, 0, 0, 1]"] ;
810 -> 878 ;
879 [label="X[411] <= 215.0\ngini = 0.685\nsamples = 17\nvalue = [0, 0, 7, 0, 6, 1, 2, 0, 0, 1]"] ;
878 -> 879 ;
880 [label="X[291] <= 223.0\ngini = 0.46\nsamples = 10\nvalue = [0, 0, 7, 0, 0, 1, 2, 0, 0, 0]"] ;
879 -> 880 ;
881 [label="gini = 0.0\nsamples = 7\nvalue = [0, 0, 7, 0, 0, 0, 0, 0, 0, 0]"] ;
880 -> 881 ;
882 [label="X[347] <= 169.0\ngini = 0.444\nsamples = 3\nvalue = [0, 0, 0, 0, 0, 1, 2, 0, 0, 0]"] ;
880 -> 882 ;
883 [label="gini = 0.0\nsamples = 1\nvalue = [0, 0, 0, 0, 0, 1, 0, 0, 0, 0]"] ;
882 -> 883 ;
884 [label="gini = 0.0\nsamples = 2\nvalue = [0, 0, 0, 0, 0, 0, 2, 0, 0, 0]"] ;
882 -> 884 ;
885 [label="X[625] <= 126.5\ngini = 0.245\nsamples = 7\nvalue = [0, 0, 0, 0, 6, 0, 0, 0, 0, 1]"] ;
879 -> 885 ;
886 [label="gini = 0.0\nsamples = 6\nvalue = [0, 0, 0, 0, 6, 0, 0, 0, 0, 0]"] ;
885 -> 886 ;
887 [label="gini = 0.0\nsamples = 1\nvalue = [0, 0, 0, 0, 0, 0, 0, 0, 0, 1]"] ;
885 -> 887 ;
888 [label="gini = 0.0\nsamples = 7\nvalue = [7, 0, 0, 0, 0, 0, 0, 0, 0, 0]"] ;
878 -> 888 ;
889 [label="X[483] <= 23.0\ngini = 0.585\nsamples = 47\nvalue = [0, 0, 8, 28, 1, 8, 0, 0, 2, 0]"] ;
809 -> 889 ;
890 [label="X[344] <= 50.0\ngini = 0.439\nsamples = 39\nvalue = [0, 0, 0, 28, 1, 8, 0, 0, 2, 0]"] ;
889 -> 890 ;
891 [label="X[513] <= 111.5\ngini = 0.067\nsamples = 29\nvalue = [0, 0, 0, 28, 0, 0, 0, 0, 1, 0]"] ;
890 -> 891 ;
892 [label="gini = 0.0\nsamples = 28\nvalue = [0, 0, 0, 28, 0, 0, 0, 0, 0, 0]"] ;
891 -> 892 ;
893 [label="gini = 0.0\nsamples = 1\nvalue = [0, 0, 0, 0, 0, 0, 0, 0, 1, 0]"] ;
891 -> 893 ;
894 [label="X[358] <= 63.0\ngini = 0.34\nsamples = 10\nvalue = [0, 0, 0, 0, 1, 8, 0, 0, 1, 0]"] ;
890 -> 894 ;
895 [label="gini = 0.0\nsamples = 8\nvalue = [0, 0, 0, 0, 0, 8, 0, 0, 0, 0]"] ;
894 -> 895 ;
896 [label="X[430] <= 145.0\ngini = 0.5\nsamples = 2\nvalue = [0, 0, 0, 0, 1, 0, 0, 0, 1, 0]"] ;
894 -> 896 ;
897 [label="gini = 0.0\nsamples = 1\nvalue = [0, 0, 0, 0, 0, 0, 0, 0, 1, 0]"] ;
896 -> 897 ;
898 [label="gini = 0.0\nsamples = 1\nvalue = [0, 0, 0, 0, 1, 0, 0, 0, 0, 0]"] ;
896 -> 898 ;
899 [label="gini = 0.0\nsamples = 8\nvalue = [0, 0, 8, 0, 0, 0, 0, 0, 0, 0]"] ;
889 -> 899 ;
900 [label="X[272] <= 11.5\ngini = 0.584\nsamples = 127\nvalue = [2, 1, 6, 0, 0, 19, 76, 0, 23, 0]"] ;
808 -> 900 ;
901 [label="X[657] <= 18.0\ngini = 0.324\nsamples = 92\nvalue = [0, 1, 3, 0, 0, 6, 75, 0, 7, 0]"] ;
900 -> 901 ;
902 [label="X[149] <= 6.0\ngini = 0.101\nsamples = 76\nvalue = [0, 0, 3, 0, 0, 1, 72, 0, 0, 0]"] ;
901 -> 902 ;
903 [label="gini = 0.0\nsamples = 72\nvalue = [0, 0, 0, 0, 0, 0, 72, 0, 0, 0]"] ;
902 -> 903 ;
904 [label="X[292] <= 126.5\ngini = 0.375\nsamples = 4\nvalue = [0, 0, 3, 0, 0, 1, 0, 0, 0, 0]"] ;
902 -> 904 ;
905 [label="gini = 0.0\nsamples = 1\nvalue = [0, 0, 0, 0, 0, 1, 0, 0, 0, 0]"] ;
904 -> 905 ;
906 [label="gini = 0.0\nsamples = 3\nvalue = [0, 0, 3, 0, 0, 0, 0, 0, 0, 0]"] ;
904 -> 906 ;
907 [label="X[240] <= 9.0\ngini = 0.672\nsamples = 16\nvalue = [0, 1, 0, 0, 0, 5, 3, 0, 7, 0]"] ;
901 -> 907 ;
908 [label="gini = 0.0\nsamples = 4\nvalue = [0, 0, 0, 0, 0, 4, 0, 0, 0, 0]"] ;
907 -> 908 ;
909 [label="X[129] <= 4.0\ngini = 0.583\nsamples = 12\nvalue = [0, 1, 0, 0, 0, 1, 3, 0, 7, 0]"] ;
907 -> 909 ;
910 [label="X[634] <= 251.5\ngini = 0.219\nsamples = 8\nvalue = [0, 0, 0, 0, 0, 1, 0, 0, 7, 0]"] ;
909 -> 910 ;
911 [label="gini = 0.0\nsamples = 7\nvalue = [0, 0, 0, 0, 0, 0, 0, 0, 7, 0]"] ;
910 -> 911 ;
912 [label="gini = 0.0\nsamples = 1\nvalue = [0, 0, 0, 0, 0, 1, 0, 0, 0, 0]"] ;
910 -> 912 ;
913 [label="X[189] <= 38.0\ngini = 0.375\nsamples = 4\nvalue = [0, 1, 0, 0, 0, 0, 3, 0, 0, 0]"] ;
909 -> 913 ;
914 [label="gini = 0.0\nsamples = 1\nvalue = [0, 1, 0, 0, 0, 0, 0, 0, 0, 0]"] ;
913 -> 914 ;
915 [label="gini = 0.0\nsamples = 3\nvalue = [0, 0, 0, 0, 0, 0, 3, 0, 0, 0]"] ;
913 -> 915 ;
916 [label="X[630] <= 2.5\ngini = 0.642\nsamples = 35\nvalue = [2, 0, 3, 0, 0, 13, 1, 0, 16, 0]"] ;
900 -> 916 ;
917 [label="X[411] <= 66.0\ngini = 0.418\nsamples = 15\nvalue = [1, 0, 3, 0, 0, 11, 0, 0, 0, 0]"] ;
916 -> 917 ;
918 [label="gini = 0.0\nsamples = 11\nvalue = [0, 0, 0, 0, 0, 11, 0, 0, 0, 0]"] ;
917 -> 918 ;
919 [label="X[302] <= 253.5\ngini = 0.375\nsamples = 4\nvalue = [1, 0, 3, 0, 0, 0, 0, 0, 0, 0]"] ;
917 -> 919 ;
920 [label="gini = 0.0\nsamples = 3\nvalue = [0, 0, 3, 0, 0, 0, 0, 0, 0, 0]"] ;
919 -> 920 ;
921 [label="gini = 0.0\nsamples = 1\nvalue = [1, 0, 0, 0, 0, 0, 0, 0, 0, 0]"] ;
919 -> 921 ;
922 [label="X[266] <= 252.5\ngini = 0.345\nsamples = 20\nvalue = [1, 0, 0, 0, 0, 2, 1, 0, 16, 0]"] ;
916 -> 922 ;
923 [label="gini = 0.0\nsamples = 16\nvalue = [0, 0, 0, 0, 0, 0, 0, 0, 16, 0]"] ;
922 -> 923 ;
924 [label="X[273] <= 73.0\ngini = 0.625\nsamples = 4\nvalue = [1, 0, 0, 0, 0, 2, 1, 0, 0, 0]"] ;
922 -> 924 ;
925 [label="X[457] <= 224.5\ngini = 0.5\nsamples = 2\nvalue = [1, 0, 0, 0, 0, 0, 1, 0, 0, 0]"] ;
924 -> 925 ;
926 [label="gini = 0.0\nsamples = 1\nvalue = [1, 0, 0, 0, 0, 0, 0, 0, 0, 0]"] ;
925 -> 926 ;
927 [label="gini = 0.0\nsamples = 1\nvalue = [0, 0, 0, 0, 0, 0, 1, 0, 0, 0]"] ;
925 -> 927 ;
928 [label="gini = 0.0\nsamples = 2\nvalue = [0, 0, 0, 0, 0, 2, 0, 0, 0, 0]"] ;
924 -> 928 ;
929 [label="X[657] <= 1.0\ngini = 0.787\nsamples = 908\nvalue = [8, 117, 66, 150, 38, 63, 71, 5, 351, 39]"] ;
807 -> 929 ;
930 [label="X[384] <= 7.5\ngini = 0.852\nsamples = 310\nvalue = [4, 52, 55, 15, 23, 45, 67, 1, 31, 17]"] ;
929 -> 930 ;
931 [label="X[526] <= 41.0\ngini = 0.84\nsamples = 243\nvalue = [1, 51, 53, 15, 22, 45, 8, 1, 31, 16]"] ;
930 -> 931 ;
932 [label="X[275] <= 58.5\ngini = 0.832\nsamples = 198\nvalue = [1, 50, 14, 14, 22, 45, 6, 0, 30, 16]"] ;
931 -> 932 ;
933 [label="X[350] <= 248.5\ngini = 0.819\nsamples = 157\nvalue = [0, 50, 14, 13, 22, 9, 6, 0, 27, 16]"] ;
932 -> 933 ;
934 [label="X[433] <= 252.5\ngini = 0.82\nsamples = 81\nvalue = [0, 4, 5, 7, 19, 8, 4, 0, 23, 11]"] ;
933 -> 934 ;
935 [label="X[466] <= 22.5\ngini = 0.799\nsamples = 43\nvalue = [0, 3, 3, 2, 14, 8, 2, 0, 2, 9]"] ;
934 -> 935 ;
936 [label="X[235] <= 87.0\ngini = 0.794\nsamples = 29\nvalue = [0, 3, 3, 1, 2, 8, 1, 0, 2, 9]"] ;
935 -> 936 ;
937 [label="X[459] <= 132.5\ngini = 0.765\nsamples = 19\nvalue = [0, 2, 3, 1, 1, 8, 1, 0, 2, 1]"] ;
936 -> 937 ;
938 [label="X[608] <= 37.5\ngini = 0.43\nsamples = 11\nvalue = [0, 0, 2, 1, 0, 8, 0, 0, 0, 0]"] ;
937 -> 938 ;
939 [label="X[133] <= 9.5\ngini = 0.198\nsamples = 9\nvalue = [0, 0, 0, 1, 0, 8, 0, 0, 0, 0]"] ;
938 -> 939 ;
940 [label="gini = 0.0\nsamples = 8\nvalue = [0, 0, 0, 0, 0, 8, 0, 0, 0, 0]"] ;
939 -> 940 ;
941 [label="gini = 0.0\nsamples = 1\nvalue = [0, 0, 0, 1, 0, 0, 0, 0, 0, 0]"] ;
939 -> 941 ;
942 [label="gini = 0.0\nsamples = 2\nvalue = [0, 0, 2, 0, 0, 0, 0, 0, 0, 0]"] ;
938 -> 942 ;
943 [label="X[287] <= 64.0\ngini = 0.812\nsamples = 8\nvalue = [0, 2, 1, 0, 1, 0, 1, 0, 2, 1]"] ;
937 -> 943 ;
944 [label="X[461] <= 12.5\ngini = 0.778\nsamples = 6\nvalue = [0, 2, 1, 0, 1, 0, 1, 0, 0, 1]"] ;
943 -> 944 ;
945 [label="gini = 0.0\nsamples = 2\nvalue = [0, 2, 0, 0, 0, 0, 0, 0, 0, 0]"] ;
944 -> 945 ;
946 [label="X[666] <= 4.5\ngini = 0.75\nsamples = 4\nvalue = [0, 0, 1, 0, 1, 0, 1, 0, 0, 1]"] ;
944 -> 946 ;
947 [label="X[597] <= 1.0\ngini = 0.667\nsamples = 3\nvalue = [0, 0, 0, 0, 1, 0, 1, 0, 0, 1]"] ;
946 -> 947 ;
948 [label="X[243] <= 28.0\ngini = 0.5\nsamples = 2\nvalue = [0, 0, 0, 0, 1, 0, 0, 0, 0, 1]"] ;
947 -> 948 ;
949 [label="gini = 0.0\nsamples = 1\nvalue = [0, 0, 0, 0, 0, 0, 0, 0, 0, 1]"] ;
948 -> 949 ;
950 [label="gini = 0.0\nsamples = 1\nvalue = [0, 0, 0, 0, 1, 0, 0, 0, 0, 0]"] ;
948 -> 950 ;
951 [label="gini = 0.0\nsamples = 1\nvalue = [0, 0, 0, 0, 0, 0, 1, 0, 0, 0]"] ;
947 -> 951 ;
952 [label="gini = 0.0\nsamples = 1\nvalue = [0, 0, 1, 0, 0, 0, 0, 0, 0, 0]"] ;
946 -> 952 ;
953 [label="gini = 0.0\nsamples = 2\nvalue = [0, 0, 0, 0, 0, 0, 0, 0, 2, 0]"] ;
943 -> 953 ;
954 [label="X[181] <= 9.0\ngini = 0.34\nsamples = 10\nvalue = [0, 1, 0, 0, 1, 0, 0, 0, 0, 8]"] ;
936 -> 954 ;
955 [label="X[269] <= 100.0\ngini = 0.5\nsamples = 2\nvalue = [0, 1, 0, 0, 1, 0, 0, 0, 0, 0]"] ;
954 -> 955 ;
956 [label="gini = 0.0\nsamples = 1\nvalue = [0, 1, 0, 0, 0, 0, 0, 0, 0, 0]"] ;
955 -> 956 ;
957 [label="gini = 0.0\nsamples = 1\nvalue = [0, 0, 0, 0, 1, 0, 0, 0, 0, 0]"] ;
955 -> 957 ;
958 [label="gini = 0.0\nsamples = 8\nvalue = [0, 0, 0, 0, 0, 0, 0, 0, 0, 8]"] ;
954 -> 958 ;
959 [label="X[355] <= 10.0\ngini = 0.255\nsamples = 14\nvalue = [0, 0, 0, 1, 12, 0, 1, 0, 0, 0]"] ;
935 -> 959 ;
960 [label="gini = 0.0\nsamples = 12\nvalue = [0, 0, 0, 0, 12, 0, 0, 0, 0, 0]"] ;
959 -> 960 ;
961 [label="X[545] <= 7.5\ngini = 0.5\nsamples = 2\nvalue = [0, 0, 0, 1, 0, 0, 1, 0, 0, 0]"] ;
959 -> 961 ;
962 [label="gini = 0.0\nsamples = 1\nvalue = [0, 0, 0, 1, 0, 0, 0, 0, 0, 0]"] ;
961 -> 962 ;
963 [label="gini = 0.0\nsamples = 1\nvalue = [0, 0, 0, 0, 0, 0, 1, 0, 0, 0]"] ;
961 -> 963 ;
964 [label="X[291] <= 15.5\ngini = 0.651\nsamples = 38\nvalue = [0, 1, 2, 5, 5, 0, 2, 0, 21, 2]"] ;
934 -> 964 ;
965 [label="X[461] <= 253.5\ngini = 0.449\nsamples = 7\nvalue = [0, 0, 1, 5, 0, 0, 0, 0, 1, 0]"] ;
964 -> 965 ;
966 [label="gini = 0.0\nsamples = 5\nvalue = [0, 0, 0, 5, 0, 0, 0, 0, 0, 0]"] ;
965 -> 966 ;
967 [label="X[662] <= 127.0\ngini = 0.5\nsamples = 2\nvalue = [0, 0, 1, 0, 0, 0, 0, 0, 1, 0]"] ;
965 -> 967 ;
968 [label="gini = 0.0\nsamples = 1\nvalue = [0, 0, 1, 0, 0, 0, 0, 0, 0, 0]"] ;
967 -> 968 ;
